-6.939345206475690253e-02,-2.282608237369428694e-01,-1.004541744397664527e+00,-6.954354927853971802e-01,-4.659327592282749841e-01,-1.726822845730994205e-01,-8.844196240582496982e-03,9.862863210111091905e-02,-9.638275692906568548e-02,-2.049492961508994071e-01,-1.766336419198999141e-01,-3.924203110190675747e-02,-4.945926165112823208e-02,-1.179533724098137670e-01,-2.317141024799912463e-02,1.292560434884107157e-01,4.700813582409513192e-02,2.460517576413171759e-01,-8.012039226590893237e-02,-9.631953250570048919e-01,-7.695677233961881747e-01,-1.484993558098534061e-01,3.307829348149798898e-01,3.555813218330974301e-01,2.869658960403765335e-01,-3.942886235706305476e-01,-2.085538335963210144e-01,-2.569275680895343195e-01,-3.290520815261401277e-01,-2.240689547868082721e-01,-1.715615422691521286e-01,-7.446301419253187337e-02,1.671440382686356987e-02,9.404525872723382141e-02,1.427216284534691196e-02,-1.956899103950514029e-01,-7.427486056996877029e-01,-5.499515622143209548e-01,-5.099489420391940461e-03,2.593550940708246322e-01,3.220717627382135850e-01,2.117376751469128571e-01,-6.297588780845825296e-02,-2.540495188912216262e-01,-2.096584844540752279e-01,-1.576151579319737261e-01,-6.756772283554333958e-02,-1.798372813872484849e-02,-2.720404729621165099e-02,2.119171164620375566e-02,-3.194907375847786529e-02,3.471406575236397896e-02,-1.295209264606005106e-01,-4.599442197542237820e-01,-1.857509591458273990e-01,3.647074016421808507e-01,2.885616236986573990e-01,8.695947400293866508e-03,6.658377646926372240e-02,-1.309451600770357160e-01,-5.610579986955798182e-01,-2.978688685062367836e-01,-8.250241376031348939e-02,-1.535083258159871955e-01,-4.261965643834019629e-02,-1.326693443215171686e-01,1.670410800220525210e-02,2.277324381056216804e-02,6.944150092356901616e-02,2.578010577309748641e-02,-5.375287083029371971e-01,7.997355226820603014e-02,4.888391393595155621e-01,4.468997004742462087e-01,7.386243707290747473e-02,3.530198547045400592e-01,-2.713339573807549768e-02,1.555280112001821737e-02,-4.487739035631369000e-02,-2.606033981074800526e-02,-6.177190725998588094e-02,-7.406860497736385274e-02,-8.237582200506783636e-02,-4.137513641758591015e-02,-3.200937364809709057e-02,2.451964529682759686e-01,4.599398205093416930e-02,-7.848953656944749335e-01,-3.915584692279892032e-01,-2.059235847404543018e-01,-1.415823799317483256e-01,2.811234332611564635e-01,2.721565376344641796e-01,2.086206918737957064e-02,-1.387613261039885582e-01,-1.600887104922053272e-01,-1.239627291692572825e-01,-1.165747168843124654e-01,-8.534982550368329368e-02,-1.306276325567366503e-01,-8.896245202349052639e-02,-8.220520750221881057e-02,2.107427122504751393e-01,2.075958468415900204e-01,-7.741194715147416971e-01,-3.359169419812639834e-01,-4.234218242762957662e-01,-4.606164203211682850e-01,1.606556551120014997e-01,3.878217622438218798e-02,3.206373821122499718e-02,2.565858028277779104e-02,-4.746080410285868911e-02,-4.934013157135126032e-02,-3.421443835300235631e-02,3.273029087341675081e-02,1.992903503038876561e-02,-4.754851929331440491e-02,6.574389411319725429e-02,8.843382198897975499e-02,2.338234263385533529e-01,7.357958780399986853e-02,2.213395045853740473e-01,9.783603759550732470e-02,6.895612759145651471e-02,4.703103474703693165e-02,9.047779973161251821e-02,-2.165115206143446158e-01,6.407695033643787119e-03,-1.350036777995781978e-01,-2.557149958580133900e-02,-1.414594442628359094e-01,4.453695909766727801e-02,-1.561272091113145577e-01,-5.635591494773807553e-02,1.458271891023106212e-02,5.061944851605092444e-01,3.023198636755011770e-01,1.484632061546340420e-01,2.495997877762999584e-01,9.102375864938992700e-02,6.153626818210961025e-02,4.781769853408715520e-02,1.132517526586175882e-01,1.189647799566707735e-02,3.071283159450143713e-02,-6.270975079629512172e-02,-2.058120795485167687e-01,-1.653952275824252527e-01,-8.088868708322620449e-02,-3.291949434794443768e-02,7.424127788873030901e-04,8.789713995619974699e-03,1.665289351415103480e-01,2.383996573430879895e-01,6.401096620279501936e-02,9.627298324544396324e-02,-1.148083057357077302e-01,-1.298048354956463091e-01,-1.551587650389421764e-02,-7.455524979973071273e-03,1.941271035878974760e-02,8.495141413191527324e-03,-1.724000346487574720e-01,-3.733480598083269153e-01,-1.929318755334590851e-01,2.517303926758933039e-02,-3.803080668722926688e-02,-5.428278019401521978e-03,-2.656622861617445944e-02,1.237298125297889018e-01,3.127025421651933867e-01,-1.131869253742401049e-01,-1.212854566272004442e-01,-9.141650773343089342e-02,-1.167600862287405117e-01,-2.083809433759750002e-02,2.655712074202705442e-02,9.965926472066946595e-02,-1.515136184833390520e-01,-1.817808457239930009e-01,-2.008219362574240052e-01,-1.649823127927307342e-01,-2.105476984116256157e-03,-2.528929546357381805e-02,-7.714483785861027398e-02,-7.380875462406713550e-02,2.377894284013679638e-01,2.739512738784256607e-01,-1.612244265834207602e-01,-1.540941476510722385e-01,-2.086046110706034074e-01,3.254240373556169935e-02,5.034974953634572398e-02,-4.914556865368810978e-01,2.439487645070591987e-02,1.147504597119036879e-01,-2.601025204161726001e-01,-3.364709873758501835e-01,-3.115007242158448486e-01,-1.142666146706234308e-02,-8.820963315435915997e-02,-1.748910371004814071e-02,3.298730808562060079e-02,5.033772879360731006e-02,2.183013191798986730e-01,-1.473005286974568007e-01,-1.231916208492909448e-01,-2.057479277148535068e-01,9.095415229055246742e-02,-1.827481410831534037e-01,-5.422852291624571386e-01,-1.259410688914660015e-01,1.848372370931159608e-02,-3.899835960820911135e-02,1.771989736311237879e-02,-2.904842153030429142e-01,2.265951938070940100e-02,8.146739994341886670e-02,5.598260018291303236e-02,4.011032237298706171e-02,-7.694585845550222514e-02,-1.839596148881961768e-01,-2.399929373204188199e-01,-2.811053427602677179e-01,-2.240719526304217890e-01,-1.344465345882847329e-01,-2.079795556811893653e-01,-1.349301268441528145e-01,-1.057109235853654350e-01,2.348644936731006383e-02,-2.113860094761443875e-02,-5.047826064020517062e-02,-4.488272184828176470e-02,5.620604601085485430e-02,-2.321932079893061773e-02,5.145740038480155210e-02,7.863071950373345942e-02,3.046420197819249900e-02,-1.198024716228348330e-01,-1.794006976957243371e-01,-1.063236439537633693e-01,-9.113257438078189998e-02,-1.560419143096635208e-01,-9.136286834836378212e-02,-6.623192377674631814e-02,-3.884695404322889567e-02,6.254607106037074482e-02,3.214056123227353179e-02,5.245151873502732626e-02,3.703329755290162006e-03,-9.392534916199829498e-02,4.945530564146589925e-02,6.418412633723497018e-02,-1.205094391774410717e-01,5.072531007591394442e-02,1.384220796011286468e-02,-6.443810226900927030e-02,-4.655651587427499238e-02,7.844390684598821772e-02,9.888120201998243375e-02,4.046104495709496041e-02,-2.820723513457233309e-02,-5.495687368511945753e-02,-2.422255696713815701e-02,-1.710059548153867320e-02,-8.972294246457203359e-02,2.124030757168547667e-02,5.004319468708155749e-02,-2.864988545970186679e-02,2.391761756393811361e-02,8.913162217211864635e-02,-4.087474396202901705e-02,-8.236786468845448683e-02,5.386278541493586675e-02,-9.539266800965905124e-02,-1.482007207695950346e-01,-4.931818564150793061e-03,-1.722816713594235369e-02,8.827653107274046826e-03,-1.117765427418211666e-03,-6.191166050833712270e-02,-3.819394234495419004e-03,4.594831946873163125e-02,3.262996818145372235e-02,-5.070466584673842536e-02,6.240725980154396280e-02,4.170564037167164007e-02,2.730119074229405557e-02
-2.566231503023534422e-01,-5.866877810981776520e-01,-5.026462550301998844e-01,-7.530853338164563704e-01,-6.349714155408373584e-01,-8.231272591957906615e-01,-4.082387803475436283e-01,5.199783153137986155e-03,-8.223880571254216232e-02,-3.780294269670314566e-02,8.133082939466875633e-03,-5.865362966819396423e-02,4.421075165673381963e-02,-1.829968734549862752e-01,-1.291655280415046070e-01,-9.785821400088551281e-02,1.007184812718404411e-02,-2.498456267103834616e-01,-1.468760124109719234e-01,-1.002149371415532952e+00,-3.031591735656669617e-01,-4.995052663569115037e-01,-8.610848533216952649e-01,-5.948150652449577525e-01,-2.332938707849587512e-01,3.621128101982792336e-01,4.221774420309812870e-01,3.635354870819366702e-01,2.680105137028002682e-01,2.257843791665649913e-01,-1.501120829032090431e-01,-1.332131617360587106e-01,-2.847409605982434422e-02,7.545377065028607833e-02,-2.528142113431246576e-02,1.538424767554324446e-01,9.495676719310874869e-01,1.675492717166738033e-01,-2.057819771697899092e-01,-9.241733691205977763e-01,-7.816528314779082054e-01,-5.236280273052432710e-01,4.104023547083186507e-01,2.145349910444328823e-01,7.241282044800574635e-02,6.825609905478785544e-02,3.279380574576464813e-01,-8.655051028986253392e-02,-2.000059786742837686e-01,1.073405261354702656e-01,1.061144544998979776e-02,-1.078600148624305616e-01,-3.730932580637174797e-03,6.367442249130585985e-01,3.081895670577133872e-01,2.466852496701630038e-01,-3.260024307133957966e-01,-5.435495974930573126e-01,-6.735862258570909367e-01,-1.108573708713284367e-01,-3.793797598938520310e-01,-2.427407976101636222e-01,-1.041331861561479027e-01,1.256765638830172616e-01,-4.070283780085041658e-01,-2.634188395689697204e-01,-2.709979893050137173e-02,9.230784983409470734e-02,-3.479988548530416753e-02,1.970756256405276075e-02,1.140507463536708732e+00,2.509963102236418830e-01,7.661622816119193491e-01,2.654871708155837062e-01,-2.055100898033939416e-01,-7.304840712332341113e-01,-3.376270632419351991e-01,-3.771883025423611313e-01,-2.349281145634047469e-02,2.433247623783859337e-01,1.419124482072176008e-01,-2.989920465687593287e-01,-1.447952710013915845e-01,1.361446452452708122e-01,-1.408664114919247132e-02,2.216725911157564621e-01,1.192379858389762265e-01,-7.367022237074252189e-01,3.699090252966698578e-01,6.991272532445758081e-01,6.128578781628152283e-01,5.389186945550531460e-01,4.070277053472817763e-01,2.025664480530781908e-01,-3.050146076826848462e-02,4.131278160382870213e-01,4.204827583282282344e-01,1.405204073623140260e-01,-1.278088957570319151e-01,1.723991354899695808e-02,1.142725290893460977e-01,1.787974205595741634e-02,2.957172780164947223e-01,1.461681395452548160e-01,1.321312196747948253e-01,1.795129573640793785e-01,4.264947124774438603e-01,9.476732588721618056e-01,9.045538592262725164e-01,4.036561680394594731e-01,1.266400693714162806e-01,-6.405665643622572569e-02,-3.204771121040968229e-02,2.243266070025942416e-01,2.245411141149995238e-01,-2.244314989141845129e-01,9.478328522473361550e-02,1.798086907370779197e-01,4.146445084351745719e-02,1.076035291811993644e-01,3.004311962646742384e-01,6.288260215018621757e-01,-7.195590779241538282e-02,3.725523106894508829e-01,3.263355130324203102e-01,5.771027838523009601e-01,4.432552206328166933e-01,1.162370377953181461e-01,-2.027343455313682374e-01,-4.863850750472874518e-01,-2.321648796624909208e-02,5.490409109814655547e-02,-3.530515858897167458e-01,1.323867855178571980e-02,-2.840327809751286639e-02,1.311952116950823241e-02,3.883569797616927000e-01,1.683111034080208845e-01,-3.898865094026252032e-01,2.331420223364862876e-01,4.332893746093333109e-01,1.028723751307390327e-01,1.586779312766541106e-01,5.093317097989540077e-02,5.028313555092389642e-02,-2.222956206268691115e-01,-3.609654465712121563e-01,-1.158572649206051630e-01,-2.492486295314189776e-02,-2.470650292829558725e-01,5.122780434362924490e-02,1.020171667226908163e-01,7.619545250341122622e-02,4.323662912563486227e-01,1.103324437326848734e-01,9.636939802369839381e-01,6.136124950358641250e-01,2.892028864228128882e-01,-3.849805801894305990e-01,5.256790311052219472e-02,7.485523978777515464e-02,-3.018220942693946585e-01,-1.996399454250598060e-01,-1.755450768512014925e-01,-5.403929097273235671e-02,-1.074138194336862889e-01,-1.244713585127665695e-01,8.018404400197345905e-02,3.938543185162239786e-03,-1.589319479075932198e-02,4.798141209749833824e-01,1.606555478924044655e-01,1.134434616090323367e+00,4.523050566143376749e-01,1.724160865249361740e-01,-3.255331920761375120e-01,-3.395202757673214666e-01,2.806729708110520805e-01,1.063386305829499417e-02,4.180695095907849268e-02,1.299656365887377485e-01,2.804941062106453553e-01,7.674530793714115506e-02,-6.569258106884780235e-02,-5.506604820567354702e-02,6.390156122732297550e-02,-7.899871743683113678e-02,1.850869025766361531e-01,1.945074124330879728e-01,-1.041891588497009913e+00,-7.639691734086606623e-01,-1.107865952157349065e+00,-1.891409084543667518e+00,-1.959875974994153225e+00,-7.596564602349750173e-01,-3.450752646500924170e-01,-1.215082572637988245e-01,3.293639597272084441e-01,3.594491218018842638e-01,4.428847258744777332e-02,-1.555244319377628304e-01,-1.326287640058344645e-02,-4.870675754776879543e-03,-5.174841794230748693e-02,-8.121702693413088148e-02,3.613120599884400708e-02,-1.205051177445045418e+00,-1.160699214003855673e+00,-1.202650753269297157e+00,-1.805240585355124328e+00,-1.385707121355641114e+00,-6.878308414721610031e-01,-3.126235501019189456e-01,1.345699675929027950e-01,3.563181395440413735e-02,4.081645228295408545e-01,9.072874503158510906e-02,2.405148916345410670e-02,1.139790769709739943e-01,1.955709404905160709e-01,-6.111065684807737153e-02,5.128148350078224130e-03,-1.473912149512892067e-01,-2.408525561250985381e-01,-6.957893600031074266e-01,-8.633785274209528904e-01,-1.046171346227414700e+00,-1.002906032238398693e+00,-5.782278558514888367e-01,-1.328289115289976174e-01,2.432255206538504744e-01,6.516454244975410093e-02,8.964445008086220634e-02,7.825781442417148459e-02,2.452009702440183583e-02,5.799917396086722715e-02,8.930914352992433414e-02,1.753804971962002676e-02,-3.192795665711486985e-02,7.089040910504749993e-02,-1.730582405199825591e-01,-2.217448662081400734e-01,-8.433422581447369559e-02,-1.864715215966945006e-01,-2.332367411777276911e-01,-1.454042437662555198e-01,8.856898262067729177e-02,-5.494640944838538425e-03,-5.793698467116537715e-02,3.519448926213857021e-02,-1.722546373819154597e-02,2.766475477124585858e-02,-5.653713852920538852e-02,1.737790626804807184e-02,-4.648255791255578862e-02,-5.359519924578470818e-02,1.527046284789346231e-02,-6.364910737962714560e-02,-8.203080261792027039e-03,-2.853146455038127818e-02,1.261646831515946671e-02,-7.414902785543397989e-02,-1.493834727780065340e-02,5.161728508383594399e-02,-6.869679776742021460e-02,7.220406330495535846e-03,-6.898736545578404433e-02,-8.544717597161839706e-02,5.832252693439516494e-02,-7.675432549135995097e-02,-4.238781764680715769e-02,-3.494734815710730247e-02,-1.136638721024591792e-01,5.012116111044690597e-02,4.647616485428415073e-02,-5.658787814501863023e-02,8.362674537986244938e-02,9.121239924363255813e-02,2.401722531257374088e-02,-2.973612308191883602e-02,6.991843920804094448e-02,-5.823016876741631681e-02,9.096978450142274852e-02,-4.372365965913829755e-02,-9.087343756382328108e-02,-5.359436099066740983e-02,2.784959932342735700e-02,-3.341548266070423680e-03,5.624972022054428727e-02
-3.606468626378755288e-02,-2.275729933795549997e-01,-5.139455042301689369e-01,3.700702567170481849e-01,-1.374319679148643947e-01,6.226689897644671623e-02,4.570251069266289545e-01,1.136696562798875931e-01,-3.151290528610642405e-02,-4.805915071489808010e-02,-3.972423127069454885e-01,-2.475759745106598519e-01,-5.122772857122252776e-02,7.720813059938930190e-02,1.300686046168446179e-02,-4.179239978859933952e-02,3.672097633187577231e-02,1.548092019870629943e-01,5.548141020270892960e-03,-2.192464554025345680e-01,6.512762169519885624e-01,-3.075892446827829807e-02,1.792655577436240710e-01,-3.315332775931794651e-01,4.670107802460411739e-02,-1.084862495678173000e-01,-5.243380904074589066e-02,-2.114737546797013923e-01,-1.669285052834180343e-03,1.949785796047243114e-01,-1.251961748144730935e-02,7.065733569614232601e-02,2.071593109444996861e-02,-2.011722314152436866e-02,1.356258647129656159e-01,1.029629660206624053e-02,-5.718130508441401361e-01,-2.528897568746726887e-01,-6.525843418413531660e-01,-4.549587909669920438e-01,2.521271333729360187e-01,1.485246409216708658e-03,-9.966283455686558712e-02,3.936800345156226677e-01,1.711433819713732984e-01,1.306276715556275170e-01,1.807732380135044781e-01,-4.814670777540519878e-03,1.056525706792681846e-01,1.173433619521715709e-01,2.428916737970782070e-04,-5.379777870897540781e-01,-5.888956923898442872e-03,-6.725529135075665188e-01,-7.165788152464683258e-02,-2.510365698344174668e-01,-2.094940596379109288e-02,8.337615832081014533e-01,6.118412277574865055e-01,-1.538108065712280315e-01,-3.713652718735119956e-02,4.194185664008203140e-01,1.061067001552696426e-01,1.043549604843301698e-01,1.198033359013340494e-02,8.166387026932455176e-03,2.685222620655353196e-03,-4.208421749602450634e-02,-5.884382140744519596e-01,-3.489619399743205119e-01,-7.180758555894452000e-01,-1.555945877092118901e-01,5.718754155388037358e-02,4.824503507410256020e-01,9.545488535313199074e-01,9.624315097892550686e-01,5.336149000693809485e-01,5.341284943952175901e-01,6.406652046529525135e-01,2.444725421201183746e-01,2.924233316761594703e-01,5.969670520863096241e-02,-4.655520059252012816e-02,1.142419380136567436e-02,-9.229265526582204615e-02,-4.363583154446220580e-01,-4.085507534891559822e-01,-3.176831263767027624e-01,-1.004125649775047535e-01,-4.233712049616457362e-02,8.348890078342524612e-01,7.011128715589903804e-01,8.772524605885986815e-02,-1.354447461651469009e-01,-4.919015286972077544e-02,4.506375130474960522e-01,1.206858972918240652e-01,3.184541717904171843e-01,-1.102523810815457805e-01,7.400267193640888697e-02,-7.111004093131081949e-02,2.001789930899991118e-02,-4.351929742947232560e-01,1.230982056161530891e-01,1.286690023628034862e-01,-2.735332889885301877e-01,-6.100635689952427221e-02,6.447429924134866486e-01,3.024016453602175747e-01,-4.989905553600353094e-02,-6.378970790075897401e-01,-3.336128011793835779e-01,-1.616674187100116955e-01,1.166259217899205530e-01,2.420532533826540156e-01,-8.891780537197555012e-02,3.196246824147454951e-02,6.212936738835033584e-02,1.407457930745388275e-01,-1.298581902801876908e-01,4.652829160769336170e-01,1.831091671969339030e-01,1.320389631804500807e-01,1.917180023300598946e-01,3.667436474261117074e-01,4.993447151052592958e-01,4.377404874227368570e-01,-1.788880397445699322e-01,-3.044524101435686081e-01,-5.505411753569251498e-01,-8.840324278596739527e-02,5.948501197681416164e-02,1.015157305099257112e-01,1.323968056455978315e-01,8.565135210957404432e-02,2.920950428325817458e-02,3.611728865340753380e-02,2.214348807779446537e-01,1.917003560270338636e-01,2.873058413936162570e-01,4.477497277192103026e-02,1.521676075085844904e-01,5.902188911483935430e-01,7.170606443486329251e-01,3.535711188059886823e-01,2.256432353423021807e-03,-1.297944811621814798e-01,-1.003444309634234782e-01,9.144112990456433609e-02,-3.499270274574247525e-02,7.230886252271874481e-02,6.115806188277254918e-02,9.364075021326949411e-02,-6.998022821440214036e-02,-1.809276947964617022e-01,-1.561082377685237277e-01,1.094904125530838102e-01,1.319629221520020323e-01,3.083622891608097105e-01,8.884560055729240347e-01,7.337932323695397496e-01,1.881713236290820934e-01,5.632329040125495789e-02,1.687466708232371049e-01,-1.604287248733321514e-01,8.216829530374300528e-02,2.476279715933631456e-02,3.079933581742605453e-02,-5.151960966657188196e-02,2.802648341643629998e-02,1.298592654917800904e-01,-4.293475065552440073e-01,-3.331825110497926290e-01,-4.423435203185248632e-01,-1.094836511897060022e-01,1.713768648255328125e-02,8.393153668167674386e-01,1.066184654630314199e+00,-5.167546001276293599e-02,3.456980129958467929e-01,1.182125470902554015e-01,1.753640539151849198e-01,1.212202071186917196e-02,3.815396102684712881e-02,4.871016706490051418e-02,-5.649268540156012625e-02,-5.877209830836693794e-02,7.085246287783749652e-01,7.623615331527618943e-01,2.174201661073260350e-01,-2.317497831456104551e-01,7.070788024272244010e-02,-6.721278664265285807e-02,1.121467315168541035e+00,6.290360900244321707e-01,-3.448607171168112107e-01,-2.305953711221063185e-01,7.608402580190880282e-02,2.774476773201525748e-01,1.563935984578113114e-01,2.477333761290195432e-02,3.946390635440267386e-03,8.612818507024817827e-02,7.840550114638150658e-02,7.327067847879874529e-01,7.764600197526511094e-01,-4.845908971251944308e-01,1.035233501322541938e-01,-6.389307261348051159e-02,-5.680476079217291474e-01,2.456506268113174962e-01,2.424687571101348249e-01,-8.074600053576417302e-01,-4.442205628421235786e-01,-4.216804671245480418e-02,2.308186956292566927e-01,1.888337287593614411e-01,-1.478794999608921794e-02,8.306115173557282461e-02,-1.185323105306767578e-02,6.713105955571475880e-02,1.062917361231850016e-01,-5.133208280156421888e-02,-1.934522438006682776e-01,-1.992204021116105450e-01,-3.847075839435964428e-01,-5.362630353861252974e-01,-3.516120054229007197e-01,-3.021784615170298727e-01,-2.371121953117391601e-01,-1.041220552696101864e-01,3.910620662979982093e-02,1.020973147197015880e-02,-2.314807525510845579e-02,-8.584111152102345821e-02,7.604896922023139660e-02,-1.261980136216109966e-02,6.830817357654563049e-02,2.770156663839678027e-02,3.078475613985665743e-02,-1.491692223905615455e-01,3.581533389592380517e-02,-1.965820249133831965e-01,-3.057154561297513104e-02,-1.515662597267091738e-01,-9.613067406051868657e-02,-1.149335765413826427e-01,-1.996275338413457667e-01,-5.707744645000553674e-02,-8.180849891766376475e-03,-1.019856499713456960e-01,-2.242730120170433397e-02,-1.598362209844797488e-02,-2.696007932336225849e-02,-3.742406098556522870e-02,-1.031184798955508547e-01,1.108914727230145003e-01,-3.409894613410886788e-02,-1.131949417713977273e-02,2.711085333641018863e-02,-3.946829670486697028e-02,-8.695703054958237033e-02,-1.268175709782127791e-01,-7.167345730854760705e-03,-5.708543262286130265e-02,9.344922886187848055e-02,-1.777991678977322923e-02,-1.019439387648952977e-01,4.434772391085991389e-02,1.076701661987623376e-01,-1.754531970156126067e-02,-8.631619097792525563e-02,5.557350259365800155e-02,4.597893174666776300e-03,1.102177734245249373e-04,3.524494398542277196e-02,-1.283964055462996287e-02,-7.909279380283525118e-02,7.169015359255052899e-02,-1.399130941050918120e-01,-3.608296038411144824e-02,-1.194988203774863811e-01,-1.372572121950493308e-02,-9.132258813832777600e-02,-3.795426008824744502e-03,-9.271897240850465738e-02,2.298771931027466034e-02,-6.266780321993135894e-02,-7.749998464588024605e-02
-2.261410021410130422e-01,-3.868196751209892342e-02,-6.493963559337029290e-02,-8.935816383032683941e-02,-3.484614637068054188e-01,3.290858770511976283e-01,1.490787876418025182e-01,-1.404367081533279826e-01,-5.594703615530201984e-02,6.210499765707188508e-02,-6.286590805554841122e-02,-3.866087050958386118e-01,-4.551020225026758403e-01,-2.476621952251660541e-01,-3.754082088026728520e-02,2.875687515836742453e-02,8.195418473694883466e-02,-6.174554886270235965e-01,-2.127660837739993871e-01,-5.418756399870966467e-01,-1.505818379730893830e-01,-1.704606892038915134e-01,5.870239635731972633e-02,3.526212427461323240e-01,-1.499859632779567409e-01,4.973292999956906851e-02,2.307548222174513053e-01,-1.724284135496230164e-01,-6.458962104247114588e-01,-3.761914635875951429e-01,-4.291373396375024185e-02,8.105388761730729363e-02,8.956891546337099330e-02,-9.373119040278576897e-02,-5.690196515714988079e-01,-2.557544082987084910e-01,-5.513343660080707309e-01,-7.161511987592804329e-02,-1.633631765191329854e-01,1.307055383617938549e-01,-1.871883352420356528e-01,-3.342921718002476172e-01,-3.310358599509962696e-01,2.062773717170964249e-01,-2.086426155018142048e-01,-4.727405886605731689e-01,-5.338921080842649880e-02,2.597635731041433860e-01,1.756783715327802919e-01,-2.556026142122106923e-02,-6.929950540622056843e-02,5.031806936137277197e-02,3.664179151356984354e-01,-2.035977807888631752e-01,-6.103235797171172594e-01,-1.732913684534654886e-01,-1.897192560166657549e-01,-4.361321815565208926e-01,-3.271404911776360502e-01,-2.937828364666486558e-01,1.894273975000813071e-01,3.486293108520563400e-02,-3.579544712641464232e-01,-4.219397191445470319e-02,4.063522167238540206e-01,1.672618768117710708e-01,3.332810104152694047e-02,8.303421884906762862e-02,1.189600784449882376e-01,4.753010060923898994e-01,-1.590351155384544246e-01,-3.382050841786233275e-01,-3.966407918548051637e-01,-2.053052450487666825e-01,-6.132770889689183047e-01,-5.313508114509913893e-01,-1.907979551478476421e-01,1.298304611485479598e-01,1.810063313679220465e-01,-8.109660425763565161e-02,1.130127176530790201e-02,1.037152578173155815e-01,5.216206079435306564e-02,1.316677897804724162e-01,2.452249906147285080e-02,-7.967815216630637354e-02,4.260753219393131896e-01,1.154153262639178307e-01,2.000047863061465980e-01,6.083855211886701753e-02,4.283995282197985977e-02,-3.472341688462474152e-02,9.976396017285800444e-02,2.626412966248313496e-02,1.348078739324416221e-02,-6.933456632832110667e-02,1.149278885245458848e-01,1.269112470771872059e-01,9.035764196688703120e-02,3.717866237216839453e-02,6.635470814885056912e-02,-6.945602290891739194e-02,-4.543678379373201209e-02,5.555849408011899193e-01,8.029476077135124790e-01,6.779587130769507697e-01,4.518447089091398583e-01,3.184915080820998057e-01,5.430273543658392654e-01,5.362196816125104348e-01,4.089272912095965329e-01,5.939550837285978435e-01,-2.587946943166454482e-03,2.579820970069386932e-01,1.782169312666330718e-01,4.122712891567998500e-02,1.485054602210553742e-01,-1.643546919009808427e-02,1.519671285979553796e-02,5.146624308990194879e-02,6.724107135121702994e-01,4.745818363848431920e-01,5.398697583134551836e-01,3.109404010029971910e-01,1.667819151635216157e-01,9.388252019931994652e-02,3.762701458329753557e-01,2.251789468945122052e-01,2.545044283192343659e-01,-5.360070649037765311e-02,3.781699743778068612e-01,2.679310361777245686e-01,-4.068104510042027527e-02,8.650209157391890169e-02,-1.570250006814198976e-03,2.424968468029891147e-02,4.944964577517335647e-02,3.845441497038017409e-01,2.046024584954130310e-01,1.973833245260366576e-01,4.049151013283042722e-01,-4.726791730776023354e-02,-3.491044711674170520e-01,3.388150403528529808e-01,2.030406601563867763e-01,1.135444797908391618e-01,-4.131478718727673444e-02,9.541987298867032896e-02,-1.151709253095935942e-01,8.119117673366456345e-02,4.084278136220332450e-02,1.975918730857994798e-01,3.354577810608143362e-02,1.085575656974214903e-01,2.988825700458005441e-01,1.387622459395204400e-01,-2.774252480811720267e-01,1.520112661371609553e-01,5.845743296462105332e-02,1.213413779904635448e-01,-8.616765351138509083e-03,1.093755275878883909e-01,-1.460906094239519670e-01,-1.358736965267717256e-01,1.720719290327605011e-01,-9.976850946158183353e-02,6.323885344014518184e-02,7.278588458258369864e-02,3.851951441158264072e-02,2.804159243359284626e-02,-1.433436322444881228e-01,3.069062950386479138e-01,9.349713138371396060e-02,-3.202617269100216935e-01,5.296626486766799202e-02,-1.854673304945457513e-01,-1.638399435623287270e-01,-2.901065769441064091e-01,-1.272511657320944400e-01,-2.369865450364300463e-01,-2.131332695769301289e-01,-1.941042112179554857e-01,-1.784508925572195481e-01,3.465585366320733662e-02,5.074658534372804806e-03,1.624221563618411662e-02,-9.430018941682691280e-02,3.589001776564631693e-03,4.725495926120766854e-01,6.629837939899946297e-01,2.085379969793050015e-01,1.317396819138232367e-01,5.485186992452787541e-02,5.987053525386120539e-02,-9.828371655419591846e-02,-2.541961462630008550e-01,-1.641625709743622374e-01,-2.317808540983205823e-01,-1.174754862405488348e-01,-1.947608800911429239e-01,-1.704343652201434078e-01,-5.238319194108272819e-02,-5.262373926937220781e-02,5.111557757566594778e-02,2.977936976460492796e-02,4.028968693128370804e-01,7.706021317184048591e-01,7.103479824360164896e-02,-5.414859285240541942e-02,1.749055103024694247e-01,-3.119440243674389407e-02,-8.746075465425705298e-02,-3.046738371211542007e-01,-1.518323063305457854e-01,-1.860837983022700093e-01,1.155798256880062463e-01,-2.075267409265463547e-01,-1.008241723766833270e-01,-5.495937370518281379e-02,5.903384999078986617e-02,1.109339781037607491e-02,-5.231655646245650382e-02,-7.065946130146656505e-03,6.222516878919839151e-02,-9.223948820763344658e-02,-2.174223653505300557e-01,-2.323777273871059992e-02,-6.015550787574574371e-02,4.138623642589286944e-02,1.322612225031082576e-02,-1.044398750418955024e-01,4.802388047883032057e-02,1.417470726994191632e-01,-2.252416446371423471e-03,1.335759591694292772e-02,1.440475223297653373e-02,6.556369548332927066e-02,3.429816121151918473e-02,2.225571342513010462e-02,9.293087340501492155e-02,-7.426156148314479177e-02,2.373235646180487518e-02,-1.731697661586342474e-01,2.425442538653289209e-02,2.003156506176679771e-02,1.797043662679245757e-01,2.080529431148394337e-01,9.479362678768625539e-02,1.968129743512998797e-02,9.732995367780027107e-02,1.513429886766707033e-01,2.360792424716403465e-02,8.825346453512424028e-02,-7.582917811901921344e-03,-7.762334172827593803e-02,-4.569601056100585507e-02,9.505292995225532449e-03,1.965173460500403008e-02,-6.464144594769612694e-03,-2.586122323465825379e-02,-8.898656504583507543e-02,5.937001754532961195e-02,6.053376776551393917e-02,1.727896939801125409e-01,2.740104087544709133e-01,1.207120543601583190e-01,1.355804346472774535e-01,3.603344449807186628e-02,-1.203331425400413490e-01,4.522834028848935622e-02,-9.938569097677360520e-02,3.829272705562065688e-03,1.380447171845576582e-02,6.536801278682655147e-02,-6.265047783786069358e-02,-4.815091593988671259e-02,1.060930560488579505e-01,-2.607626599867550118e-02,6.306126079329925013e-03,7.542216128684522958e-02,2.793476257302723170e-02,5.806554153272035224e-02,-1.086948276422211243e-02,-1.461246332726545867e-02,-2.756190022232480816e-02,2.599670224496120410e-02,2.673263466358014040e-02,-6.773799811247738223e-02,2.071815326420393955e-02
9.776136894227223373e-02,4.426278014316409326e-02,2.656604377540852102e-01,3.103257626143092751e-01,-1.623743605626825626e-01,1.266145442340599891e-01,2.066391986848163664e-01,1.341811467845775707e-01,-1.152166724561037026e-01,-1.424154051809466692e-01,4.440192036724943322e-03,1.404140611129964245e-01,2.792302244494694954e-02,-2.976610343126663907e-02,-4.367456910907657752e-02,-8.707260742121331054e-02,-1.598548188784157040e-02,5.157974869304764870e-02,-1.084690297204566334e-01,2.582567117552101443e-01,6.825047813247134276e-02,-2.577186272737208572e-01,2.161394209932389690e-02,1.313970534840608884e-01,1.368107032023715419e-01,-2.853100494666191075e-02,-1.154277077523767070e-01,-4.903383623946985792e-02,1.714935451897973417e-01,5.685070083627965370e-02,-6.944259085269330334e-02,-1.042956420229926573e-01,-7.925711420027098386e-02,7.909093267911015968e-02,-1.266305537935831504e-01,2.380964772668150431e-01,1.975468005659805626e-01,3.551854965327967406e-01,-1.869123410225115578e-01,-4.512060986131706808e-01,-4.170356850389865255e-01,-2.036931538338603020e-01,-1.190555329451069289e-01,2.937858303753836386e-01,4.522965023119410871e-02,2.420448892656192411e-02,1.297431529754238810e-01,-1.000448713786955407e-01,-6.383493712759247263e-02,-1.581999024833576073e-02,-1.600020846901608479e-02,-5.036850721338634873e-01,1.052548794563536866e-01,5.792643318704748800e-02,-2.027447538382104730e-01,-2.669555874344364810e-01,-6.721077367097468835e-01,-4.753123719933364244e-01,-6.866545558436943919e-01,-6.016514346440307026e-01,2.864633123805924164e-01,4.536521114183242886e-01,-1.548130321344352023e-01,1.251233715945537228e-01,-2.197495609319867829e-02,-4.279757619591404577e-02,-3.180503325682615401e-02,4.836945618008206549e-02,8.179290752240966911e-02,2.128188628255093251e-01,5.126863337178988456e-02,-4.035331951010109330e-01,-4.614706568946950749e-01,-5.690051895169357943e-01,-5.022604771473999641e-01,-3.368981757515362441e-01,-7.123291181199077338e-01,-3.062127054281070793e-01,-1.079248010050862239e-02,-2.227662789470976901e-01,-1.047863734176375690e-02,-3.401479279578676490e-02,3.349972222561808932e-02,6.474898702489924329e-02,4.217892065325365772e-03,2.109310492809577942e-01,1.592895552745783316e-01,3.084726252239745059e-01,-1.910440316358374691e-01,-2.051370637015713927e-01,-7.495570640709915688e-02,-2.371277192956501578e-01,1.071247942885291266e-01,-1.251647570285968104e-02,2.593233509440986614e-02,-1.743148269702020359e-01,-2.290336575463908508e-01,5.481690512702709628e-02,-1.271695725075312755e-01,-1.183777627124804194e-01,-8.710155512044824577e-02,3.623226691392863325e-02,2.992724889647687125e-01,3.188328914248291235e-01,4.988306989374383660e-01,-3.667223509914889212e-01,7.456075603197523383e-02,-1.339405979255353096e-01,-3.153389732064648121e-01,-4.759182535038061768e-02,7.744201931616251366e-02,1.596819373352636739e-01,-1.951756663821419546e-01,6.870671202069995875e-02,-5.657167903038638757e-02,-1.326249928699474445e-01,-1.783368342038840065e-02,5.281997836054223155e-02,2.820157248278363712e-02,2.779293572936409329e-01,3.700067868530927950e-01,5.168362483038807520e-01,-4.295896662633806595e-02,1.570159471694390907e-01,-7.114723610530233888e-02,1.082525141003449695e-02,-1.194728870910256036e-01,3.160094964758961011e-01,2.399516176407932022e-01,2.034520156846319483e-01,2.379013412121643301e-01,4.936136894012867898e-03,-3.446810591457177852e-04,-9.321738394596185140e-03,-6.238231215268910668e-02,1.952110276814413362e-02,5.837743075902900314e-01,4.368492238997004895e-01,4.114178600782951167e-01,-8.272162301252965200e-02,-3.263354205151281634e-02,-1.368694608536270563e-01,-4.242851934890808363e-01,-9.956840398428064010e-01,-1.972417880756775210e-01,-2.195163152092654557e-01,-5.503408322440703042e-03,2.736467397193800832e-01,-2.072657105561672569e-02,-3.114702085472023305e-02,-8.113162705152670781e-03,-1.442951034081106990e-02,-9.273500246367676059e-02,6.322790593935266878e-01,3.242041900455490122e-01,3.027901448198617174e-01,-1.533477080336211607e-01,-9.280376407712082054e-02,1.063265538725711029e-01,-3.416243990778136674e-01,-9.436144029587527626e-01,-5.628294163347081769e-01,-5.194444420052616307e-01,-5.839157234823535991e-02,2.597989580466353310e-01,6.750537740517609242e-02,-6.205600226237616233e-04,-7.779917027944938113e-02,-1.122965019949019039e-01,-6.304737871890690737e-02,4.761215741653229694e-01,2.624649023165928075e-01,-4.560911263009213151e-02,-5.547123967249274479e-01,-2.704079857698231115e-01,6.457108592772121958e-02,-3.313775009673773364e-01,-1.361189647388747481e+00,-1.146290224207351827e+00,-4.708189820833952322e-01,-3.692865134864106724e-02,2.250507695078989567e-01,9.760577437510697951e-02,-1.684024888594278652e-02,-9.190364641556580949e-02,-9.028454642060680657e-03,-2.166910981942694880e-02,4.371115922669935872e-01,3.633733029367996470e-01,2.236931040185078379e-01,-3.857430465428559607e-01,4.656070881980003406e-01,3.028472361711548877e-01,-2.375958909174052391e-01,-7.991220339256368543e-01,-6.799799479607644415e-01,-4.564583537729844515e-02,3.508101355340427496e-02,1.238337330022241251e-01,5.509569132460857138e-03,-2.349055133850365754e-02,-6.978750449891847618e-02,-6.818341209842167239e-02,2.413691317053354851e-02,1.450895040540501335e-01,-2.473797234150725520e-03,1.601760094553009439e-01,-1.780093024836611193e-01,4.882275279372348675e-02,4.007258269527198824e-02,1.905745825324614909e-02,-3.680750902866979368e-01,-5.570989614235815068e-01,1.529618220999179046e-01,2.205536307226232395e-01,3.143908164273957473e-01,8.625323797115296010e-02,6.875257919133395679e-02,3.223970924267480220e-02,-9.693680096929289947e-02,1.316937832388548058e-01,-1.247301853349971762e-01,-7.828224434269474494e-03,-1.127578203719129118e-01,-1.853605418194856358e-01,-1.131864958803546900e-01,-1.534167049048045517e-01,-1.542705546386650139e-01,-7.878422513776452141e-02,-2.691733784499111826e-01,-8.037181272793972320e-02,-1.405836203605039247e-01,1.199663395294535695e-01,5.275592369348124956e-03,-1.921675154384657747e-01,-4.883727557237899086e-03,-7.393792561260349727e-02,3.793302803292818159e-02,-4.175139735393373214e-02,-1.907166297623063417e-02,-1.915932067097543198e-02,-8.553135730011052207e-02,-7.089662319514845878e-02,-2.475616277724364614e-02,-1.567682123410252260e-02,3.222923528293458045e-02,1.571025939407696970e-01,1.021723027844897574e-01,1.262941512133665678e-01,6.559511489388773764e-02,3.244236223207331259e-03,2.464824792456420804e-02,1.432536849428013223e-02,9.874148469210081158e-02,-2.612017577272933433e-02,8.361683114681349449e-03,1.028964857256220271e-02,7.979600044746233689e-02,-4.208100657003998463e-02,-4.293599642909910752e-02,-2.713155132650737003e-02,-6.786672288816579524e-02,2.922652991703608011e-02,1.361296561254604354e-01,1.217754589020929451e-01,3.298150256863531873e-03,1.956772205789149982e-02,-7.368285430284672588e-02,4.997311306286470606e-02,7.744077309606091364e-02,-2.677327767531996125e-02,4.289621604142419657e-03,8.832456743158312307e-02,-4.228958110429904826e-02,-3.728069356729462464e-02,-2.377487253752218893e-02,5.307379067576196985e-02,-6.939743259583244783e-02,-4.483633486413726894e-03,1.532075895576780374e-02,-3.282451158441922201e-02,1.822926762501767342e-02,-2.774043638571955031e-02,-2.279096450305775554e-02,-3.524886280633961894e-02,5.914264254967997736e-02,2.101395134450710286e-02,-1.620623351431387318e-02,-7.498638377683385092e-02
-1.188718017169301810e-01,5.023376572392491968e-02,-2.066688726890562877e-01,-4.500382676978186280e-01,-4.001163358624188482e-01,-2.987948895264566085e-01,-2.903041013859630759e-01,-1.419125695468423098e-01,-9.317962161108546415e-02,7.967177054719751239e-02,-6.662367478036958224e-02,-2.002262716930731240e-02,1.033704698276411219e-02,-2.026861329815238949e-02,-4.646396395473674501e-02,9.999085407332750086e-02,-7.471267379952510612e-02,1.285851512734689228e-01,1.751478184765798973e-01,-9.669671737359007702e-02,-3.122429259692559578e-01,-3.861419821082043291e-01,-2.691234650860241384e-01,-3.047420980959148484e-01,-1.803365934688633820e-01,-1.041626432287447168e-01,4.400476489714321565e-02,-6.412071712256098288e-02,7.281102711068371258e-02,1.409286207862307620e-02,-7.679318054965771079e-02,2.551993562141864624e-02,3.360610376489331017e-03,4.300607796443946945e-03,2.232381932001970340e-02,7.656547456286502684e-02,3.795604962005128674e-02,-1.075573976631943041e-01,-2.361690495319349048e-01,-1.981447199484198951e-01,-2.611468364899658390e-01,-1.047668135030554171e-01,-1.318059898129917973e-01,2.806903121500787385e-02,7.929494310947454716e-02,-2.949503213349909461e-02,6.452026774241523266e-02,-8.757101578737958372e-03,5.166753451431944227e-02,3.417349707968357631e-02,-9.212103534220321410e-02,-2.459007725430602948e-02,1.204838508305670491e-01,9.237615151614098075e-02,4.896939741879578756e-02,-1.176230620017106598e-01,-2.306824343229324781e-01,-9.296034926852417279e-02,8.216586021046866362e-02,-1.381917088418065376e-01,-1.483802832521329274e-01,7.066343258525800697e-02,-2.643679624851064894e-03,2.417143871755095957e-02,-2.547149721218328403e-02,8.809184339289363730e-02,-5.823399804662094531e-02,2.350122364940200950e-03,1.190337943034225528e-02,1.234091501218140818e-01,1.272831371013680157e-01,-9.830443991303861040e-02,-2.068293336256020552e-03,-3.512736633416983084e-02,-9.289370698434622209e-02,-1.677435340700264566e-01,-8.295089833181860592e-03,-3.121621418457557265e-02,1.160810553449357838e-02,-4.839925785674267095e-02,7.610051678799643893e-02,-9.189090677069230995e-02,-5.735237416356220135e-03,1.400681886711003903e-02,-1.644143579562545171e-02,3.958227704677618614e-02,9.358366398318992974e-02,-1.876012467748970070e-01,-4.483378277682065760e-01,-2.821992948774925125e-01,-2.742318771938623279e-01,-7.887700415578002833e-02,8.652632918165245601e-03,-1.875709924229086167e-01,-5.339183311532885029e-02,9.310984158440031855e-02,-4.812036942016806318e-02,9.619199868285353838e-02,-1.208903137941185618e-02,1.057283504039071079e-02,-9.697114063834586222e-04,5.828163618139192703e-02,-4.809247609997081147e-02,1.408589127786360196e-01,-1.740586240379469185e-01,-3.472531888818178314e-01,-2.635638770620130633e-01,-3.485034933742160446e-01,-1.743219941679466922e-01,-5.177423950662319446e-02,-1.102334009314935304e-01,3.971011814893696777e-03,-2.898001546113206789e-02,3.011733456773112508e-02,1.413286162448424421e-01,-2.055753799328573217e-02,-6.383779691313518079e-02,5.552472350218434077e-02,5.837742923444717152e-02,1.742829612821934424e-02,1.254491643354989361e-01,-8.606524601408784003e-02,-2.376738049384999885e-01,-1.757541962517025769e-01,-2.220508280598775808e-01,-2.721931754909296397e-01,-1.683281554127613600e-01,-7.903113723254079348e-02,-6.438045074363409059e-02,-2.269569866245265202e-02,5.143484507483962048e-02,4.691595729933610570e-02,1.091627305783880730e-02,-2.954801818145527670e-02,5.708905057637049958e-05,-1.487634589739364596e-03,1.855886191475823732e-01,3.431022706926121352e-02,4.799124858012565609e-02,-1.220085729293122617e-01,-1.542053854436825633e-01,-1.172518924002394630e-01,-1.754932531715114874e-01,-2.599194739000570964e-01,-1.589820159251862652e-01,-2.202309334689842024e-02,-1.287840263913559921e-02,-2.307797514561073585e-02,-1.517897081991470207e-02,-8.475712942170081365e-02,-4.473831191748305069e-02,-4.116783437419609809e-02,4.170550617514618731e-03,1.529965955197022942e-01,7.802043698556719586e-02,-1.068938941211381582e-02,-1.288958611017880160e-02,-1.365098146548646973e-01,6.380716912894741910e-02,-1.784200773789084218e-02,-1.089271792869884875e-01,-8.182166197944934494e-02,-1.001899001764056385e-01,4.711056496237469443e-02,8.376782264673025835e-02,3.579866234415148007e-02,-1.322760194297659987e-02,8.686277181027532435e-02,-2.053019049439528190e-02,6.203393428474477528e-02,2.271054812357381214e-01,2.074764733974382158e-01,8.903856115836374097e-02,-1.507274667058857431e-01,-4.497980703323617435e-02,9.077649197164873451e-02,-1.055203079565324997e-01,-2.116372222877548337e-01,-8.263956960894477954e-02,-8.200511561726524234e-02,-1.127234555065818045e-01,4.824419594117618920e-02,3.140324079516537692e-02,-1.861680277251926904e-02,2.299664921199736159e-02,2.671243974114128478e-02,1.910860826503407717e-03,6.515427914907102880e-02,1.458839160043654548e-01,-3.179177319329545837e-01,-3.855686654116123324e-01,-1.103838293285114153e-01,-1.592426489925564959e-01,-8.458575477323877767e-02,-9.986352738609996504e-02,-1.670886233433160617e-01,7.377328230256807381e-03,-1.204084036136090774e-01,2.057217053699691156e-01,1.294299002150896827e-01,1.044817019832616420e-02,-3.905553101761910506e-02,-8.426202701762232350e-02,7.323962851836736399e-02,1.133422315458967461e-01,9.204145551867448649e-02,-3.518439037927281188e-01,-2.679573859865950758e-01,-1.707232157236467374e-01,-5.448082198923222957e-02,-9.272314681827550920e-02,-1.317965776553735313e-01,-1.822742907890198827e-01,-4.827220547698851671e-02,-7.718205622722497383e-02,1.051261628386763840e-02,-3.943376812738585979e-02,7.831595674990633749e-02,-5.876089039266440411e-02,-5.105951953336154703e-02,2.621249565269505311e-02,-9.656983955377658468e-02,-1.328906915550541190e-01,-5.744129004174976932e-02,4.340880400454093235e-02,-1.023883890517485185e-01,-3.922418117970838392e-03,-1.096406297192291102e-01,-1.360248617836397611e-01,-5.973067096744441584e-02,2.025483411244407769e-02,-3.727668063390768283e-02,5.096334133979076725e-02,2.501187365838529464e-02,-8.554518112251285888e-02,-8.981184562529911930e-02,-4.922499126118584645e-02,7.817051268415491083e-02,6.981977168075567675e-02,7.058093831834831577e-02,-5.785569912862174868e-02,1.676435837468509896e-02,3.343045279099205770e-03,-2.943561862574128191e-02,2.211488570467458337e-02,5.428520592923902650e-05,3.963326081480190999e-02,-4.292299895566805551e-02,3.490685802560404560e-02,-2.671574753327653207e-03,5.485691090211900628e-02,2.712540916032830929e-02,8.609971147567301031e-02,-8.033975545287955211e-02,5.434929922615460568e-02,5.907190613391239548e-02,1.162902776254796794e-01,-5.665177066433262076e-03,-2.494393149185747394e-02,-7.042313903029989719e-02,-4.070472208221850158e-02,-4.199292113941940907e-02,2.313543635061308598e-02,6.762211481008970071e-02,7.024296662560149118e-02,-2.885194761826162524e-02,5.628035770549073141e-02,7.276256956108918643e-03,-1.035757108582737451e-01,-1.040374652124602742e-02,4.524165361821710918e-02,-8.011458100133261873e-03,2.275353220326177366e-03,-4.210420716860603652e-02,-1.155684406063938185e-01,-8.560608537483867242e-02,-4.811140080383118078e-02,-1.250005892234304916e-01,1.346858530580355151e-01,-1.377179172270144025e-01,1.174033582601834722e-03,-5.243677050495687553e-02,2.551940581208556047e-02,6.300296259739056803e-04,4.944433794102810753e-02,-6.305444043600186288e-02,5.976217024641790332e-02,1.281930407759564010e-02,9.940723292165848379e-02
1.014820788865989504e-01,2.323841008033897815e-01,4.082128079752369576e-01,1.134292399804505413e-01,-1.037267698149578338e-01,-5.470828979284870774e-01,-6.968623637498337908e-01,-2.943401782338015971e-01,2.331883476877798234e-01,4.793167586830761606e-01,4.949159322516886728e-01,9.663731651562097735e-02,-1.064376359070897810e-01,2.359701086185988020e-02,-3.907780075476846582e-02,3.510991367111295641e-02,-1.002980355698937509e-02,-4.600587565426180747e-01,3.268736011004497177e-01,9.948179946224220416e-01,-5.674555507911673707e-02,-3.327347065177574947e-01,-5.153313412917497338e-01,-7.918523499777795349e-01,-6.007468678212083413e-01,-3.126248156282177004e-02,-2.801101764979570530e-01,1.358379636787625799e-01,1.460172081934660582e-01,-2.309963078686253224e-01,4.847251616918508282e-02,-7.704201350614674204e-02,1.928734881070986312e-02,2.218659629657538865e-02,3.770357588904647492e-04,2.771016159528065237e-01,-8.264640204970107318e-01,-6.294997052871940113e-01,-4.621318079671373202e-01,-6.597532329516260230e-01,-6.907183143011825788e-01,-3.786639179940593514e-01,-2.106524990821337651e-01,-2.307539714194215552e-01,2.501642301958699743e-01,-1.178746237415965320e-01,-1.408628291522648901e-01,8.583908770393054374e-03,9.701070123966937242e-02,-7.580688874104195285e-02,5.449847011139719033e-02,1.577894071893339023e-01,3.503140660670223672e-01,-3.721968342340016833e-01,-7.843022995688386789e-01,-8.898600609584602639e-01,-8.166814891997357106e-01,-8.785434085294563378e-01,7.429123247674140895e-02,2.512548053594428343e-01,8.813840063812067305e-02,2.397746682857694323e-01,6.787928934163778294e-02,-9.122384889268130015e-02,5.350824892863949994e-02,1.720159304305295955e-01,-2.022641894594510645e-02,2.380711423664795892e-02,-5.797310242268011171e-02,4.256744749807495759e-02,-8.359885296075891814e-01,-7.351884754489330653e-01,-9.223811697759501937e-01,-6.799641797738777971e-01,-5.741762746151621855e-01,-3.549571542374512223e-01,3.547392536644101702e-01,1.257302039342233502e-01,1.129709632614382397e-01,-8.824150518828502085e-03,-3.306698609513061392e-03,1.295751967649630965e-01,1.294233443656064020e-01,-7.519084113060413299e-02,8.020089570234288645e-02,-6.480571209994405724e-01,-9.001950456133722689e-02,5.159456487574500816e-01,5.753183730877742263e-01,3.166654446212913143e-01,6.275793491218789599e-01,6.041452574188087565e-01,4.690564050775399285e-01,-1.824008129979529935e-01,-1.114603841193369804e-01,-9.981796284787745280e-04,-1.820966692245555851e-01,-1.625140625318204635e-01,-1.871966768054918358e-03,-2.032249722683272253e-01,-2.903010671894032044e-02,5.585279704063608047e-02,-1.057636252906138052e+00,-4.114949210051907502e-01,-1.639327109788004944e-01,6.942097483996035878e-01,6.185142929934271949e-01,1.783085864413825328e-01,-5.642718858907622148e-02,6.361347938216502795e-01,2.698566952906001348e-01,4.837244288198994657e-01,2.092086183326323789e-01,-3.188562692633399309e-01,-2.975869656822108245e-02,-5.326272029414742121e-02,-7.126643435966248386e-02,-1.237316992122836357e-01,-4.408183027643711172e-02,-6.620009148266873256e-01,-3.460634132718140021e-01,-8.748833563982423289e-01,1.296955815554434212e-02,-1.287442778759675666e-01,-1.923814345349469102e-01,-6.606422018418401931e-01,1.581905974219606215e-01,-2.960093755902316603e-01,1.746677260413961319e-01,1.878199545392905678e-01,-1.204071940356952336e-02,-5.961879491357281041e-02,6.710545412882376604e-02,5.567274292555354082e-02,7.461289892959864500e-02,3.290190283018417511e-02,-3.916848254935488272e-01,-5.582929875273617837e-01,-7.069341719795461942e-02,-1.233914025726346730e-01,-2.654599873404459576e-01,-6.980645156262640372e-01,-8.903804772606889184e-01,-2.264464642915849091e-01,-5.569465200590547616e-01,9.858623482188869080e-03,5.987753142843735277e-02,5.804018248611656633e-03,-1.902150996662388127e-01,-8.135353624827651453e-02,5.876761985000780036e-02,8.765765983580897647e-02,-2.676193272581427196e-02,2.650530366424037054e-01,-2.570102443831780437e-01,-1.025988300198319214e+00,4.040950312099256952e-02,-3.845510413273279249e-01,-8.260995183038333245e-01,-2.869355628479369757e-01,-3.065089848157679375e-01,-1.561116425166617638e-01,-3.156726571015756599e-01,-1.505643505623277534e-02,-1.743690694258271390e-01,-1.083962953030831317e-01,-2.740323295619026892e-02,9.494549935815535524e-02,6.496825416452538249e-02,9.396902220844167986e-03,1.070066617247689589e+00,3.377792103064519713e-01,-5.025964711564525622e-01,-4.439935320167565092e-02,-2.298056939224990269e-01,-2.496394366939450049e-01,4.663147148847148760e-01,-8.287644520888834965e-01,-2.864208094991144843e-02,-3.299856705078830221e-01,-1.562625077434060261e-01,-2.803191381124081061e-01,-1.167095453239795910e-01,-6.184395116716635832e-02,1.413048091855349450e-02,-1.209599831277090309e-02,1.747234224540265488e-02,1.360515850118811487e+00,7.214202700138809821e-01,1.483387269732963087e+00,8.788667924034757606e-01,1.154021390669000890e+00,1.552482194080210931e+00,1.176669602025787631e+00,8.985177252415983695e-02,9.311569409967456190e-01,1.012053485964746313e+00,9.169675784877062696e-02,-2.921479580533358766e-01,-1.482645822299285265e-01,-1.750839932436711599e-01,6.994443975651380707e-02,-3.767198203318429528e-02,-6.140047369821212409e-02,3.775088719799304937e-01,3.229513908990055970e-01,8.851801587278269601e-01,6.323460969245314756e-01,6.641990764839281747e-01,9.753472949833056349e-01,7.086994364010108516e-01,2.810360211478396542e-01,1.462602437906751485e+00,2.877918676123318309e-01,1.048405425932776303e-01,-2.008776027791952523e-01,-1.821528415642524323e-01,-1.538526399333554895e-01,-2.125442861658667359e-01,-7.295079661507460067e-02,1.022873171235536421e-01,2.192559273515665985e-01,3.054806248486205411e-01,2.770659259572060829e-01,2.226885505821668276e-01,3.012626475982239094e-01,6.423871070275379846e-01,5.059320136807174961e-01,3.020963929133886894e-01,3.651576505447778342e-01,4.256974443534618929e-02,-2.010534466455285441e-02,-5.832890924202269872e-02,-1.014785035379721367e-01,-3.649056642611425011e-02,4.918038881884819608e-02,2.368109600027718670e-02,-1.034418433526850117e-01,2.040474470598807322e-01,-1.301877244863086820e-02,-1.257051450245802171e-01,-8.763578729268682588e-02,-6.290191965390723450e-02,6.146803267492519096e-02,1.345197197034214698e-01,-5.548569951377985664e-03,3.846204818495332044e-03,5.929738918297431521e-02,5.160236819454175339e-02,-1.645523412778935463e-02,-6.563704794401863107e-02,5.272740387533641181e-03,-1.334744969202019370e-02,2.911462353388448443e-02,1.300827930843364601e-02,-7.350028990874933610e-02,-1.298502115032711818e-02,5.017920059357847129e-03,-2.906825651093380633e-02,-2.039460009923369302e-02,4.012445809499476379e-02,1.055086709218978763e-01,2.878853153587718761e-01,2.421655751828285241e-01,2.305757532757862216e-01,4.495597449338675083e-02,-3.339537196970621125e-02,-4.641401546333426970e-02,-4.087329008784514744e-02,1.664889839427744281e-02,-3.612024730417934953e-02,8.504301896359268975e-02,5.744485532630867752e-02,5.700142383726190115e-02,-4.058272875289032494e-02,-3.407755514418954468e-02,-7.684721417420713185e-02,-4.644869054862799107e-02,1.200066894106694843e-01,-1.341541202845213630e-02,-3.570456477637196091e-02,-4.326952867551817072e-02,-4.399601579276323643e-02,3.712019664839278678e-03,2.113412236200503183e-02,3.794601321176946374e-02,7.908729586941791456e-02,-4.426387493616554258e-02,7.275424583584566562e-02
-2.952901266384410639e-01,-2.670470079068487657e-01,1.111213514452910611e-02,-6.225819437549519053e-01,-9.875056787993876650e-01,-3.101542470039229116e-01,-4.400327167531186134e-01,-3.699226111445362841e-01,-5.650145777583983620e-01,-1.574643796950533636e-01,-3.791167231743065164e-02,2.944151910922430115e-01,1.891539529160640443e-01,6.983764640928183734e-03,6.704387583706801490e-02,8.988726999800254747e-02,2.389448509817079097e-02,-2.794833833663740164e-01,-6.287907671324415304e-01,-2.744722277803193777e-01,-6.945128076146175333e-01,-1.777220481523234252e-01,-2.439474084089908179e-01,7.966377039694447215e-02,-8.048332976902285996e-01,-4.853029920430272925e-01,-5.644118676995274475e-01,-2.704964127129705909e-01,-1.421713323295789866e-01,-1.219462275438616544e-01,-1.013890073504812167e-01,7.804692310428051893e-02,2.459070097771173247e-01,-8.022430975305409884e-03,-5.456153496612029530e-01,-1.334363487717269148e-01,-4.681441590507081640e-01,4.198004196875643745e-01,3.978164688371881308e-01,5.203788850045414360e-01,1.378585369943992889e-01,-5.564283749276047741e-01,-5.450238652279923990e-01,-1.135926836407493146e-01,-1.792745933967123118e-01,-2.695096020507431467e-01,-1.864931715762167264e-01,1.778704021082028186e-02,2.458848652480389307e-01,-2.310315825340955240e-02,1.872860137548704867e-02,-1.006440091885771881e-01,3.153439479060241579e-01,1.660136867323498411e-01,2.274967371163920393e-01,1.101640793168277566e-01,3.433722524297310175e-01,-3.134317693719100850e-01,-5.317481917135992164e-01,3.701801221802880626e-02,9.609729872957123442e-02,1.706994290600761521e-01,-1.069537805108466272e-01,-1.243788398064875345e-01,8.426882868770940727e-02,1.691167563893041792e-01,1.519976789391699057e-01,4.949609084369019363e-02,2.550593443594372234e-01,2.095910183564163864e-01,1.629659028713548730e-01,2.155302564224870487e-01,-2.405722626939465203e-01,-9.647879714845586374e-02,-1.967700582067498372e-01,-3.264948165435726524e-01,-4.838359776356616904e-02,4.876164573984140965e-02,2.196096786871998552e-01,6.082102456998221551e-02,8.124681718608839365e-02,1.634420069764699890e-01,2.071371559397404416e-01,8.641739310916449202e-02,4.402651616414576807e-02,2.569780903914015702e-01,2.856754397830381098e-01,4.611936565835603741e-01,-2.188730075085818794e-01,-4.755732031513133506e-01,-4.072988682531669125e-01,-3.820391972074630993e-01,-4.025394417965930116e-01,1.914812106686223925e-01,3.748831028672351962e-01,3.261309468835371650e-01,8.971160712486854830e-03,-1.365622471875019240e-03,1.919501656000488776e-01,1.616325923975690804e-01,1.237544255943672095e-01,-6.788511274983875798e-02,2.213669186469920946e-01,2.190484737244430546e-01,3.518154635631320915e-01,9.232278968138650510e-02,-1.171911042655272850e-01,-2.213977822252772842e-01,-1.531723585543406652e-01,-1.082097366126363980e+00,-1.033251921581360283e-01,1.277206743202177475e-01,6.287910954810144171e-02,1.707451291040354147e-01,2.133941628609379304e-01,1.467765210247824748e-01,1.984580265898648610e-01,1.538595139558288638e-01,4.530938617106640420e-02,1.992684832780023951e-01,4.076761565418461908e-01,7.522540934587783334e-02,-3.479126294087205307e-01,-4.694045757804499730e-01,-5.785133403776870908e-01,-9.813195823905025428e-01,-9.278660464938975894e-01,-1.751917867058843184e-02,1.513537148205421901e-01,4.049418195084686367e-01,2.841926678918497151e-01,2.612803027884867402e-01,4.800270348346833971e-01,1.845168366963990947e-01,6.038574042186567459e-02,-7.621917210246742513e-02,2.433237462222058722e-01,1.973967514273297363e-01,9.540141876177192504e-02,2.049031883051058989e-01,1.006619465898405674e-01,1.619072936084013370e-01,-6.075045522001276677e-01,-4.031153382545293873e-01,2.812606239929920648e-01,2.066375838764412387e-01,7.733804863549134656e-02,1.139200921057233612e-01,-8.071805759618804962e-03,3.777752188722521831e-01,1.914138585878821797e-01,-1.942739056295507720e-03,4.194591689257657491e-02,9.796282951481875834e-03,-5.411050175522251482e-02,-3.853926230352886211e-03,6.341905077247350642e-02,4.020225654403363769e-01,7.850251245574781933e-01,6.469316560654054804e-01,6.845782042456488581e-01,8.988390884024157756e-01,4.957844634001178918e-01,-1.854143729445749122e-01,8.128994890471920309e-02,-1.955327490381998101e-01,1.212303232845432927e-01,1.919070522649795607e-01,5.698198354192252069e-02,-1.949668227182421373e-02,-5.785061663625825634e-01,-2.200385306664890961e-01,-1.280984298348972206e-01,5.910410268579546766e-02,8.641328688499277932e-01,7.612519760383203993e-01,1.231648516070626309e+00,-3.658097393339353881e-02,3.221336539328564230e-01,-7.431855333084863569e-02,-3.086487256866485285e-01,-1.208080570853309679e-02,-8.100737937461122140e-02,7.916981591419917919e-02,1.360013443277898471e-01,1.426776899973383229e-02,4.501918998481403700e-02,5.209570592942842637e-01,6.958858705685488921e-01,8.431111162678298632e-01,6.040662659681618196e-01,6.733768803621283938e-01,3.565410027673390214e-01,6.416384317814209926e-01,-7.700104069765592030e-01,1.099245370246256237e-01,-5.829409486588347233e-01,-6.560787435061524731e-01,-4.233670605216945937e-01,-2.326697292019126728e-01,-7.089254704689086639e-02,9.969495465925277966e-02,1.376194460222124050e-01,-2.800843206772751781e-02,-3.763478835086616070e-01,-1.967072263004611965e-01,-1.284381167468919283e-01,-7.235879267190789554e-02,3.555183204058632446e-02,2.640854034277072548e-01,4.081846293000530035e-01,-2.439340710362561393e-01,-3.106602120171944592e-01,-3.520998848106750012e-01,-4.853596444724360137e-01,-5.798285645814497125e-01,-3.313117864326015072e-01,-1.680507173429773016e-01,1.880628170297731633e-02,6.356336816667647327e-02,4.853707482876265522e-02,-4.433038502681369564e-01,-5.965178677364608717e-01,-4.800341153020833418e-01,-4.131847741459072909e-02,-1.372259383529048360e-01,-5.648559730904479936e-01,-6.696776176418226534e-01,-4.084605699645863508e-01,-5.769860295568215447e-01,-6.060600313311299558e-01,-1.564137991629651614e-01,-1.080219302506150170e-01,-3.384796524211985957e-02,-9.393516055419903754e-02,9.422557274354510792e-02,2.939590208648584779e-02,5.816155862761260981e-02,-5.967344616698697785e-02,-1.134194903692443551e-01,-1.966149163677790579e-01,-1.235139883183516418e-01,-9.568536351603863094e-03,-7.373878512504203897e-01,-7.138516683424936948e-01,-9.279448754118490017e-01,-5.148782247764550624e-01,-5.975391168374708517e-01,-3.317762814588149367e-01,-4.007495313916181745e-02,-2.458093905000439602e-02,1.344027800740179024e-01,-5.208733337187219231e-03,8.830898861063586625e-02,-7.466091617406225844e-02,-5.187451748863480122e-02,-5.756274261329990399e-02,-5.179463450298649879e-02,1.718252627713591149e-02,1.919738553973698164e-02,-5.216685080367209487e-02,-4.056067387140685487e-01,-5.784839672895615292e-01,-5.164874656803613018e-01,-6.370602179381024133e-01,-2.656525649723135984e-01,3.874338259537783713e-02,-1.798868024051511472e-02,8.553045032102878087e-03,-2.287960095841561417e-02,-3.733093808277028469e-02,6.143531191467793001e-02,3.647581123539277159e-02,-2.804329738692575708e-02,5.426967310981734016e-02,-1.246559322603795344e-01,-2.724958000747146249e-03,2.140107431845184385e-02,-1.293773513250487117e-01,-1.507285121686053053e-01,-1.128544207373909647e-01,-9.020806010474556602e-02,-3.419778998085975141e-04,-6.484832334518518537e-02,7.921378537346729365e-02,-3.946762678182810791e-02,6.408879178583729019e-02,1.103531946412592557e-01,8.409741682393359619e-02
5.310295030195330002e-01,6.641199434783743305e-01,8.631146285665862450e-02,-1.122009588687488957e-01,-3.014142754711542915e-01,1.419900034612675832e-01,2.594994925508317674e-01,-5.200896379443292750e-01,-3.549904821373930375e-01,-1.553330077889762961e-01,6.461640224129497345e-02,4.896084992530313346e-02,6.819565226237588040e-02,1.361923194426520670e-02,1.272573476519716085e-01,6.086725746715538482e-02,9.310142328140054435e-02,3.544706644953854457e-01,2.630617640621827347e-01,3.195128692450870389e-01,-1.096957018013087065e-01,-3.400300205811741527e-01,-4.145245596291713963e-01,-3.175353798743134059e-01,-3.978627341499204051e-01,-1.380516900285632398e-01,1.197170555874459280e-01,-2.218409248501690689e-01,-1.775227486735548588e-01,1.586951767884769160e-01,-4.598457636731658957e-03,-1.395507798593607907e-02,-2.126750792758443365e-01,1.776610205146767624e-02,4.286107033601515015e-01,2.908914833936683819e-01,-5.789873257259790101e-02,3.212551323152800647e-02,3.303523048157038650e-02,-2.567418205324515160e-02,-3.008143994842069069e-01,3.964050023764210950e-02,8.438214830593492727e-03,2.765106626838193526e-01,-2.913873594577642834e-01,-3.450003490173973453e-01,-1.363707216240578890e-01,-1.020100749480774976e-01,1.257672391853313087e-01,-1.086647185287138440e-01,1.517405912874625860e-02,-3.714882064186296462e-02,3.559546896959941975e-01,-1.166437788393277913e-01,-2.305136315155723037e-01,7.200115754367274190e-02,-1.994376227611004970e-01,-1.142930280146902955e-01,-4.439922346938355857e-01,7.844765362408676057e-02,1.529701193482627397e-01,1.092582105754255212e-01,-2.254644993967737931e-01,1.599687711236732340e-02,6.838315695680517725e-02,1.687058906775216749e-01,-2.268739500596902159e-01,-2.136252941170460259e-02,2.739666883058987645e-01,1.780100649295420223e-01,-1.448254770129426550e-01,-1.660372234719433848e-01,1.379990059034334748e-01,-1.416193939342355879e-01,-1.916903744632550144e-01,-1.369583424164582675e-01,-1.670691261805805350e-01,-1.797777329628699183e-01,-2.655511259360704979e-01,-3.107292300212212699e-01,-1.009423345618260248e-01,5.747975974025402307e-02,-1.163020610301290780e-01,-2.678900653898668716e-01,-4.593827958348323942e-02,4.965859626597197707e-01,2.572058509405912852e-01,2.469934168963950072e-01,4.772633916106439056e-01,7.763007441141719367e-01,4.774207156090014559e-01,7.711102521718493641e-01,6.666090238207672547e-01,1.485984031108336101e-01,8.732790162006497884e-04,-3.833017951711050753e-01,-3.475035083935625740e-02,-8.812932474864698662e-02,-1.447929276644013274e-01,-3.525281743952236868e-02,-2.671183619843265356e-01,1.214004855842710584e-03,4.939088221141188506e-01,3.552291543622762005e-01,7.925500676118735210e-01,8.438632340954219657e-01,1.225782176734327988e+00,9.228667884399018861e-01,6.987305325609061146e-01,6.211321353341030527e-01,2.561185306948671192e-01,-1.259628925881154660e-01,-1.055928697749057843e-01,-4.069900412802090334e-02,-2.148297520058070065e-01,-6.691359264264547246e-02,-2.031531297520857149e-01,-1.697144374986312987e-01,9.441755533040917248e-02,3.772255868271150447e-01,4.221889456906007809e-01,8.723969513317390012e-01,3.680683851158914055e-01,6.691988992929595037e-01,2.223756066622453453e-01,5.629473367727744204e-01,4.086512417539305275e-01,3.599307453462382012e-01,1.568408152444056292e-01,4.341185790633502739e-01,2.228840150049370694e-01,-2.033074004532332557e-01,3.092758408195632816e-02,-1.321156962303427634e-02,-2.586839933044700612e-01,-6.971052880535745511e-02,2.998597856178399912e-01,2.876440539916511052e-01,1.749570279388126814e-01,2.337299491108782989e-01,-2.401586517679833166e-01,-1.452100193249645718e-02,6.421063934970819287e-02,-1.491936617768064577e-01,5.807658903684476126e-02,1.474475813400299429e-01,4.658909637057760955e-01,1.153334673518329745e-01,-1.220577258158806883e-01,-1.937205350802002901e-01,-1.509642817750353472e-01,-2.126083915543273140e-01,5.118374010881956288e-02,-2.131519221199217606e-01,3.891980036070247922e-02,-3.102970011934841899e-01,-4.923376800593787239e-01,-3.200941174357776475e-01,-2.168743066326971058e-01,-1.628286123855243461e-01,-5.531850311722495972e-01,-7.948348607985036840e-02,6.817708284430785970e-02,4.958947534104607424e-01,2.193581220403426346e-01,1.269498842516319503e-01,7.069640495793134971e-02,-1.954957368771629012e-01,-2.018395080251609852e-01,-2.365497870396937249e-02,-6.960203907633631948e-01,-5.373789460304776444e-01,-6.772485513403418977e-01,-6.148565615716085064e-01,-1.797377128879195651e-01,-2.973326185362507035e-01,-4.243059313177855452e-01,-5.466854884309892970e-01,-3.309616259405868122e-01,-5.208193017503057881e-02,1.395423901292873747e-01,4.832373985660934346e-02,1.421117354043582338e-02,-2.425217107661384666e-02,-4.078978756933074323e-02,-1.776947342426568599e-01,1.333660633266793571e-01,-6.050952708614237840e-01,-8.456444359498791474e-01,-8.637651829937614822e-01,-7.245543651203741886e-01,1.639500520896589320e-01,-4.215618320618713111e-01,9.766968928433712727e-02,-1.273632802702674982e-01,-7.895740090736297345e-02,9.392682711513473948e-02,2.083615541263133253e-01,1.125996881380040560e-01,-1.964010454199611663e-02,3.278824349201980154e-02,-1.872994752363913717e-01,-2.015770272616494996e-01,-1.084584462614028855e-01,-3.520009264201082733e-01,-5.297334613268551706e-01,-3.000111960530821853e-01,-1.175699319879075361e-01,5.565690215126033874e-02,-8.060026072763744331e-02,-2.234642098036057623e-01,-1.510957316898471070e-01,-2.836492849806965255e-02,2.337331950513803769e-01,1.741066072315061997e-01,4.061366411259531572e-02,-9.788255387400357499e-02,1.536807439490520955e-01,-2.319114303097442598e-01,-1.539791934326381340e-01,4.031009961862582619e-02,-1.209838532520487592e-01,-5.969752338054035157e-02,-1.322759605841749564e-01,-1.337653064336495612e-01,-1.530830732331110722e-01,-2.998417043094910202e-03,-3.670141742484654690e-02,-2.026997590365166996e-02,2.520593197010388420e-01,3.677447449444643524e-01,7.575614178073669658e-02,-7.421199337590876632e-02,-5.032123490518460723e-02,-2.865151724303623484e-02,3.848828848504660949e-02,-3.505218381800548344e-02,-3.887647775839495751e-02,1.000382536540537076e-01,-3.384451551021070564e-02,-8.081252372137337145e-03,-1.511412017253034867e-01,-8.974511210965718105e-03,5.792020250312429619e-02,1.174314104597419806e-01,1.561951278402339827e-01,9.430042840000818494e-02,1.631891588124059767e-01,-2.311586781134828544e-02,6.789623750266540747e-02,7.438534745714188434e-02,-9.083348832766910408e-02,3.302596948898897655e-02,9.026418966628186810e-03,-8.726300546168751227e-02,-7.907233432119305239e-03,-3.853351382479768862e-03,9.119405652520953809e-02,-2.992850657242999632e-03,3.049124790474838989e-02,1.408104900946077244e-02,2.258647358858711929e-01,1.099564711892591640e-01,4.855291389062579149e-02,1.688261027797338387e-01,-3.180155455540160242e-02,-1.265666463775435013e-01,-8.076579448797190086e-02,-4.565257738058514647e-02,2.041482119501698486e-02,3.525636291328280297e-02,1.383166727074588466e-02,-6.878396186028739451e-03,-4.351458994079195758e-02,6.130253868320148514e-02,1.774345839082847737e-02,-3.934025310028111538e-02,-6.765823297025280736e-02,-2.595087096820392764e-02,3.275504486430363266e-02,-5.487440335067166053e-02,-6.433257003688011566e-02,-8.765880718241586544e-02,1.055141178623349163e-02,-1.592090917831721214e-02,1.217853474614657011e-01,4.555887021747494908e-02,-4.298735024496703333e-02,-3.235570928382216355e-02
5.758195228743049482e-02,-8.324473542610795473e-02,2.222960842050861474e-01,1.737745296411825902e-01,4.156344331308557405e-01,-1.045512659606111366e-01,6.732418890358403407e-02,3.655800556637568421e-01,2.051549231719098088e-01,-9.854938824525710794e-02,-1.727737325825866310e-01,-2.013700800268822255e-01,-4.933223336006225396e-02,3.270846750264667230e-02,5.813542716688621659e-02,7.972450912889748886e-02,-4.274952966091861289e-02,2.315541433869588717e-01,-2.988386285216633811e-02,3.337541297524770356e-01,6.696658774966730843e-02,2.548851923147276224e-02,-1.619064943754330022e-01,1.270771764407412907e-01,4.214784579222373151e-01,4.921062546475191146e-02,-1.759187655750124590e-01,-4.610442247661453163e-01,-3.883914414045696040e-01,-2.535350544790179184e-01,-1.253207113735720357e-01,-2.092077788718546549e-02,1.944711211068550841e-02,-2.340622073467451755e-02,-3.218348875797279879e-02,3.076570713419791159e-01,2.317936559623287596e-01,3.417041207675520775e-01,-2.102917359638475370e-01,1.551819284279559730e-01,2.177608804623605565e-02,-2.061653368465836411e-01,-4.989781687546800404e-01,-1.033534467653639960e-01,-4.074313981890637093e-01,-3.968335739035331322e-01,-2.044841975083507291e-01,-1.730383602652125763e-01,5.662087539125835664e-03,1.168686551157237935e-02,-4.581743511102343708e-03,3.678539042545860005e-02,8.117235099855606151e-02,-4.654180461786046608e-01,-1.294904430035518639e-01,-1.863994736521641382e-01,3.311213340899933355e-01,6.878776521847192182e-02,-5.925295261488801035e-01,-5.525506072727405238e-01,-6.205017205337667319e-01,-5.062867224313680747e-01,-3.611687587562176782e-01,-3.409102392465059861e-01,-1.857422431448291222e-01,-2.394555117046091169e-02,-1.039951491596268485e-01,8.550051630218157006e-02,-3.620452801649695629e-02,2.494373148253808958e-02,3.614722884188363572e-02,-4.115786082222677167e-01,3.208035743243891624e-01,3.540445256609842661e-01,2.984248603593223081e-01,-1.004917921008308124e+00,-7.358877542000465954e-01,-6.457271788291448766e-01,-5.053037783793987714e-01,-2.654936299007506495e-01,-2.485078303509068443e-01,-2.055581901780017817e-01,1.273345419946611268e-01,-1.175181711608803276e-01,-6.007614063643730573e-02,-1.798381000093016990e-01,1.020558770382876124e-01,-1.674760373078112430e-01,1.586112074314174614e-01,1.370727098369074470e-01,7.637269598456575270e-01,-1.495751451420135603e-01,-9.304327280513817744e-01,-8.636934416211087262e-01,-7.563482704265366285e-01,-6.313566224369290270e-01,-2.185451218648502281e-01,-6.427580989009969159e-02,-1.717396880623114908e-01,1.038541099226355027e-02,-7.500933850860480590e-02,5.192362891597664468e-03,-2.559530164493448723e-01,-3.110384304265123023e-01,-1.250850764932091297e-01,-1.297810671103851454e-01,-1.019323191009016139e-01,6.281093770682480981e-01,-1.609377236441398296e-01,-4.544341177559423350e-01,-1.018013783822403706e+00,-8.901619115259167270e-01,-4.418185944203494864e-01,-1.800711993989265458e-01,-2.320675327528557430e-01,-1.049890615592021931e-01,1.433057924257496313e-02,-1.383963570022282621e-03,1.789503908605308974e-02,-1.308201401479948400e-01,-1.995381965959749371e-01,-4.757544995504606189e-01,-6.416958911279513345e-01,-4.061625793757001057e-01,-9.030971803212355098e-02,-3.456484436166446517e-01,-3.181227596219697862e-01,-6.751597470312649119e-01,-5.492483262274266975e-01,-4.547027706933527980e-01,-1.557245291625065087e-01,-1.345177561851661763e-01,-8.766070180145653368e-02,-4.419390447259657906e-02,-2.459045539056418928e-02,3.092296301873607642e-02,-1.849135258821571481e-01,-2.409507497554385369e-01,-4.998317080687912917e-01,6.414849450740106596e-02,6.309041441074935731e-03,1.202492438845002842e-01,-1.934176147330294859e-01,7.290111178023934990e-02,-4.200786238940623085e-01,-3.725399728134538013e-01,-4.580194761851719143e-01,-9.278497168382639215e-02,-1.183249610675757429e-01,-2.722767018141455941e-01,-1.093195112574093519e-01,-1.107007542423544266e-01,8.154126832367414313e-02,-2.899577709189110619e-01,-2.519485997275584532e-01,-3.831311013362326823e-01,5.192262915238032850e-01,1.401511919107907289e-01,-1.670031633963542650e-01,-2.423166458784167532e-01,4.936645551968300016e-01,4.964476918095436092e-02,-7.462479505758813636e-02,-2.962252968086236393e-01,-3.459925799844503769e-01,-1.885837209726690944e-01,-1.533103303032957720e-01,-4.906542197026807217e-02,-2.078492453721691308e-02,-8.948893880547575952e-02,-9.537177476671877818e-02,-2.973340965834458394e-01,5.430343383250695322e-01,5.559512447215297914e-01,3.758195999101738849e-01,-2.378862379016885575e-01,1.180865093183192799e-01,4.249218105340199503e-02,9.696586882632643456e-02,1.137686565073215555e-01,-1.398767860296802612e-01,-2.342051999790469297e-01,-2.414667030972841022e-01,-1.654858110946601790e-01,6.726049893174837480e-02,-1.398782519101903210e-01,-2.779161173392967130e-02,1.045854748062481909e-01,3.781686068731303085e-01,5.448140563859885654e-01,6.807431412205302568e-01,-1.483960744858716929e-01,-7.760443278717508164e-01,-5.623007735569884868e-01,-2.792183353383125843e-01,6.771308307506959667e-02,3.666047504010758740e-01,2.094477730573967578e-01,-1.938344186071971897e-02,-8.172834830763589520e-02,-8.235280279694243144e-02,-8.856713457319369265e-02,-2.013485585030149946e-02,-3.585879530252265857e-02,2.106955316082875784e-01,5.539509585254045465e-01,1.260115114480074017e-01,6.825556378007274771e-02,-2.538924637124411743e-01,-5.327851078697176668e-01,-9.015514956797934798e-02,-4.255791135015039584e-01,-2.850059560840369210e-02,-1.233068048952998402e-01,9.268151439174115991e-02,4.126141428299266029e-02,-5.793224988723705976e-02,-1.069633963521999381e-01,1.854527277867415447e-02,3.374791412743265856e-02,-6.560140051524590565e-02,2.531187060413938594e-01,3.162143526240102087e-01,3.217547781301137166e-01,2.115232819782022766e-01,1.271807243841132362e-01,-6.137736757059059078e-04,-7.776588910248014019e-02,-2.780738787160693878e-02,-2.613454672687584232e-02,-1.279056566095286007e-01,-2.075893253746838862e-01,-5.947849712834274438e-02,-2.421335990837732502e-02,2.025106772062043245e-02,1.498811652507145258e-02,-7.925300990618422067e-03,-3.267343310098044101e-02,9.467460272554216461e-02,1.804056568760134538e-02,-1.055755176309788011e-02,-1.180454683364892537e-01,2.095532578843137261e-02,-3.478514468451469194e-02,-1.284079474574093827e-01,-4.860322784565782733e-02,1.805677890118666598e-02,-1.817212179107467740e-02,-1.399083931447438756e-01,-5.633990852977511371e-02,-8.186023056319736979e-02,5.059914621769037030e-02,-3.491510216582068872e-03,5.044013562800377104e-02,6.560791894365056165e-02,-7.901949372904504276e-02,-1.566780784711207034e-02,-4.699691604955266852e-04,-6.358169073998588827e-02,-4.542459072985425422e-02,-9.030761004528526110e-06,-6.798770463324461943e-02,-9.665637995173251285e-02,-6.772942752128384425e-02,-5.239284083767403039e-02,-8.046664222060877225e-02,4.477495911099010212e-02,-6.459538967894218331e-02,4.210444896077080584e-02,-6.535983213473964271e-02,-7.337183923474974168e-02,3.737431796524268157e-02,2.661275923205656813e-02,4.038267795644978619e-02,1.575609782729596800e-02,3.030647138418150061e-02,1.810312365904373499e-02,1.819825430373826769e-02,-6.115126416692084205e-02,-3.560747964263941134e-02,-2.007119730132910299e-02,-3.628219900967555311e-02,1.043387179434594574e-02,4.298798864899401606e-02,-9.794739870612691537e-03,-3.497564319926779047e-02,9.309939897196287117e-02,1.209095037589106095e-02,-3.979037016191192683e-02
-2.764782762762317825e-01,8.813869900365442489e-02,6.959200281632890728e-02,8.502004364685037396e-01,9.202833925991462660e-01,4.603540490286386344e-01,5.307170426499013827e-01,1.120811480997994325e+00,9.143233457500944406e-01,2.051973152332656758e-01,-1.912605687765775997e-01,-1.715742018798450952e-01,-2.109597317819354168e-01,-6.658502927248835523e-02,-1.205696894315432255e-01,4.960180538218399160e-02,-1.019214084459295760e-01,1.325328836867169235e-02,1.114332397910067218e-02,4.711368654057545013e-01,3.159541199738947204e-01,7.303854315649733753e-01,5.746873596055342981e-01,4.173788077628919346e-01,7.658179091882385547e-01,3.781216241542368489e-02,7.143841114961885230e-01,4.338526874834793823e-01,2.015027594207878525e-01,2.742305708039324136e-02,5.140155156495559226e-05,-2.795470327102340113e-01,-9.860609525527759545e-02,7.296992745351990606e-02,1.288960891280200582e-01,-2.182373656833485054e-01,-2.618210380907501911e-01,2.355627064307835583e-01,4.601194404008730476e-01,6.220906767176183072e-01,3.121533903290553136e-01,6.401009441769027752e-01,-9.777804463971508098e-03,8.239226856504426599e-02,3.041381112687197366e-02,4.854952474375180405e-01,1.046324376832885317e-01,5.829149771020601146e-03,-1.869065400920220943e-01,-1.316913834333493516e-01,2.157060901177489110e-02,3.063194088465496234e-01,1.712445476401763533e-01,2.832997257470435959e-01,3.527997925038969806e-01,-4.988966589075069166e-03,-3.660235044338926436e-01,-5.915702355535766843e-01,7.031890897100864235e-01,-2.745516331890454631e-01,3.685863290636183787e-01,-5.316506837134264002e-02,2.830078682138330026e-01,-1.712280523972525559e-01,-1.361784291144862991e-01,-1.821007388855756109e-02,-3.949757726680377945e-02,-1.200646448643231667e-01,4.288370575127531392e-02,2.066270061208961006e-01,-1.469871781745728245e-01,-1.389757402827322408e-01,-1.685716326549485111e-01,-4.481928404851547865e-01,-9.071191091156494135e-01,-1.483694493035867534e-01,2.990790124471826017e-01,7.220884432730606539e-01,3.604881423911542315e-01,3.783388822888141823e-01,3.205283953203538067e-02,2.829905555617659788e-02,-8.638401574560135299e-02,-8.016982231011748894e-02,-1.143540873649293993e-01,8.106761906974489784e-02,2.127345412559407956e-01,1.081097482300213741e+00,2.720454415453252284e-01,2.503862283957637991e-01,6.623675323753956956e-01,5.152403338780242592e-01,6.243196382783524623e-01,-1.594152323665490589e-01,-3.331707879554219875e-01,-1.281049964313205058e-01,-3.488774835206250313e-01,-1.384773626455562401e-01,-6.471610697095450671e-02,-1.206026434264680092e-01,3.637481264149206028e-02,-1.031635539536797652e-01,-3.177814055230728241e-01,-2.132679988209417732e-01,-1.014163774013080666e+00,-5.525907790783769480e-01,1.758841091094775766e-01,6.961238193999794710e-01,2.871358179219703488e-01,9.209108302746111807e-01,1.071267888588614547e-01,-2.265289604939699566e-02,8.010140928172226893e-02,-1.338369111837136027e-01,-1.755180784522739068e-01,-2.009491409746383683e-01,-8.553272793839927779e-02,-1.503898150647351439e-01,-1.281486911344287619e-02,-1.701239138895146719e-01,-2.361583059833884390e-01,-1.127406349782855921e+00,-1.576838902133426978e-01,-6.810331259765439738e-02,5.190514163405527404e-01,-1.042653860763763929e-01,-1.267353590519423034e-01,-7.693615634306464335e-01,-6.882228417765776651e-01,-3.508269714425076846e-01,-4.041077875538320874e-01,-2.495074122918203574e-01,-1.026721570890464924e-01,4.200237215237096269e-03,-4.862172159733766513e-02,2.235167250000571690e-02,1.846660497800097639e-02,-2.662072339531941501e-02,-2.630730756283852223e-01,-6.409706268076412750e-01,-3.905461134782290955e-01,-1.056041831504063166e-01,-3.765644411288507909e-01,-6.619254147605062588e-01,-1.277852124751858387e+00,-8.088284800792107099e-01,-4.293736900742242124e-01,-4.474567327211726453e-01,-4.973285204079199162e-01,-1.527494269037137087e-01,-1.905997294597808200e-02,-1.148015919781383287e-01,-7.688134894540590153e-03,-4.111564603169243215e-02,-4.353309598932247199e-02,-4.125753424260077407e-01,-5.276845532607696843e-01,-4.070263627665139383e-01,-3.381784650779971479e-01,-8.995900669881433664e-01,-1.406054603661082369e+00,-1.685313932315519958e+00,-6.511073774254749758e-01,-7.388580146965464390e-01,-6.142974094224787907e-01,-5.314910854242268501e-01,-1.456678514500750476e-01,4.902049333928248931e-02,-1.002726934893746480e-01,4.211069042095883647e-02,7.947399960227303772e-01,2.151468738132573666e-01,-9.437808940155850701e-02,-3.233506915750013477e-01,-4.860825176478848486e-01,-4.624387889343848368e-01,-6.057896951168918465e-01,-7.568642821775799501e-01,-1.329212004323128582e+00,-3.335667394071222258e-01,-3.556121289041219158e-01,-2.329129725843267218e-01,-4.937355917452367904e-01,-1.165614673488228198e-01,6.953286949932054040e-02,-8.973658106731184636e-02,2.447028850529223837e-02,3.803661873524654680e-01,2.446494437652548815e-01,1.437226316627089773e+00,6.086849115644392683e-01,4.780670992453552870e-01,1.069174132532309418e+00,7.229128802313489199e-01,1.604205540502751104e-01,-3.981742568577383845e-01,-6.255954074329563852e-01,-7.543877384507251538e-01,-5.765175138487368400e-01,-5.236368975701972683e-01,-2.284403744218785892e-01,-7.536360005651861205e-02,-4.583070115127359928e-02,5.067718583948768729e-02,2.382663373001414620e-01,6.897386461287775827e-02,1.197540827770694927e+00,4.409221824204648255e-01,3.882200601086749914e-01,6.773590170337362437e-01,6.149401597278912890e-01,2.386923302497079569e-01,9.178819646001903365e-01,-2.364634243561249405e-01,-3.819403991757934214e-01,-1.722495885973608643e-01,-2.225972367486460102e-01,-8.274516315903533356e-03,3.604533440815074069e-02,-3.664423763424833752e-02,5.489483005812290095e-02,8.795086621580627817e-02,1.180468155538434566e-01,5.813928028515326085e-01,6.476924279654774352e-01,6.115239025244121329e-01,3.309416634522752698e-01,1.030158467703984476e-01,2.484302016669228674e-01,2.062164231057001806e-01,-1.923791617249039632e-01,-3.784700288475061902e-01,-9.614293908763393848e-03,1.511675998722881720e-01,3.483239058158697776e-02,5.173219664084801467e-02,3.703033631504887985e-02,-4.410542329954291602e-02,-2.015027165958117178e-02,-6.492866864210805611e-02,8.142498863835202771e-02,9.180368215918977004e-02,6.969304501391337947e-02,-5.465125320892302296e-01,-7.914061584641833846e-01,-8.506649987529681933e-01,-3.476626933535555963e-01,-4.419507043373296362e-01,-2.418311016598227448e-01,-2.120885278566052648e-02,7.595075891785399436e-02,-1.420601632410415927e-01,1.986997171692438460e-02,-5.212371001197108056e-02,1.544672835481589353e-02,8.532579773863124828e-02,-1.951907946013345663e-01,9.294582844579542605e-03,-2.950295860736646889e-02,-6.897865674485706422e-02,-4.514560969953159558e-02,-5.030297163559762641e-01,-7.538017231419482655e-01,-6.130691497997335926e-01,-7.227213024535221741e-01,-2.470664311159687376e-01,-6.491907665959530116e-02,-2.762919471921506179e-02,2.210744994104569660e-03,-4.226204183993430979e-02,-1.668343427587653735e-02,1.035183811973733152e-02,-1.187067888351370573e-02,8.969961906515498684e-02,-3.808677687627262318e-03,-2.177741816349251791e-02,-7.485411614987007300e-02,2.344126262844939412e-02,-8.261095791585292003e-02,-1.441434302773242915e-01,-1.207172526773265114e-01,-6.656422744442773431e-02,2.188474131397243061e-02,-4.099112634765578016e-03,-6.838156110538881616e-02,1.742215771953961601e-02,4.126736607825448599e-02,-1.235560539008443695e-03,-6.340419710929465213e-02
1.996574467322283497e-01,4.604671194420643099e-01,-1.365195385023490748e-01,-8.933110746935327695e-01,-4.949219313227061212e-01,-7.201199246350797889e-01,-7.659466252734120628e-01,-7.140583357285273935e-02,-6.438973707283234260e-01,-2.963988614707144809e-01,4.923541879469034432e-02,1.708811365705599217e-01,1.986686470678352689e-01,3.439796926375937036e-01,2.548481717615318498e-01,1.623418589105899978e-01,3.481150942469052323e-02,5.991960162992359118e-01,7.220308964289066100e-01,-2.479964878736082290e-02,-6.034303266123646203e-01,-8.176781659023241167e-01,-8.515812315219597473e-01,-5.279832416826240049e-01,-6.155034969686056234e-01,-9.984631998420420151e-01,-3.654090583151051869e-02,1.414159323593048578e-01,1.381794575228345867e-01,2.869099545994679978e-01,5.845607402000786434e-01,2.862160573442480982e-01,2.600468295062814406e-01,8.333700658635982694e-02,4.353599403036680360e-01,4.572150969960543931e-01,-3.183670182002271316e-03,1.697729287387283459e-01,-2.980141254114858640e-01,-4.643582238549565089e-01,3.894142782531105906e-01,3.078382343420963396e-01,4.043590842263147800e-01,2.140506076570361516e-01,-9.500594323425259891e-03,3.363580940532367447e-01,3.879119297267514255e-01,2.892007652692054620e-01,1.920047742408481084e-01,1.989894762368057957e-01,-3.161471964681362296e-02,2.709814908700053926e-01,7.228086080040607708e-01,4.632345274553165693e-01,6.821768239610860318e-01,9.550871440442834093e-01,7.043614158993834196e-02,4.023751899379062746e-01,7.223640561127560034e-01,1.233406352140174467e-01,9.928839879906632693e-02,1.749280088817129764e-01,7.480000464499332591e-02,3.473702282768119654e-01,1.637596364140277982e-01,1.218876250659284843e-01,1.778707119691369243e-01,1.605611521825857368e-01,1.471440462884573142e-01,7.333855768424043520e-01,2.216935523283802001e-01,7.132351656542122997e-01,9.835866968210653649e-01,5.603862300889907999e-01,4.173948599088002087e-01,6.877816744812521588e-01,-8.552434871297417973e-02,-7.695977794058711519e-02,7.990532840360485556e-02,3.930184848453572855e-01,1.731847542391246886e-01,4.161339580747787370e-02,1.219879283537804032e-01,2.410238975519287397e-01,6.019321049923235384e-02,-5.871206271156881318e-02,3.350560121796695157e-01,-5.218742081556760476e-02,-1.114190474185403845e+00,-1.178015034685204299e+00,-1.242036119917020454e+00,-2.721063149325915476e-03,2.006425312335620714e-01,7.563727214874672589e-01,9.520573266654133726e-02,3.233607782534056452e-01,1.143644266503653639e-01,-1.252848753855212993e-01,2.555777271202763767e-02,3.274294726561410851e-02,8.265940603810000009e-02,5.985174440946065128e-02,-8.747366249037236141e-02,3.674401645668287086e-01,-2.997445918288949018e-01,-4.302688105363046134e-01,-2.112337872530943572e-01,-4.778762246877428232e-01,4.152941194507669409e-01,3.819872051439524713e-02,2.711221512216717144e-01,9.607652972511342149e-02,8.396721784343370854e-02,-1.850022118992446230e-01,-9.504379792470242505e-02,1.562644886969736246e-01,7.001534374099326052e-02,6.592194448226731951e-02,-1.722942159878505450e-02,-2.303871842818060872e-02,4.565864876198404421e-01,8.791100550390271717e-01,8.186410276226600002e-01,6.691872486796478503e-01,1.968827146061738476e-01,-1.169226978548890267e-01,-7.779619865974704909e-03,3.099693393960578636e-01,-6.960678646361407630e-03,-9.246542133656990292e-02,-1.687207588615017850e-01,3.840728055625797915e-02,6.611428224576712531e-02,-1.912542352753071953e-02,1.119621132000119673e-01,4.226072971760867075e-02,1.966502862377216276e-01,2.116393324041673796e-01,3.629616526772562746e-01,5.491965220185172081e-01,4.879155774681784297e-01,-7.244510365344923597e-02,-4.767523581621754269e-01,-5.993274789594034146e-01,-5.302885542965714016e-01,-4.547980168343273566e-01,-3.559203872596694018e-01,-3.173788183570969146e-01,-1.444192852845097297e-01,-1.167650773794037949e-01,-1.177461102936731285e-01,-8.793242862518264868e-02,5.565965155409210302e-02,-3.499458224530354045e-01,-3.582831278047780010e-01,-2.390878353461895756e-01,5.769428124988692508e-01,-1.257380545435304586e-01,-4.443267582812057137e-01,-8.801783469361357248e-02,-2.387319898712487731e-01,5.947108185353112975e-02,-3.841445972624624172e-02,-2.530951644995412253e-01,-2.206815335855303595e-01,-1.739317494079141990e-01,-2.171595378695616030e-01,1.106296291435792528e-01,-1.665957388345707876e-02,-2.105436642545115145e-02,-4.002875775765288857e-01,-2.367081387373733969e-01,-2.255738476878791920e-01,1.424005063912734959e-01,2.608045023309699117e-02,1.061519326136328711e-01,3.985747867575923364e-01,8.950239522586153629e-02,4.520699572791596621e-01,9.680861044455073283e-02,6.505866426572692873e-02,-2.803555270360618135e-01,-3.226688881070238768e-01,-3.202838334238991003e-01,-2.202527999143650758e-02,-5.508141656067585060e-03,4.069482588975482235e-02,-5.062519147679470644e-01,-8.852321522661010800e-01,-1.304753699300198910e+00,-3.160212899524940666e-01,-5.753693389909155798e-01,-4.117966804941060044e-01,2.515925313955340997e-02,1.754994933759288778e-01,-9.550384404488480861e-02,-4.329849425692159359e-01,-3.509789373762753906e-01,-5.041034963910714373e-01,-4.215220730583792985e-01,-5.064990286764493588e-01,-1.401579743552283930e-01,-3.378607201606943864e-03,6.255636718935005114e-02,-7.165362691978585108e-01,-9.135773166298566395e-01,-6.126219923160580727e-01,-3.935537158208120556e-01,1.272883083246321434e-01,9.379320517653252920e-02,8.558507077405477781e-02,-3.622387190059402906e-01,-6.189087483243781440e-01,-5.326196773251821170e-01,-4.399751226443143759e-01,-1.907073089397893495e-01,-1.874133197438686005e-01,-1.957272332352006372e-01,-4.770961661445880658e-02,1.127817322799551381e-01,-3.359548053108322302e-02,-6.761603604978727589e-01,-6.623974676586548149e-01,-9.912508237729770189e-01,-9.440695084192526343e-01,-8.002131446130592574e-01,-4.790947570683986578e-01,-6.803592094610294572e-01,-6.412696027715385494e-01,-2.371312664807927462e-01,-5.340355742201254030e-02,-4.035044584519095756e-01,1.470450888607962615e-02,-1.028809361678959325e-02,-7.061772213359181899e-03,-3.551140808875075106e-02,-1.105840401721131135e-02,-9.104408040011472900e-03,1.384948902228651593e-02,-6.377350655478178365e-02,-2.999096032757346819e-01,-2.102007152094692854e-01,-1.283341037594473710e-01,-6.314276347143446544e-02,-2.506146913409851296e-01,-1.118700273063011341e-01,-2.164435148882323523e-01,-2.037328574947137594e-01,-4.275496072775083339e-02,-3.218105593851356555e-02,1.900540900849114617e-02,-8.183948759319459310e-02,3.114084452439528500e-02,-5.069408599239229318e-02,2.504188751075980823e-02,1.114835110240866220e-02,4.635821239684266570e-02,-8.613306297217811214e-02,-1.252039716699683836e-01,1.198380933576149304e-01,-6.962774473312939583e-02,-6.054432071808601989e-02,-8.287650535626496506e-02,-2.247236531178378738e-02,-3.949091722093199530e-02,8.206032538636356954e-02,-1.819474965749639725e-02,-4.588384433838711696e-02,-9.296394083299899802e-02,-4.144836606648872462e-02,-1.937882810979543648e-03,-2.837768851623631225e-02,1.800951285701876681e-02,2.450147085794264490e-02,-1.254612892294499071e-01,-1.598852023871449521e-02,-3.798208515215128339e-02,-4.363228534278156684e-02,-3.503908682939870650e-02,-4.237804783652254076e-02,-5.440810137614277703e-02,6.011802126696580428e-03,-1.016542751435248063e-03,-4.906725386492419294e-02,1.215800008275552541e-01,9.761419956720562841e-02,1.690767158168379400e-02,-7.254145102014442070e-02,5.233945252206988197e-03
-8.484532365858336866e-02,-7.037448662118968301e-02,-4.134697133914387313e-01,-4.048614174506986463e-01,1.651985168866621501e-01,4.604144516988527003e-01,6.291012300127467594e-01,-5.625308414122224404e-02,-1.527958186926406114e-01,-5.109230751718595309e-01,-3.430940787816561532e-01,-2.592122958854344295e-01,2.327923028718711096e-01,1.777677495496620685e-01,1.467556396965046528e-01,6.559058390160547869e-02,2.772271596288022194e-03,-3.211917355286906250e-01,-1.924518698458276555e-01,-2.195584353963257185e-01,4.056737302017280888e-01,3.185478692380291910e-01,5.216931275587788353e-01,2.387925706935851433e-01,-2.659348708970839525e-01,-2.414128469897041870e-02,-4.777986425091382272e-01,-1.916628102715394466e-01,-1.065769020891752100e-01,2.702680127790511033e-01,3.027076534044429446e-01,3.795697216040708200e-02,-4.439927251370603956e-02,-1.225739662946704750e-01,-5.656786889275881025e-01,4.478049054047493205e-01,1.438359376109729984e-02,1.178615972017938995e+00,5.823917700873598724e-01,3.161953949693371846e-01,4.692648472231299439e-01,9.944782603440484314e-02,3.269774147866443825e-01,2.637774028420679651e-01,2.193719160617716921e-02,6.619680169722544361e-02,2.834700688236056476e-01,-2.979389375491698841e-02,7.026470644748343541e-02,9.735534680969151755e-02,7.364112318031511284e-02,2.210800006811957930e-01,4.990787648638229657e-01,5.399747434329564832e-01,6.326543066255014836e-01,7.891500441591621229e-01,6.461829093152194892e-01,6.393031305168018763e-01,4.313383524590853613e-01,1.342280652457076284e-01,-5.756146817357875312e-02,2.566554330754069677e-02,-3.445247758901693325e-01,1.464155291917356716e-01,7.051964851930617173e-02,1.574936296296062521e-01,8.280892144770260477e-02,-1.556636778500378182e-02,4.619653073493010242e-01,3.615590058680608343e-01,7.502777364505948121e-01,3.782805833931631723e-01,9.828736597374020389e-01,7.697836686064277734e-01,4.780612390328168315e-01,-8.335289069634635450e-02,-4.269849811652865479e-01,-2.898993623188895197e-01,-1.163243456979949769e-01,-4.178550091927746291e-01,1.143936415105002158e-01,1.310792593794354310e-01,8.879026926443442380e-02,1.025914644193572089e-01,-9.187452480325550286e-02,2.866683245520785794e-01,2.682398392593185465e-01,-1.366859503650845187e-01,-1.438056036465547305e-01,6.206847361124901985e-01,2.442248424967292664e-01,2.233328641956951882e-02,-4.665349505462436097e-01,-8.964126867902750817e-01,-4.941957438598899022e-01,5.416812682804553886e-02,-1.460050863663050758e-01,1.943919273375829537e-01,5.867098396579599473e-02,2.103658739716457796e-02,-9.620488670453763991e-02,-3.125822779742629814e-02,1.223948576452699166e-01,-1.645363766635045688e-01,-6.727079097136692276e-01,-8.615962065807091230e-01,-4.402685116107890040e-01,-1.759225789413980667e-01,-1.090407993141259968e-01,-9.431609514717983478e-01,-7.232774997541291384e-01,-7.987276293035723285e-01,-8.052820584787682978e-02,-9.462248042097479162e-02,2.014075786437161397e-01,1.587612189866442480e-01,3.423829331839393919e-02,1.379918986259497660e-01,6.004733593803755765e-02,-7.649878696772738351e-02,-4.879407262573819404e-01,-1.101828269726812470e+00,-1.066862063161466478e+00,-7.848635199663355211e-01,8.526333841652306011e-02,6.975968004665561439e-01,-3.745574233350131843e-01,3.179125034796884686e-01,2.112161258732774827e-01,1.348938061675393207e-01,3.554014695228122078e-01,3.193496494621910209e-01,3.082458631476299726e-01,8.977615489521378889e-02,2.598503378746070888e-02,-1.607278095460488998e-02,7.997048820256030810e-02,-4.499528289376182322e-01,-4.726796637742550766e-01,-3.605484644782795400e-01,-6.589414946337006640e-01,2.561340914431093352e-01,1.177440019024741158e+00,2.735404955982643771e-01,2.921107767502807984e-01,3.000847937893199036e-01,3.174654039102949854e-01,3.669115822073226729e-01,3.369671609304002446e-01,2.124668075133722689e-01,-4.801229164836933773e-03,-1.189499124098015483e-02,-5.472861911896259590e-02,5.176128750914820165e-01,4.735575314027447996e-02,-1.191749358217529114e-01,-9.988901279418127555e-02,-2.194642217962377850e-01,3.305164675284041342e-01,8.154586744141958388e-01,1.779406781069434729e-01,5.725826365453831057e-01,7.522594906474875387e-01,1.764920017139675334e-01,5.072623030792904331e-01,6.253094505151457483e-01,1.207354446787360785e-01,4.243353092069732796e-02,-1.549693417888631936e-02,-1.808784872803191265e-02,-1.496355184141147099e-01,-1.202625755235412347e-01,1.757686785176371114e-01,-9.821902394687269389e-02,-1.479477191182554732e-02,-6.044743615290751326e-02,1.815034276625016874e-01,4.055930797465354815e-02,4.434734335674747618e-01,5.770591170827317207e-01,1.514025356324726623e-01,6.003626604274920897e-01,5.579256527596349047e-01,2.191190301042197919e-01,-4.974289358759505404e-03,1.316627511666158823e-01,-2.685547472359752982e-02,-6.673147636892642343e-01,-2.878183285130210267e-01,4.137494470044405549e-04,2.874860559766034829e-01,-2.680542851278781558e-01,-8.217205840698573738e-01,-6.968778826243944291e-01,-4.790683229979820212e-01,-2.015248762053321596e-01,-1.576998658271254183e-01,-1.201710593546100603e-01,4.215459784570083079e-01,4.248859407984703629e-01,3.196324121720108269e-01,4.324854853838912272e-02,-9.818272116379279935e-02,-2.894371428323190554e-02,-6.798440023562465906e-02,-5.271429843400399218e-01,-2.298174399015922020e-01,-3.053622806461772088e-01,-8.738854324287206876e-02,-1.151490936490143502e-01,-3.531884907322389161e-02,-5.303451523239242557e-03,-1.436742545279814931e-02,5.727782005498447543e-02,-1.396617238685123052e-01,2.466601640651636118e-01,2.149031480182247433e-01,1.287239742392984332e-01,-7.481441814737864460e-02,-4.663555309972711171e-02,-5.068085667627522661e-02,-3.040516299865729799e-01,-4.003297002799117710e-01,-4.277831890029257789e-01,-4.558969555872533497e-01,-3.141361331788203870e-01,-1.537576312473544204e-01,-6.425931827593286960e-02,4.361951256714140940e-02,-1.050173679510078700e-01,-2.120028613879189894e-01,-1.445951356491403383e-01,2.789990431749848204e-02,-8.344250277256876069e-02,-5.693148358113440249e-02,-6.651258163052610646e-03,-1.215112670312285849e-02,2.436044062108376831e-02,-1.145899143656129021e-01,-1.114828007538204435e-01,-1.439381026156473231e-01,-2.838034455093885189e-02,-6.044843035024941025e-02,2.301039723684701263e-02,2.280990874082399755e-01,1.356476867979307110e-01,1.014297258308122507e-01,6.290344185350105720e-03,9.202829892954200730e-02,-4.833469494646123327e-02,6.512900545673784569e-02,-3.474115351795267759e-02,9.018859572163442917e-02,1.188859700371009721e-02,6.794656808835339290e-02,3.803436883438714167e-02,5.258774770008636107e-02,4.343337480090433272e-02,1.850727836607999124e-02,-8.966210631252155561e-02,-4.961172479995731160e-02,4.630930965273199335e-02,1.999160698854015872e-01,1.175911525568342081e-01,2.433110593117895626e-01,1.304696831728496542e-01,5.380001908244474995e-03,-7.616694008604586730e-02,-2.109945855911083551e-02,-2.025476686211012504e-03,7.672488155555552691e-03,-8.655786908813019320e-02,-2.391397217433933672e-02,-5.458871590288271597e-02,-7.377377553226252549e-02,-5.432771635470003135e-02,-2.360892629294108688e-02,3.525724304776862994e-02,2.347261215133869539e-02,4.651624181989311158e-02,7.030776083644180163e-02,-1.009339099934482287e-02,-7.962511273143062229e-03,-2.961989524436983018e-02,2.416971903109110115e-02,-2.571253124652670904e-02,1.397740088715585145e-02,-3.238944581152924940e-02,-4.437404318354162824e-02
