5.925862392680457391e-02,-1.501470842627931623e-01,5.464378311028608159e-01,5.330251143158014626e-01,6.139406347325304658e-01,9.903887670540136856e-01,3.039438279196081671e-01,-1.276347420244585418e-01,-3.185996648353116578e-01,-2.111030324368289302e-01,-3.420309161199667353e-02,3.136927329862841674e-02,1.156603322996524325e-01,7.414905540977145826e-02,-2.004021923735651439e-02,-5.392526920195828306e-03,-1.945066026902524461e-02,2.858826664375137550e-01,2.873421322914581078e-01,5.558678463093833511e-01,1.029429439612057129e+00,7.155737416214508206e-01,6.224981631092216805e-01,3.800626014723433310e-01,-1.943913831216996860e-02,-9.215673052244520436e-02,-6.503335314094906006e-02,1.479507986189914637e-01,2.119840458993796917e-01,2.198227241085354833e-01,1.998949374013650471e-01,2.043529024638999769e-01,-5.613385574579196624e-02,3.299091537292910686e-02,7.342441276527486571e-02,1.683402703816603563e-01,5.716705272508070257e-01,4.240648545586967466e-01,8.873174801914293641e-02,8.177634909635021418e-03,-2.374244250227448838e-01,-9.501254963378097385e-02,-1.521804672215732734e-01,1.668127143924971745e-01,-5.680508871412566496e-02,1.033524455695805921e-01,8.627807858604763513e-02,-9.432323572454837102e-02,3.034489840851762460e-02,-5.362134128844888922e-03,-3.211005716251386782e-02,-4.045821902244866458e-02,-2.398791753549547323e-01,5.632461835210463702e-02,-9.776653136773250097e-02,-1.502041902865917378e-01,-3.282580024985510825e-01,-3.424431050231778739e-01,-5.307024131315689619e-01,-3.016417215350424841e-01,9.282338858991598385e-02,-1.261678870767369565e-01,2.038669762652402934e-02,2.633565734314774476e-01,-3.869452162911434651e-02,-1.439805602066084912e-02,9.200831857760435883e-02,8.484037816320962044e-02,5.167886031959740417e-02,-1.588211482365923383e-02,2.393047221531487967e-01,-3.407050196591149827e-01,-2.390213596644467642e-01,-2.828321123546098104e-01,-3.811209790742957626e-01,-4.495124567658847492e-01,-6.194200674612990731e-01,-3.895214452515101677e-01,-1.192054932997092392e-01,-1.144938280687360227e-01,-1.324454015922740639e-03,-8.761854651601552746e-02,-1.617922586300020796e-02,3.770596271290681950e-02,-1.897595308275171200e-02,1.406085578450273765e-01,-6.446560512270280152e-02,1.086241118714193210e-01,1.764515586761118415e-01,3.539123960521263212e-01,4.461373141651353014e-01,-3.479783679661179185e-01,-1.233200793459020561e-01,-1.206140237173968927e-01,-1.061630401948554514e-01,8.440916742552985463e-02,-1.175871147443300624e-01,-2.320592340167281636e-02,4.952662105356998856e-02,-1.825848602935655624e-02,1.003450565527986282e-01,-3.817317726561503428e-03,1.671416795778892517e-01,-2.191164187176740386e-01,4.974383623983240077e-01,-2.558726219320188733e-01,3.395024489314480420e-01,5.340867031039981949e-01,1.588304672773984405e-01,3.519353207284790508e-01,1.693302915108196305e-01,2.264235775184539334e-01,-9.549333503988088889e-02,-6.986279731132469251e-02,-1.990190470224899311e-02,7.945735537365382004e-03,6.750428505233807552e-02,1.546739852179465913e-01,2.752608903152880745e-02,6.829264554182902514e-02,-3.148911093240378545e-01,5.830275665523100559e-02,-3.703732815135535872e-01,-1.903898481649008573e-02,3.338992283777040271e-01,5.960417590081692474e-01,1.932962261903176937e-01,3.527987168091650805e-01,3.102926527325847728e-01,7.407615383151758270e-02,6.228564094797646097e-03,7.680588787262679351e-02,-6.022885627001726278e-02,8.447671391736297219e-02,3.711384460841248012e-02,-6.976528823364054610e-02,7.282228912178562164e-02,-2.739225189304003716e-01,-4.200738032723935200e-01,-4.258529655690463378e-01,-2.341682331249174687e-01,4.137987874701776897e-02,-1.045495639714357633e-01,-4.089009412243920782e-01,-6.723698962164207857e-03,1.450921500229320205e-01,6.966955207300690178e-02,1.337119395015529399e-01,-3.874955633018655615e-02,2.678762084881260164e-02,3.961100297427881667e-02,7.874668579908100652e-02,-7.854512882910241744e-02,3.614048403091130734e-01,-1.149033503744405216e-01,8.667444232267103310e-02,-2.692730001555685981e-01,-2.274949234865911996e-01,1.397177597852272135e-01,-2.767583504762713420e-01,-8.690412146879554767e-01,-4.223936593630769898e-01,-1.618330046585713666e-01,3.724169235779010989e-02,-4.668860929844875080e-02,1.117727302940761253e-01,4.664705332441394792e-02,1.685124021130800231e-01,1.492663853533953908e-02,1.092262553088974575e-01,2.707494731838772095e-01,-2.715766535808379900e-01,4.479973240723764127e-02,-1.069957936789957681e-01,-3.866981481478068416e-02,9.614430052802340476e-02,-5.980112279896624555e-02,-8.081619797122612248e-01,-6.001037938188792387e-01,-3.149090197910762723e-01,-8.806081937889741196e-02,1.819777820129286211e-02,-8.660006110181639460e-03,-7.804951286058671445e-02,1.205679638886657523e-01,1.134827007026205092e-01,5.252860546336245162e-02,-2.515803731098338325e-01,-1.803472572733577917e-01,-3.189831937264568928e-01,-2.303740564515378564e-01,-6.490001271382825343e-02,-1.370002883332195331e-01,-3.423269236449831832e-01,-3.281076305791228442e-01,-5.593923154413353860e-01,-1.542324441485234954e-01,-3.277933029426292888e-02,2.226442128383156888e-02,5.024246027386666119e-02,7.446826159680637602e-02,1.068568955036289791e-01,1.267137997574429298e-01,-6.401621547845522120e-02,-1.455216351678030595e-01,-1.076605352302353602e-01,-2.352137209290047076e-02,-2.182425895647375769e-01,-3.543628964444509033e-01,-2.997283857435253940e-01,-7.772997971876174916e-02,4.984371703724583408e-02,-2.134283566398445520e-01,8.419575334151685464e-02,2.537671806260042295e-01,1.083515460288651533e-01,1.024078103460979855e-01,8.455374882837750350e-02,1.465719709915341840e-01,8.795860193248178360e-02,-8.575520418012380630e-02,3.482429710802373846e-01,1.602930852459705235e-01,1.835557572523311420e-01,1.869632866664458770e-01,2.181269798676215843e-01,3.340556399803270016e-01,4.088073752085594204e-01,3.436607476657967952e-01,1.057784829621160050e-01,-4.795578300525196042e-02,-1.342097210868718749e-03,9.184276225993891207e-02,9.991468682315549077e-02,-2.404235630569118848e-02,-6.232114876100763520e-03,4.242157879208331706e-02,2.034487604053037899e-02,-1.078272066409359867e-02,2.553434663143951816e-02,2.967829268821000829e-02,6.355695572832741058e-02,8.364646626753342862e-02,1.765864261814198699e-01,3.183572936284518318e-01,2.953963058708202194e-01,1.791664703457312435e-01,8.493197642268858483e-02,6.452965835828444741e-02,1.251309746785670418e-01,-4.242117341726051039e-02,1.373923367230567814e-02,-1.275539576670519371e-01,2.779756866404643409e-02,2.065270899688612452e-02,7.235136768997793046e-03,-8.336239304962717034e-02,-2.394212655444543161e-02,1.748768409304359700e-02,8.448425033330642098e-02,-2.692390897227350116e-02,1.542597612409601915e-01,3.162857492880580268e-01,3.446516092515720664e-01,2.758535584874733937e-01,1.464774167302075047e-01,-1.757570766206299068e-02,-1.249203478739068472e-02,-4.645247074539517879e-02,5.738749234121719167e-02,2.051355899629964119e-02,-7.764730741861460006e-02,6.716909781054833384e-02,3.874515720742852803e-02,-8.124597998903643203e-02,-1.123062910776419371e-01,9.813687875186034859e-02,-3.717707957632934105e-03,1.045881534559786608e-01,-5.857689009875737679e-02,2.960250973084099443e-02,-2.536902575265994816e-02,5.758735470296251491e-02,-6.061292430946318976e-02,-8.398417392137925985e-02,-1.551475281225826557e-02,-3.718531518402600627e-02,-1.328725404924912222e-02,1.086113220073844920e-01
-2.268581666775696393e-01,1.573317352101501476e-01,-3.394192410220009393e-01,7.352707477096694089e-02,2.253401561228634553e-01,4.023491085928669331e-01,2.543795303782431794e-01,2.113564766830076103e-01,3.034107665190056702e-01,1.971509370120077820e-01,-2.445097718465731318e-01,-2.060382569466719938e-01,-3.445872438664531190e-01,-2.228819829126460483e-01,-8.790528768947386551e-02,3.961389136705540520e-02,4.175780290406382045e-02,-5.538318336693860422e-01,-1.003888554627503149e+00,-5.253066863223153360e-03,-2.582679968579664198e-01,4.325955521685389549e-01,1.845655581838693826e-01,1.441903069096524825e-01,3.631287052983100949e-01,1.879387134019963601e-02,1.074007037996413949e-01,-2.570326317533084270e-01,-2.688589039561508631e-01,-3.513181773545692166e-01,-2.194506417237895579e-01,-1.021935166097271003e-01,-2.813050604046538408e-02,5.332784623296959320e-02,-1.418589374915079082e-01,-5.827414946701502396e-01,-1.031594130603127324e+00,-2.825333951400885169e-01,1.729089380832404821e-01,2.939735179385205566e-01,5.218790322639191986e-02,-1.036330830687516996e-01,-2.064623915447516556e-01,-1.260541632532017342e-01,2.326685142485545796e-02,-5.456923978338121956e-02,-1.650997079165149595e-01,-8.750244054824833639e-02,-1.292252745373726475e-01,5.008995550103658573e-02,1.120095388363001598e-01,3.328916434455978651e-02,-2.672621583470529139e-01,-7.777207828911898435e-01,-5.566783277891022008e-01,-2.993428547961761721e-01,-1.382301529981045662e-01,-2.437589971416004031e-01,1.173689051637845371e-01,-2.534125230252620153e-01,-8.832463478245304589e-02,8.836131461905562950e-03,-1.697365068500636745e-02,-1.394469555543352557e-01,-2.598911932366682609e-01,-2.344867358326366558e-01,-1.923499066131333785e-02,1.483950148384543741e-02,3.157640089320556953e-01,-4.664642703794358303e-02,-1.130690771715409548e+00,-4.430264162863266075e-01,-5.833221485981963106e-01,-5.010319868172069535e-01,-4.137594460533561280e-01,-1.657299971430850338e-01,-3.872517003594884155e-01,-6.532495307793904915e-02,7.815114216732321761e-02,-2.199757286144478630e-01,-1.140792963284123634e-01,-1.436217136781751391e-01,-3.021477141516374157e-02,-5.736066405323534886e-03,-9.747117177063124860e-02,2.920465379999404032e-01,-2.712819763964444825e-02,5.473672006528151890e-01,3.409440932873149532e-01,2.325851633833589671e-01,3.618516162938240077e-01,3.329800386140363000e-01,1.640576703330555719e-01,-3.980388016664218598e-01,-9.194953190033021417e-02,-4.693087913337841144e-01,8.537637553552923642e-02,-1.571237620930067969e-01,-1.224046766812080800e-01,-4.666223085562923312e-02,7.956728921920665221e-02,2.932051798094693559e-02,2.370626528002314215e-01,-5.727726221865049594e-02,-2.751157439415375938e-01,2.342722790089931950e-01,1.722892595531088644e-01,-3.170040254894986032e-02,-2.665972169360977806e-01,-1.891042232564947856e-01,1.659376385175437979e-02,2.708832865836958148e-01,-2.435449115707570833e-01,2.572800043152505545e-01,-2.077103074979118613e-01,-1.932092293852075982e-01,6.200637134283967095e-02,-6.329768359430980318e-02,2.210297752280796987e-02,2.995062769415666737e-01,-1.171205332363972618e-01,-6.551131714575122444e-01,-1.153889435818514497e-01,-1.798193427607315820e-01,-4.256581055268266467e-01,-7.244382003930288638e-01,-6.594962391527959822e-01,8.625614393174728389e-02,-5.228656852434884761e-02,8.447293075624831560e-02,3.930088586337914247e-01,3.319725370968625716e-02,-4.340247203519191632e-02,-3.094040301723289393e-02,-1.116496262733421979e-01,1.049517472310012092e-02,7.360532277056106021e-02,2.021236693111174432e-01,4.023220214578482334e-01,-2.283541106343117133e-01,-1.667063159666436756e-01,-2.541100756539431682e-01,-6.902696801939505189e-01,-2.263076777633311609e-01,3.651959145544030338e-01,2.992046729195400601e-01,9.186315510225964709e-02,2.319495106932074335e-01,-1.471275760896041673e-01,-6.147699382355444574e-03,-8.952114538708895800e-03,-1.239702770197307069e-01,1.162978985516005363e-02,3.442333832921180142e-02,4.663732234639482166e-01,-2.476868957153013917e-01,-2.280983645818698835e-01,-2.207909492302435328e-01,-2.586943232315253582e-01,-5.223142854183504546e-01,-3.806738792745347211e-01,-1.458985326372200519e-01,-1.419532559615218070e-01,-2.255432132494558928e-01,-4.892060689174125565e-02,-2.041359970362434662e-01,2.230046924778255821e-02,1.434862217074910073e-01,8.795338005310165963e-02,-9.082621065935443877e-04,-9.206935720342077079e-03,6.196915023710187764e-01,1.528588197474010368e-01,8.272898988811167031e-02,-3.676786644025621942e-01,-4.095410491326664792e-01,-2.031181912828315117e-01,-2.358096371970881677e-01,2.414300057513160402e-01,-1.073575231494151572e-01,-4.597706361840094846e-01,-1.489610792766713210e-01,-4.434989957222736923e-01,7.783625036932151527e-03,6.217056128459334113e-02,-2.007259181477238225e-02,-1.524536891704800223e-02,4.906212947435998339e-01,7.858581530613116817e-01,2.321031755117840323e+00,1.391438829627627216e+00,1.042933642994395615e+00,1.382000972599080502e+00,1.342853819138736027e+00,7.218901340267396272e-01,5.162680794448092358e-01,3.303235912461308654e-01,-1.545158317267172343e-01,-1.496616799050152213e-01,-3.445141562813082148e-01,-5.291080123830984444e-02,8.032964361981502488e-02,-4.141024342497299365e-02,6.118074497289707064e-02,-4.235358313226200017e-03,-5.377187052566492764e-02,1.449776196220295299e+00,1.066703511966989870e+00,1.009769032559201474e+00,1.390484738606656112e+00,7.998522155826983671e-01,7.705718970603970819e-01,5.223784542533804753e-01,2.793728629740783176e-01,-1.593143135376428113e-02,2.471091176430253653e-02,-2.527124494318346293e-01,-5.577354870997129621e-02,-1.297360785167694236e-02,-1.959168527218665620e-02,-1.143851598096082972e-01,6.557197653245216973e-02,1.462061827163749494e-01,4.317872828198088819e-01,4.278381116286848473e-01,3.731954069329130319e-01,5.112026037371066867e-01,5.251027194801675124e-01,3.846370443208375067e-01,2.592116592327380342e-01,-5.753035475260846743e-02,-7.112295715414145014e-02,6.102096130388219575e-02,-5.230648473475766475e-02,5.701468145542932381e-02,3.155455010498917079e-02,-8.331885578128681025e-02,6.550199210839344199e-02,8.825763548637961808e-02,4.371780365820686354e-02,1.266916807032096026e-01,2.114417376153293893e-01,2.160728667203778708e-01,8.124724294903390431e-02,6.331208950016509185e-02,1.634564568377255833e-01,4.788520069583883376e-02,1.872423006464879122e-02,5.370288308773095431e-02,-3.172098471405846581e-02,3.055536207208391086e-02,-4.759039288846379084e-02,-7.060408215981683888e-02,1.080711596862052142e-02,-3.608185703368788771e-02,1.363273679332437441e-02,1.243472106337694810e-01,-3.839171611948451884e-02,9.963986926592963145e-03,7.910519032706930798e-02,-9.462076172172434463e-02,-1.511186377290723790e-02,3.656209846957175769e-02,6.040098837967932711e-03,6.597638553616823331e-02,6.421429874696041318e-02,-3.896408651912375981e-02,1.908053518561953280e-02,-3.343951282868257158e-02,3.317499120099961021e-03,-2.932179482090791975e-02,5.119571851116495181e-02,4.268652717176018435e-02,5.296329434482253962e-02,4.953337005360042983e-02,-4.062620724971122491e-03,6.135849296567096045e-02,-4.223767518263955856e-02,-7.565365900182086101e-02,-1.115219060093610923e-02,-5.925189999432721455e-02,5.452374023467528724e-02,1.805948246817873706e-02,-7.155893170177889118e-03,-1.504283110255714984e-02,4.885225838990803898e-02,-4.538931256567086542e-02,-2.760648744885673897e-02,-2.923188788313035510e-02
-6.851445482720538993e-02,-1.336642765678139888e-01,-4.145171144290308862e-01,-3.833801707241019097e-01,5.424586157813088283e-01,4.832412501774781544e-01,8.573411986745602675e-01,6.444970114422127194e-01,1.845349319844482860e-01,-2.429158255290432902e-02,-2.583984888674047409e-01,-3.462562853837237720e-01,-3.358401833020831506e-01,-2.533650388245275442e-01,2.207493448621486790e-02,2.451389007218169810e-02,-7.302561454441315603e-02,-5.170890741902345322e-01,-7.838003534530142424e-01,-7.053276927641525251e-01,-4.940330086914045959e-01,1.728130145414256136e-01,4.714043725183151845e-01,9.668263395662910487e-01,9.317806439039778565e-01,3.830327659910124360e-01,4.595379730421660924e-01,-2.009465718739239168e-02,-1.918058402312616817e-01,-5.230329022047999210e-01,-2.297992644306703636e-01,1.372821115972578665e-01,1.291135316823936452e-01,4.796559641071155428e-02,-6.371708629617790498e-01,-2.755990608315400103e-01,-6.328558654193227051e-01,-4.180851052260848855e-01,1.963178309398891375e-01,3.467827417246834298e-01,8.350369248787293808e-01,7.645403422061620713e-01,7.839300828681017297e-01,3.064502122326572819e-01,1.628840252461165594e-01,2.605175460860453471e-02,-4.195979937009237104e-01,-7.961901605760055012e-02,1.230256482296679249e-01,6.768177512324717593e-02,1.552674502803608886e-02,-2.652905651264416687e-01,7.290615809563676109e-02,-4.863492061985724146e-01,-4.193184601843499837e-01,2.798126406087250162e-01,2.229655759703861040e-01,1.372137738096811388e-01,5.177579119493803672e-01,2.004718838548882331e-01,2.448588072541108829e-01,1.875904550634983070e-01,-7.170435212713655894e-03,-4.018174067023766449e-01,-2.204857456584679437e-02,1.931678708670413469e-01,1.463364409020848911e-01,7.139931157977828270e-04,3.478663257726734293e-02,1.483226336993511696e-01,-3.013266633445670362e-01,1.129124683284127156e-01,5.257720913918079164e-02,2.570233232233331000e-01,3.097505923649879547e-02,2.180847205785014231e-01,2.192483682068714079e-01,4.383151301837853175e-01,6.184276830146122617e-01,1.553311413222862314e-01,3.729673667381598612e-02,8.781965806267250096e-02,1.173612947186726541e-01,-1.734053241209614288e-03,-1.136411167363087366e-01,6.380969722048893122e-02,2.514945565513272974e-01,-4.978679290893371912e-01,-7.662340703904159389e-02,-1.280672933951247094e-01,-5.789947104323398541e-01,2.206952177330333553e-01,-1.564742405533923741e-01,3.754985902569863976e-01,3.873814177941446446e-01,6.203773675505864782e-01,2.448095744982692057e-01,1.508667882982778485e-01,-8.865968151875572995e-03,7.206460545032825071e-02,2.938707249413353637e-02,2.311443550594738036e-03,5.283858539981207275e-02,3.636398175231650987e-01,-3.093347564757339963e-01,-3.807032518750032013e-01,-3.306437511729674039e-01,-6.924979610626035287e-01,7.822296660532540580e-02,-3.228986347492147635e-01,1.404180255660100463e-01,4.002166703959624816e-01,5.696018995963125775e-01,1.860830762733690913e-01,9.087778099186984149e-02,1.436536828372160790e-01,7.297900482856109483e-02,-1.860179451213433630e-02,-1.123590651347866343e-01,8.974113915805081651e-03,4.057418535503802826e-01,2.318591991936063135e-01,4.278968332190383750e-01,2.746043918875947787e-01,-1.361464306582134687e-01,2.232939544864647741e-01,-3.183645128245434774e-01,-2.824229214589655257e-01,-4.537846299044229204e-01,1.078599049532581455e-01,1.526503196542991318e-02,7.030616383603636999e-02,3.137754328639736912e-01,1.344312800727912559e-02,-8.485127248250089183e-02,-3.265611166989343221e-03,3.524339100798759006e-01,5.089457684255304093e-01,4.347301934284790725e-01,5.174319140968809405e-01,4.509086902034530886e-01,2.358247698126651748e-02,-2.761773246880651622e-01,5.095900365786956709e-03,-4.247670054808986850e-01,-4.266859427682584971e-01,3.435550510990596773e-02,-1.706687701392777257e-01,1.918583561792740477e-01,2.374843546198011357e-01,1.535529527040779552e-01,-2.612972251861517183e-03,3.283201613064846980e-02,3.089446749284285310e-01,6.421463373248891271e-01,4.525077045395777819e-01,2.938461487357654223e-01,3.364979572176116096e-01,-9.343112487303345537e-02,-3.328402342575241257e-01,-1.543724102671360510e-01,-5.561597117990517702e-01,-2.416813801546005003e-01,-4.343914195689375646e-01,-1.094001574497124180e-01,2.193653399624327649e-01,3.365286294294526220e-02,-4.962565984334711688e-02,2.089508094236774624e-02,-6.838101230631474237e-02,-1.517410685885884625e-01,4.804789070648620708e-01,8.023728550518219316e-02,-1.654211132286975694e-01,1.417122691744973906e-01,-1.972702310957100413e-01,-4.269292513298687530e-01,-1.180078774042330886e-01,-3.205748444958283483e-01,-1.704566500991477052e-01,-6.813271071679857238e-01,-2.002739937213335875e-01,1.362080306786798631e-02,2.712146218158167921e-02,-1.400980023085973691e-01,-1.880131080151682330e-02,4.939074129744071284e-02,-5.820523688604549717e-01,1.950357134870310816e-01,-3.202552104739644911e-01,-4.069390143292681561e-01,-3.052615406326061875e-01,-3.760104572534909706e-01,-2.569637060354427183e-01,-2.187456003501037083e-01,-2.935303496295914027e-01,-3.684033026128673005e-01,-6.502499463396612667e-01,-4.947643389681309345e-01,-1.262578778313111216e-01,-1.671653274515375433e-03,1.130376368997990967e-02,-1.377510140046285803e-01,-3.342037083230686711e-02,-1.923398263355491078e-01,2.864285788997293358e-01,-6.942124565148738435e-02,-4.833241553424063586e-01,-2.727811107032031002e-01,-1.605269312764202594e-01,-6.135533874272858235e-02,1.737837476665989589e-01,-8.221224895196105331e-02,1.835245982813940580e-04,-1.114713132294667675e-01,1.362090726678114316e-01,-2.126373126086680138e-04,-5.619231134052451310e-02,-4.926035131224847097e-02,-1.103640547151286955e-01,1.035467712667256096e-01,-9.885728380164009177e-02,9.825103723225131480e-02,-6.815684552212453520e-03,-3.632180054090529686e-01,-2.522748638058719961e-01,-3.755941394457780746e-01,-3.076189986652891339e-01,-1.885236217186459229e-01,2.174390327682952373e-01,2.041190686444285252e-01,1.471978591205349296e-01,-1.916321863575889614e-02,8.148918252355942526e-02,-5.960264837640815057e-03,-9.937310736273143041e-02,-5.926932483595364481e-02,6.060302554593708681e-03,-8.650043169073048932e-02,-3.058760406199906713e-04,-8.420850496324369661e-02,-5.976552543084234261e-03,-9.341498219922277080e-02,-5.099850317350793777e-02,-1.419568004064428735e-01,-5.735946177253788830e-02,-1.325890203117978741e-02,-1.012606144512235434e-01,-1.461085149151910602e-02,-1.013835147988000063e-02,-5.158956197381386888e-02,9.641982585723708754e-02,4.214249225098529172e-02,-1.403524255203987825e-01,1.211757549173242965e-01,2.594423226764610430e-02,-2.094694321508943496e-02,1.249406441345934787e-01,-2.762087691628352035e-02,-4.795451877019904496e-02,-2.014838663207314459e-02,-1.181373039057328350e-01,-1.307051226746249739e-01,-1.498318573853702762e-01,-1.596518168567965246e-01,-3.425594949478730222e-02,7.373785966614120058e-02,-2.133053399379503806e-02,-1.033114261865961461e-02,1.979354104611039111e-02,-3.837526066201855240e-02,9.022188106562752108e-02,-5.621355685523952463e-03,-6.187420606579824463e-03,1.146877637391171406e-02,2.143435083968379257e-02,1.082441095349872678e-01,-9.228203061967273080e-02,2.460159297089882860e-02,1.702083499373047972e-03,-9.623006230480767031e-02,4.352455325588947682e-02,1.496412361441652565e-02,3.228103456349042805e-02,5.738708532098130144e-02,2.485875621591495527e-02,9.085101530780653745e-03,-7.949105038351933494e-02,-3.935182072088028865e-02
8.651698900335026698e-02,-1.956194510830659428e-01,-2.242117731443677708e-01,-2.731276244742703585e-01,-6.044271368993649890e-02,-1.628860434117363198e-01,-2.047997259269261627e-02,1.503804295988996342e-01,-3.131285321229454466e-01,-3.417798315728390879e-01,-1.367296902560874439e-01,9.253931468655104270e-03,5.300168563842259407e-03,-1.521878784928399307e-02,-8.896589086478781661e-02,2.371081759491153879e-02,-4.941204625638953574e-02,5.583325563362737665e-01,3.282592100198554741e-01,-2.586020783615753937e-01,1.314211178611218722e-01,4.235481116254265210e-02,1.218389433141864320e-01,-9.319268089579323122e-02,3.144937923613997342e-03,-5.041281639554290317e-01,-2.804513901444321000e-01,-1.459511969678088661e-01,-1.933298670191319762e-02,-8.751815975735748043e-02,-4.325396338781681282e-02,1.658442005502179864e-02,-9.608883418776298369e-02,8.452459766058602331e-02,2.992601127873470088e-02,-1.685966140008151801e-02,-8.567727229985279414e-02,1.059929992444938740e-01,2.662405036506545475e-01,-4.489051152077820628e-02,5.623714548670189634e-02,1.011441063774594501e-01,5.533788717163169030e-02,1.659017946450601910e-01,-5.115944671688660295e-02,-1.670737677364002027e-01,-1.363696328384779999e-01,-2.048102124702917970e-01,-3.735811118824437088e-02,-1.247162757336166550e-01,4.697934670335563584e-02,-1.828727680844951242e-01,-2.564837956168508071e-01,-2.863045644250714061e-01,3.227908030656576610e-01,5.301609781156314538e-01,-3.866100602732827629e-02,1.962055220001720501e-01,8.079095989954127033e-03,-1.177750343869788385e-01,-6.102220712078475912e-02,-1.739354965576531964e-01,-2.426578001607928581e-01,-1.194162984142615319e-01,-1.548458795347966155e-01,-1.587810622433912314e-02,-3.461927406084318315e-02,2.891031367537705288e-02,-1.427416567341773801e-01,-2.899628651911054233e-01,-2.363640713147389105e-01,2.481347102747887001e-01,6.208453445939746684e-01,2.040621305085696391e-01,2.895447382441466710e-01,1.641402877158285312e-01,-9.520894591482167990e-02,-3.097527333292060883e-02,-2.130020362289433145e-01,-1.766789277743368025e-01,-2.104150186772909825e-01,-1.822926642703713851e-01,-7.619777761947028882e-02,-1.923331531146581924e-02,-3.966685351632749656e-02,-6.890144971580354494e-02,-3.210392621410100289e-01,-1.055962156116166506e+00,-2.083696740366269284e-01,-2.863676653717876774e-02,-3.391611535633216046e-01,1.302619850829944692e-01,2.108285867357088950e-01,-1.892198904520360492e-01,-1.829010866611647246e-01,-2.907415682941461577e-01,-1.165982989879000079e-02,-2.294560045381197760e-02,-1.862954934758709047e-01,-3.026197698498373292e-02,-2.605495964005551113e-02,8.604020942308740483e-02,2.885088868070451520e-04,-3.240482324586299590e-01,-7.754175447819420253e-01,-5.177209990049943533e-01,-2.438159916775422542e-01,-1.551898256650844354e-01,-9.178847650560134630e-02,-7.780371728832588540e-02,-5.981357943437728419e-01,-6.434659144933170261e-01,-2.287389939108536441e-01,-1.403562286052381647e-01,-1.915973943592231832e-01,-4.662847843622879018e-02,4.423234136845718284e-02,-9.309102406227921789e-02,7.895109453509867314e-02,4.681113426881170630e-02,-1.172088595855897836e-01,-2.043724308452084804e-01,-3.875457671200279175e-01,-9.035258575405574755e-02,-2.519192174984321575e-01,3.572788681525215226e-01,1.121743165014356391e-01,-1.904465383929073996e-01,-2.979588822495874978e-01,-2.414286154869781376e-01,-2.081631333526607897e-01,-1.012371413104376922e-01,-6.729507045534678655e-02,-1.187646210140816394e-01,1.143829288842826142e-01,3.293172066053362546e-02,4.185707404075595522e-02,-1.390250154014710526e-01,-4.442651914268918034e-01,-1.592694316058916038e-01,3.717512697737934690e-02,-9.215019698155357819e-03,3.711251923898903349e-01,4.959480370196815702e-02,-1.131345025377522295e-01,-2.553547620936079676e-01,-7.896035691352225327e-02,-9.706217750266220301e-02,-1.961416228654850602e-01,-1.772731974030885560e-01,-9.583346845755594257e-02,3.149340331841162660e-02,-1.061646614461196625e-02,-6.625426781113752384e-02,-1.930151336258097705e-01,-4.010159524783246665e-01,-3.857089910444693598e-02,2.162196704008365611e-01,8.631306853196860085e-02,2.517971875975385521e-01,-2.052105427592307574e-01,-3.475896203639896043e-01,-3.578845784285948350e-01,-9.190398306504679593e-02,-6.579339638506366550e-02,-5.493961646106247654e-02,-5.672518991509739594e-02,-1.848953297184141240e-02,-1.066551238954023956e-01,-9.789092811969275776e-02,-2.039644405377420699e-02,-1.191135625357915839e-01,-5.174484901052712749e-01,7.846735037282963343e-02,4.356570504247363473e-01,2.836641287303455217e-01,3.544024861155405937e-01,-2.134511321441509846e-01,-3.442913717783483429e-01,-2.397684843100116314e-01,-1.157874950509876905e-01,-9.285905566533843303e-02,-1.382520489107120776e-01,-5.725284208893319238e-02,5.968211094358591429e-02,2.361362956256121692e-02,7.094318310648770054e-02,-8.804367419799311034e-02,-2.710006982386022334e-01,-1.425876221693780366e+00,-6.016014815448481601e-01,-7.586832467564229299e-02,-4.860417888858601376e-01,-1.146797695379474097e-01,-5.563281429115588539e-01,-5.475767196896426103e-01,-4.271211366119168074e-01,-2.973121250810081828e-01,-6.404986101904382167e-02,-1.147433211486827004e-01,-7.267960994750177761e-02,-5.942985605575698549e-02,-3.853946661692285447e-02,-2.412196315529824275e-02,1.995655852393116714e-01,1.097282382798140526e-01,-1.428047332743759501e+00,-8.968593526684204287e-01,-4.006197432716118167e-01,-6.299139643430031743e-01,-1.444462665120966327e-01,-3.609358827037200124e-01,-3.125802521587844329e-01,-3.746792264421257568e-01,-1.533361589385145995e-01,-2.473931151900581882e-01,-7.674663757673939879e-02,-1.720291410695317658e-01,-2.674400829224109471e-03,-1.102914281298838228e-01,-5.123788309034210675e-02,-8.355674308625485325e-02,-1.936521620532342947e-01,-2.604158245039035480e-01,-1.995077372662560355e-01,-1.025556853039056582e-01,-9.928438264459366058e-02,-1.063024352430480685e-01,-3.945020534121441297e-02,-1.024691355512087898e-01,4.326570575054268508e-02,-3.178402598029105020e-02,6.756378451835388932e-02,4.136336514766771055e-02,3.160291290117562407e-02,3.072233694404393964e-02,-7.699863877296231340e-02,6.832911082941445224e-02,-7.010123422445096314e-03,1.867753958786369517e-02,5.157623139316573971e-03,2.412677601852175613e-02,3.007019690048165148e-02,5.189473990683706600e-02,-5.557811328323719602e-02,-9.840251087785316722e-03,-8.586375853333284847e-02,-7.258864187921945654e-02,-1.834930174460575047e-02,1.195816379657172086e-02,-8.870467184975335331e-03,-6.507635818928565741e-02,-1.833947956556379599e-02,3.162016907971149354e-03,-2.594801325638770514e-02,-7.748041844435196723e-02,3.869953617665396455e-03,6.184112030769014362e-02,8.639825188967814595e-02,3.050133187111093644e-02,8.552589615775822718e-02,-4.540368778150745410e-02,-2.037054856771710470e-02,-2.524792838292307107e-02,-5.613933998466558335e-03,-1.961161297054300409e-02,-6.623959260951088439e-03,-3.367814706692307675e-02,-4.810114171314591736e-02,-6.733640305001839521e-02,-1.214808603869043657e-01,1.690254044208757550e-02,1.624497360474843818e-02,2.959913818247123917e-03,4.656305620184887639e-02,5.633155073861115941e-02,-3.164244553291518242e-02,9.950713050701590415e-03,1.025812216651409911e-02,5.404562890593925945e-02,-6.505231363019411961e-02,1.106840680670030490e-02,-7.138711372606099462e-03,7.017993812955052035e-02,-6.865204982566562586e-02,-1.038233398312123218e-01,-1.640404910819914519e-01,-5.508351771330072949e-02,-7.811096065684962342e-02
-1.283840037714443494e-01,6.258530461575577686e-01,4.536517194571720313e-01,7.926975125926163379e-01,-2.178517015084746877e-01,2.856066539678470129e-01,2.878635493734806872e-01,4.524077114643689224e-01,1.073091632079292423e-01,-6.970881024708010243e-02,-4.806736532464411099e-02,6.562061351586910736e-03,-3.053860215450011212e-02,-4.865668080197565332e-02,3.439901336048400288e-02,-1.970390936342407764e-02,-4.312463609076429977e-02,2.658237370191254278e-01,7.202642849552221005e-01,1.598547252449492861e-01,4.106991661624514456e-01,2.635108952464571552e-01,3.035394547414775324e-01,7.159058481612404767e-01,9.705739567524854783e-01,4.740935801596665722e-02,3.049113480490437955e-01,1.474052555195250191e-01,-1.208851724314076587e-01,-1.645796371481019760e-01,-1.825700051921327616e-01,-9.826981505139183171e-02,-3.941204542814894657e-02,2.707527023402578337e-02,-1.639426721980768720e-01,4.073572833168893625e-01,-4.069099878830791384e-01,-2.556364332357370928e-01,-4.630379432650718469e-02,1.958056176489214872e-01,3.072170258847836122e-01,6.007267631589560120e-01,1.580198248694149044e-01,1.915095666329455215e-01,-4.147266843056188756e-01,-2.011937740962814747e-01,-3.296886225184177399e-01,-5.303344279086304180e-02,-2.061177800451864314e-02,-3.456511533074238529e-02,7.573521111338900325e-02,-1.014906184563341585e+00,1.131370440069101452e-01,-1.062042088772410686e+00,-3.663576560755799627e-01,1.851360000419470173e-02,9.664662522645049714e-02,-2.734654082088918137e-01,4.142865267901456039e-01,-1.100318728388460510e-01,-1.787403446051316624e-01,3.379686082427491023e-01,-1.390655563500164393e-01,-9.254189964379019862e-02,8.505879529607418554e-02,1.782095169946972674e-02,3.797818786978615635e-02,1.061623515134580732e-02,-5.189094442299575505e-01,4.295729583887500924e-01,-7.836469303574326029e-01,-3.082951407977180813e-01,9.394873065963167680e-02,1.689898604806685245e-01,-3.000761915078860032e-01,-5.477944606691136087e-02,-1.729930136185532374e-01,-2.257455120078400712e-01,-2.353827669125903022e-01,-4.021178887108363131e-01,-1.933392947343545720e-01,-1.282753129589250252e-01,-2.388053452692992865e-02,6.758185936345195710e-02,2.505837535068213343e-02,-2.379419357078358943e-01,4.314170477190218400e-01,-2.931970702324940836e-01,-2.468658649537417982e-01,-3.636555939066870025e-01,4.112757609239847678e-02,-4.634260290482797862e-01,-3.301576730539119708e-01,-9.956995887501002285e-01,-9.870781160811312738e-01,-7.755003421397148600e-01,-4.390245261605233429e-01,-1.730579384559981226e-01,-4.818727243799936916e-02,5.870279949029701821e-02,-1.017446385507612787e-02,-3.184270902853777747e-03,-5.872811408839825192e-02,7.823774956290129312e-01,3.345309097823885858e-01,-4.006619932680232088e-01,-1.447928183361652799e-01,-7.895975944833870663e-01,-2.053824592459335130e-01,-2.453214534202232677e-01,-9.710172663539399229e-01,-5.858154127308293768e-01,-6.025258943218657626e-01,-3.130256521176493778e-01,-2.757999974731179527e-01,-1.236457115319633815e-01,-1.833091418834043584e-01,-7.636796309131529958e-02,-1.225684121975847835e-01,1.178069520382619279e-02,1.046642006050574780e+00,4.865637376565076777e-01,3.145469079000453583e-01,8.613949882124280477e-02,-6.772203163380011715e-01,-5.418056156780010069e-01,4.542678807723945361e-02,-4.306438096603252830e-01,3.767519003060769943e-03,-6.207712616815319606e-02,-1.815015707255472344e-01,-1.268436274481567483e-01,1.544118887954532351e-02,1.254510776962839552e-02,3.474677904685198604e-02,-4.785870073573642025e-02,5.505354777373572261e-01,1.052173222916040318e+00,-6.004946154031422928e-02,1.017660200065203802e-01,4.292384753591658303e-02,-1.241315464575283301e-01,-9.812249718867329662e-01,-6.254864077114113963e-01,-6.242557788017863984e-01,-8.831808878953978370e-02,2.670940582129911062e-02,-2.553190903052475758e-01,-1.034855629129972088e-01,-5.498291914184821189e-02,3.318660215156683108e-02,7.922533216945762402e-03,2.087284012185106237e-03,-5.293729900235388808e-02,3.063801926665580266e-01,-3.336516564809381968e-01,-1.473960699175110023e-01,-1.452367603885557079e-01,-3.564107266711489808e-01,-4.415829056264830577e-01,-4.295541869529962975e-01,-1.174191743321782444e-01,1.234910872769298812e-01,8.352131565334551533e-02,-2.677750404841804932e-01,-1.133363308568154371e-01,3.212494171484286953e-02,5.128615858931340893e-02,2.356831695325915452e-02,1.182828384093520674e-01,-7.290483199470877695e-02,3.515153312741800540e-01,-8.028388822167464856e-01,-4.197947238133440950e-01,-2.346878224067053265e-01,3.687864334510852771e-02,1.744273559125311956e-01,-2.739022437065113946e-01,-3.637428724856374140e-01,1.172790815164954786e-01,1.291758816149187090e-02,-3.490340157161257728e-02,1.464417861301997581e-02,1.142933111488084012e-02,4.046289511366214786e-02,-8.697536724404476838e-02,1.618533608571834717e-02,-3.040025588236876519e-01,3.279559723504010815e-01,-1.057461307009717411e+00,-7.151117883049847856e-01,2.061615848848088184e-01,4.691544818102828529e-01,7.310509809822244298e-01,2.452835502069331819e-01,-2.556794624028993490e-01,4.453157311096634929e-01,1.479516411877357940e-01,6.552879979215368855e-02,9.736710556512069570e-02,1.584426595763120948e-01,-3.934331191823745716e-02,7.435757016945803571e-03,-5.584364543594799897e-03,-2.922119536732973970e-03,7.865314002054334397e-01,3.830620563546329599e-02,-2.106733038395763591e-01,-7.295386049444088639e-02,7.092655018664986710e-02,1.322096234939063898e-02,-2.349023254335917965e-01,7.305840829607998521e-02,6.271968553572717653e-01,4.675050234771405688e-01,2.304142923707802881e-01,1.080707125132929075e-01,6.441715272754294785e-02,-9.925395797396640088e-03,-7.770298254368597501e-02,5.846502198965626042e-03,1.359664182495579632e-01,3.652730756893067254e-01,2.481688140870215720e-01,1.898878201641489016e-01,1.977151461706204705e-01,7.542252143688685240e-02,-2.218269893040272500e-01,-1.872208652218341207e-01,2.037515126999598636e-01,4.058924230459727833e-01,9.538118807342639560e-02,-7.965788635422807462e-02,5.090965640204833664e-02,-8.912162567505804711e-02,-4.807686598733242750e-02,2.385537444508922106e-02,-3.318073067851297353e-02,1.201720711443060446e-01,4.001402233151584581e-02,4.356330714300438167e-02,4.400803353732328504e-02,-1.591337026971880939e-02,-2.185570407384198610e-01,-4.470997913076764085e-01,-4.187226639375483117e-01,-2.519610326597876981e-01,-1.235132442091193827e-01,-3.299924684330466929e-01,-4.869571400282902279e-02,3.237847797753563156e-02,-4.848671503977493302e-02,-8.308202549320223285e-02,5.822664411976809229e-02,3.171427088419620510e-02,-4.874532014826863519e-02,1.986808344412441946e-02,-6.187911522059816316e-02,5.122977175314746140e-02,-4.095352782652749574e-02,-2.884694505747349702e-02,-1.331371647777383760e-01,-4.533797619839800008e-01,-4.256891978610641836e-01,-3.815983653018079624e-01,-1.765636630521998374e-01,-1.613580675162637201e-01,-1.064884382364288812e-01,1.169748053694838127e-02,5.080755699190695612e-02,1.094483633704436548e-01,-3.982361440150952725e-02,-1.563662355516362013e-01,-1.724782343664495524e-02,3.869504625398123565e-02,-3.398041932498733347e-02,-2.601128931494104801e-03,4.121614821910205007e-02,-4.971994047761860852e-02,5.999388197635594638e-02,-1.097577113633562834e-01,-1.028106212955477577e-01,-4.327423823780048896e-03,1.109110375293011347e-01,-5.586554702209910878e-02,-6.158480124040619647e-02,-4.258175829900703868e-02,9.605467119449970226e-02,7.502813261782204091e-02
-5.022376498818629242e-01,-2.407748602808096883e-01,-2.341473578395863453e-01,-2.706175787033990865e-01,-3.350538326829113345e-01,-4.491406667964629729e-01,-2.782334792766145704e-01,-2.524975494933360265e-01,-3.954255094706684015e-01,-8.284494217769959590e-02,-8.531616186788930356e-02,-1.124957699435512187e-01,-6.301941949795092368e-02,-1.316368368532153665e-01,-9.103809112057663355e-02,1.963994028334498446e-02,7.540210226209617672e-02,-5.981794114719277689e-01,-3.325209424053716112e-01,-4.120796596296431857e-02,-2.392571996136290680e-01,-1.810532042951163711e-01,-2.174239658665247654e-01,-3.522595613442927598e-01,-2.673282182133818186e-01,-2.144768974902963032e-01,-4.467622719035189705e-01,-2.896731521117960617e-01,3.091628459422842562e-02,-1.198789039793370786e-02,-5.905858026008274468e-03,-1.211154859247847854e-01,-6.237699716161228952e-02,1.661712104225001457e-02,-2.925952878573626070e-01,1.100311251882522823e-01,5.390420267566531365e-01,3.769036019845669605e-01,2.534821604475707701e-01,2.050303058048717590e-03,2.154804813529806462e-01,3.624116489432600563e-01,2.907926805446629515e-01,1.037962997211569136e-02,-2.155981105305484480e-01,-1.254768147328716721e-01,5.589661893565397999e-02,-1.219860862718973177e-01,-5.361245901530310720e-02,-2.634708020944329099e-02,8.257739508371941817e-02,-9.634542596023772110e-02,1.872565106656448597e-01,2.966623719955605587e-01,4.010577475778518419e-01,2.836897952599430339e-01,3.085120141264230953e-01,-2.442364277114204146e-02,5.830164610693543414e-01,4.346716320951194423e-01,1.321058249827701536e-01,-1.103411612670091163e-01,-6.984610981889555203e-02,-6.681495047264320031e-02,-1.018076908528959129e-01,-6.032412676257852685e-02,-1.271333043700570709e-01,2.123506284220864210e-02,5.412318083867972279e-02,-6.354046515329575540e-02,4.339663930855153923e-02,5.184231555029373828e-01,2.691674838844793083e-01,-4.523746860389773680e-03,-3.912284832562755443e-02,3.181026863937151949e-01,2.652854724817990673e-01,1.745541401147329696e-01,-6.830099010974957641e-02,-7.423245295397454258e-02,-1.502789731727713074e-01,-7.116280209960525183e-02,-8.574033178057513527e-02,-9.125637464659006048e-02,-4.642246888180661009e-03,-1.034450131357260161e-01,-7.180109525782273072e-02,7.623162463568496083e-02,4.041529706820144036e-02,-1.026183674374738786e-01,-1.040088898192208788e-01,-2.173815177707486557e-01,3.251530066970079180e-01,-5.498092308863824704e-03,-4.020085103305157670e-01,-1.936844298546892551e-01,-1.671512936716732511e-01,-1.042849702116011162e-01,-1.757123200200825519e-01,-8.259728808141161838e-02,-4.855483338379278785e-02,-6.009302344968878162e-02,-2.328458973175499477e-02,-1.721948859445432412e-01,-4.616993011894250931e-01,-3.343679304509714623e-01,-2.876198081871857437e-01,-1.870508852919074497e-02,-2.290390668769506644e-01,1.994800892178439089e-01,-2.591428404094860971e-01,-4.454542373097032937e-01,-3.570020916951796575e-02,-1.478489193084188136e-01,-5.007606593666919653e-02,-8.980899936343050838e-02,-1.249316753349472842e-01,-1.273859926662614713e-03,1.244682644370338348e-01,1.700886025976750815e-01,-1.081347928492997768e-01,-7.974689752108545804e-01,-5.352995637632782522e-01,-1.218602892938691062e-01,-1.589154847242885138e-01,-4.311722954666590002e-02,-1.565428416953853208e-01,-1.646986842493588787e-01,-9.620235031321283659e-02,4.155223134030925497e-02,-1.516804548512508122e-01,-1.204630283521253981e-01,-6.375808181210503023e-02,-7.757347370805448006e-02,-1.290887609139262926e-01,-1.210705159074065562e-01,8.133760132432947543e-02,-4.292365749099689987e-02,-4.202960828824892636e-01,-4.461820696703391320e-01,-1.457289085836103171e-01,-2.179358658555997641e-01,3.843367088943377974e-02,-1.264492328220524486e-01,-8.111171008250422920e-02,-1.545096994030147053e-01,1.249159234534980706e-01,3.472750921130402131e-03,-2.901651071012092617e-02,-1.649671660376604912e-02,2.960703359199050658e-02,-2.978527011309038686e-03,4.357296066019628045e-02,2.425228152833202866e-01,8.278913720182350111e-02,-3.677051230681070981e-01,-2.237158684506795614e-01,-1.581590416719682868e-01,2.609093625642380787e-01,1.455877969813888506e-01,-1.731923293188117607e-01,-6.555463426847175923e-02,2.142066082372338365e-01,-1.218308731448475429e-01,-7.784472075468161500e-02,-6.741439984985474199e-02,-5.716528484310451352e-02,-1.063612146855766605e-01,-1.448007944022853544e-01,6.083042494692669777e-02,-3.788360817393061908e-02,1.954141533387020527e-02,2.666481436005736505e-01,-9.338427807768899525e-02,1.245324031647239565e-01,-2.694036281161963156e-02,1.827285734422734731e-01,1.957487354769631843e-02,1.590471322689019362e-01,3.452054635758513013e-01,1.037065010681244015e-01,1.871953353471678821e-02,-3.671398291115316945e-03,-4.417801906554506830e-02,-4.712859991091970097e-02,-1.572106628702852563e-03,1.236326633066109210e-01,6.247712570273837862e-01,7.822473559179133895e-01,6.140297541482377941e-01,4.980798230619134515e-01,1.658111078222371804e-01,-1.965428662091362744e-01,-8.583975523443070771e-03,-3.413549709629506435e-01,2.300070869404340079e-02,-2.445596046862431316e-01,3.703669928071564449e-02,-1.205660061830464702e-01,2.573004224795092960e-03,-2.295709120479077006e-02,7.757961703034585432e-02,3.829314359886986513e-02,2.121375102898008513e-02,4.587772413019204354e-01,2.420213089435960530e-01,-1.137783104124993616e-01,-6.161189158141701198e-03,-1.672520649599203157e-02,6.741767286525974893e-03,-1.740101160174182399e-02,-1.835998137329603597e-01,-2.525280720354831643e-01,-3.087725226908626941e-01,-7.878741253939214317e-02,-1.148709091462434551e-01,-2.477088632288050943e-02,5.930499418690825253e-02,-1.332081671272391382e-02,-4.905546528891387148e-02,2.490680069900261598e-02,-1.505747914296019507e-01,-3.583017471794230357e-01,-3.649824366441357659e-01,-2.132716764556606415e-01,-1.800176349533136877e-01,-3.519221070680934038e-01,-4.352140677204472952e-01,-3.216308981504842346e-01,-1.942915279285062635e-01,-2.067892400844180134e-01,-1.432219714464645355e-01,-1.667378499186069618e-01,3.236712392741945138e-02,1.059852511276316300e-01,-3.756033731526842862e-02,-4.716300614956152326e-02,-3.105197684280261092e-02,-5.795117493172550344e-02,-8.091124693403520252e-02,-4.252685383714117917e-02,7.018916774902088720e-03,-2.524075085781269517e-02,-3.852575106575292785e-01,-4.965822215040827103e-01,-3.245575209196769895e-01,-5.961558537615899850e-02,-2.046962211076787386e-01,-1.771250483932342371e-02,1.903858524249004910e-02,1.307854601103647929e-01,7.773779676847636724e-03,5.652458849466737711e-02,1.947829984337315357e-02,-2.484155517876372038e-02,3.799466162225167976e-02,-1.558715274119032608e-02,6.210825969576426464e-02,-6.534306123597197202e-02,-1.863008551314563124e-02,2.734848388259784793e-03,-2.936990450462856339e-01,-2.332552789364195078e-01,-2.608808226867161406e-01,-2.863105763334670151e-01,2.724043388419613437e-02,3.641848529250051036e-02,-1.218579594354175615e-02,4.969526835735342540e-02,1.802457448748564714e-02,-2.229846505871244111e-02,-5.678919360931568294e-02,6.971548627571223788e-02,3.762290263045239141e-02,4.868316404088367244e-02,-5.336633967780127913e-02,8.720722474308667191e-03,1.427609051548605051e-03,-1.021577797949583671e-01,-8.731474346751698888e-04,-5.514244225528956017e-02,-5.242525360630134745e-02,-7.346960317002632079e-03,1.190238521773072204e-02,-7.719430298431681492e-02,-4.692818790726309419e-02,-4.314459865490243018e-02,-2.914436246354012300e-02,-6.008769190557762888e-03
-7.208657690886429922e-03,3.355754422353420807e-01,-1.702200898368467497e-01,9.137718059710775442e-02,-1.163351113506208429e-01,5.831652655132815166e-01,-5.705016596875064905e-02,-2.015798979897078791e-01,-6.960087993014689722e-01,-3.606531000156151245e-01,-3.014445841741787979e-01,3.645814695923694365e-02,6.966284467038046102e-02,5.974433308432734041e-02,3.964275007055548250e-02,5.273157619020677617e-02,-6.577403878545483307e-02,1.868085860858714198e-01,5.779552103205835012e-01,-2.409232320269515670e-01,4.023454683090594286e-01,4.424414561411059710e-01,5.734832306418722325e-01,1.298264041739894681e-01,5.898092181894913633e-02,-5.443045717493163460e-01,-6.243468850946986004e-01,-4.160704927449205837e-01,8.891127866266627933e-02,2.279094799737045596e-01,8.058390231885070865e-02,1.298927187800854033e-01,2.225333202714364356e-01,-9.097757977955457653e-03,-8.266668959140689721e-02,2.273713352077943450e-01,-4.607637568982544396e-01,-3.703565139129079697e-01,1.146395726998467313e-01,2.879152739675128747e-01,4.339949741507738157e-01,2.143050535593022943e-01,-1.016858244347587925e-01,-5.618066516801527577e-01,-3.464375829390019534e-01,-9.467477284649049307e-02,1.306761628220301508e-01,8.768809451962722434e-02,1.652750949297157601e-01,7.884658769453556371e-02,-6.336119515059433771e-02,-5.057908079542756674e-01,2.989431990031602565e-02,-1.929535071224789955e-01,-1.656951345008235710e-01,9.058045061906844220e-02,2.042383938806769106e-01,9.802544835329903006e-02,2.612772183521258063e-01,3.630205222023645817e-01,4.772020029072484015e-01,2.789531157948396123e-01,-1.978274270561041492e-01,1.654373027406018937e-01,1.311508230467795522e-01,5.628203339934507998e-02,-9.145356672193297176e-02,-9.556246531786899423e-02,-1.040977750710336130e-03,1.745010595522165919e-01,-1.662800098912336766e-01,-6.531741044247088568e-02,-2.686799097780659951e-01,-2.658917949917706247e-01,-3.781499486386943887e-02,1.254325906387097622e-01,-7.629765500369219307e-03,8.476909934109924660e-02,-3.006063963950887374e-01,-4.574334736089248343e-01,2.654789909004454662e-01,3.111849034747793952e-01,1.706830801128284003e-02,-1.086548779324353620e-01,1.694699239546951577e-02,-5.455233967803919670e-01,1.571255087324956723e-01,-6.456288007153201391e-01,-8.097192053000563938e-02,9.613929236767411457e-02,-6.677455245439860576e-01,-5.559798614439648290e-01,-2.783419942580490081e-01,-1.954385238881181097e-01,-1.069726427232627203e-01,-5.119626573378779355e-01,-2.540964380814751955e-01,7.210173087976851081e-02,1.879105521469307261e-01,-5.459372352179563820e-02,-1.217776062770723478e-01,4.965882686402524337e-02,-7.080953768884898913e-01,-3.229321439345574918e-01,4.063833628732578251e-01,3.031934403321669483e-03,8.721234303351931005e-02,-8.690699044095783199e-01,-6.207432544331865643e-01,-2.890656928087406707e-01,-2.237347282024445549e-01,-1.229763329837736535e-01,-2.846770397011662013e-01,-2.025442536145460326e-01,6.314522401244897221e-02,1.485932295933238834e-01,-5.001609149905951457e-02,-4.651153910267034897e-02,-7.328601222383558655e-02,-7.596703414549087485e-01,-3.881873193165805147e-01,3.435772603101201472e-01,3.155263431617129077e-01,-1.184932805288929220e-01,-7.729288065914986794e-02,7.382742439533662715e-01,6.144345687050233318e-01,5.848328257382467976e-01,6.863908511563506787e-01,2.400667802712257159e-01,7.158716944005398541e-02,2.813993341497384448e-01,2.326892295042187753e-01,-3.174502328941624513e-02,3.431343834904222040e-02,1.513186725580387484e-02,-6.990771965682802680e-01,-4.995801104332643905e-01,-3.811644942149158832e-01,-8.118101206296873817e-02,-3.668814050885041422e-01,3.344498371784843105e-01,4.492166489705884391e-01,4.965659734884073639e-01,5.426535262976096563e-01,5.198688245220890458e-01,1.789441161122980739e-01,1.240108664410793787e-01,1.849627768559969632e-01,1.103401923835964221e-01,-4.429346625326966227e-03,-2.593925636876774632e-02,-1.155634560378967501e-01,-4.161059070497575840e-01,-1.383651665896095395e-01,-5.819387213804870784e-01,-5.498673010874867151e-01,-2.453630846435003732e-01,6.990694698427022402e-01,6.364018044699694121e-01,3.209827806750837897e-01,4.782755938163753551e-01,3.254054717746232006e-01,5.425457367411499199e-01,3.000417281675173409e-01,4.598766066394530672e-01,-4.908783678076971552e-02,8.736583528314804947e-02,-2.496893192964429534e-02,-6.161518326751355690e-02,-4.796639996044342324e-01,-1.881976584536825814e-01,-4.787227305719411463e-01,-1.759706746700018531e-01,9.666954563285408419e-02,7.214478347061726859e-01,7.770437256665613246e-01,-3.719203276194125996e-02,-7.899697829506452038e-03,-3.102981200552664687e-01,-8.540608681106466593e-02,1.769437195652462935e-01,3.093907373083465973e-01,6.803802982112318321e-02,-1.294430860995440802e-01,9.723090056048827590e-02,4.082086508392248486e-02,-4.341255105597447983e-01,-6.616271773277027091e-02,-1.622824541447165092e-01,9.270818219383838987e-02,8.806920866112109003e-01,6.172083182160416071e-01,2.283643895605490803e-01,-1.276194437000847948e-01,-7.613911004031642671e-01,5.979978154015337666e-02,-2.859129838754022601e-01,6.366086711101075213e-02,3.749422084921776865e-01,4.587363406565944657e-02,4.721705422776896477e-02,-3.734633955237545017e-02,1.160411457679502850e-01,-2.215158031536096361e-01,-2.550779155811380705e-01,5.743493946005910622e-02,-1.083679378192843462e-01,5.573822088143903786e-01,4.965516694067098613e-01,3.506955017617457981e-01,1.248198460801469151e-01,-4.908909262564581377e-01,1.027337322701118716e-01,1.198105386886968021e-01,8.332988353872515519e-02,1.385255163674472823e-01,7.995883524649376184e-02,9.623634815853533697e-02,-2.055788717710527180e-02,-3.352749412869956026e-03,1.367566048665556921e-01,-1.455961660573876215e-01,-2.856668246186000459e-01,-1.989062814312426153e-01,-7.424933472901823484e-02,3.272218791322401010e-01,4.384513159253370373e-01,-8.877198498921289038e-02,-4.534053207371308708e-02,-1.162542002457872675e-01,8.742889569747686052e-02,-7.242317929648824093e-02,3.183356088040258103e-02,-9.838099560706774216e-02,2.175386036986709515e-02,-8.651484850115263858e-03,3.133789195993387511e-02,-7.204523137558555002e-02,2.355758454507884264e-02,-1.079831233071701507e-01,-3.246511251413410071e-02,-2.166937663135892062e-02,5.280288245846368467e-01,7.537033735875717788e-01,6.985431915989875895e-01,2.299317630695394965e-01,3.927202010328032511e-01,1.414402028449661675e-01,5.065839102925709381e-02,9.180797272517556354e-03,-5.721990607550002210e-03,1.565070445227800117e-02,-2.421153228833874613e-02,2.704323493003159967e-02,-6.608467030015053624e-03,4.894883085617222906e-02,2.724343988799140734e-02,9.464470612398068194e-02,-7.856452816820667928e-02,7.008141393404956898e-02,4.683596164502422665e-01,6.593070091786900067e-01,5.841320313231069816e-01,7.181120524584456710e-01,2.138261795809702770e-01,6.357330659839383058e-02,-4.152612653134536008e-02,-2.509276853084330128e-02,-1.626100175133599335e-01,8.117249578989865766e-02,8.550307962828750108e-02,2.713063143061649959e-02,7.556743250776380705e-02,1.150770310599382451e-01,2.202337269724690891e-03,-1.927223486092827232e-02,2.033950239537726801e-02,1.830407011579908150e-01,-1.254130980128569973e-02,4.888399995702187584e-02,1.398655174233721654e-01,-1.800962603611192328e-02,3.027840097401235039e-02,4.870512604444749566e-02,-1.042981254503899669e-01,6.875836272872620780e-02,-5.056844853538924184e-02,8.690286531452066920e-02
-1.155900402044057057e-01,-4.440737662898301408e-01,-3.398086393038509123e-01,-3.727337643141474532e-01,2.399244586747356078e-01,7.456498166165058394e-02,5.922126576986239815e-02,-3.346000991288775039e-01,4.095556580833795840e-02,6.206259962811111475e-02,2.942891830530289590e-02,3.373742262386113244e-02,1.614316519314205889e-01,6.468061463672622469e-02,7.923052075666749128e-02,-3.224698923632575431e-02,6.946055084668288637e-02,-5.152668492103587017e-01,-4.705729555520393181e-01,-3.314212637476034451e-01,-1.055038819897944624e-01,-3.407884454696695209e-01,1.196293688011215196e-02,-2.410319715758081627e-01,-3.264493478140083615e-01,3.068714069492796126e-01,-3.531998687661355718e-02,-8.473154698602010371e-02,7.214711661061382064e-02,1.839032812539338479e-01,1.250856073858392647e-01,1.232286023477501269e-01,-1.309857529899184359e-01,-8.385954717844855411e-02,-6.238721085948977230e-01,-1.148378686273304750e-01,-1.327733945084803302e-01,5.603771406249009601e-01,-2.102190447997832334e-01,-1.065284199247892860e-01,1.386884164558685462e-02,4.171632819021083294e-01,7.285828476971158985e-01,3.350712599106510647e-01,-1.535061844103916863e-02,-1.106245959635379916e-01,1.841603683754125809e-01,1.899549991728045548e-02,7.303973645758002342e-02,3.740586143956275977e-02,-8.942386971997770551e-02,-2.958604440848029427e-01,-4.061101779016755564e-02,-1.012490743314982920e-02,1.483431706203532097e-01,5.748656487400483073e-02,2.771072958836776623e-01,4.511750698647428170e-01,1.017934127425415280e-01,2.560570624496444903e-01,1.332532634428371943e-01,1.387966105641045417e-02,4.202035829941803968e-02,6.110138107617352210e-02,1.820274598642299957e-01,9.980196971300302200e-02,1.539517675876322378e-01,1.185225359381628096e-02,1.307685558769080547e-01,-4.783756974525540939e-02,2.126059055908607331e-01,9.273503779932384949e-02,1.782229686494226847e-02,5.987817589107368166e-01,4.973893030513731328e-01,1.329917011544519412e-01,-3.723456773516930496e-01,-4.984669093044734045e-01,-1.377005468154624823e-01,-2.189869723142569002e-01,2.165135878971210792e-01,2.188712942722766813e-02,-3.048438320323070341e-02,-1.193263986871120029e-02,8.392698966185296872e-02,-6.003636371496191143e-02,-2.344138078821322302e-01,1.081375454272576059e-01,-9.190797983229509471e-02,3.754425701760386591e-01,6.202993953547421002e-01,4.840693452798991436e-01,-1.624695368629033021e-01,-2.099375985052464311e-01,-2.216691363988771701e-01,3.666399527431544320e-02,1.774321197445455009e-02,2.005937092571278280e-01,1.614569901248114059e-01,5.619734583824693985e-02,-3.145706359011706671e-02,1.652245245013742383e-02,-1.260982483352484362e-01,-4.571733533648665304e-01,-4.706648215872906715e-01,-4.771392602545841966e-01,-2.177537149551637130e-01,5.773732004957357056e-01,1.338458905118274922e-01,-5.404617729522611658e-01,-2.716752514576755151e-01,-1.825649812298281160e-01,1.742561039618439889e-01,8.944725689345153774e-02,1.573007018326909867e-01,-4.588107095186151618e-03,-1.781793511362956802e-03,-7.761913166139558506e-02,-2.173202247247984359e-02,-1.248653497503959126e-01,-5.978348715743104780e-01,-6.734348607542198772e-01,-5.407998135100520187e-01,-4.425046464242352040e-01,5.575150712561501853e-01,7.762460430662897481e-01,2.607385019794704606e-01,6.011145070978336502e-01,5.707201724939515719e-01,5.739348350081656669e-01,3.931072563555033650e-01,2.581038636264633146e-01,1.242437127993089446e-01,6.384297915532767369e-03,5.727593316592656525e-02,3.336568772877596123e-02,-5.805103724285345934e-02,-4.908285167286920991e-01,-2.989312174056507065e-01,-2.186422004237341954e-01,-2.649638752296024080e-01,4.002918398900841557e-01,7.324886991957054727e-01,3.036500024817636589e-01,5.784772602622803017e-01,8.183138591929165484e-01,5.651151394481248591e-01,5.076671675247521609e-01,3.132205244867866112e-01,1.294777853611232543e-01,-3.514982046397943649e-02,-1.519212948166958344e-01,1.557279573850099408e-01,4.690086313634141413e-01,-4.340514906160278935e-02,6.342493316308721665e-03,2.195209801104414452e-02,-2.457021164116249545e-01,5.300856222922122329e-01,3.851716864491258052e-01,-1.527056256920829302e-01,1.713915347001283007e-01,1.793664839845573733e-01,-9.275036397567373858e-02,2.982604950086938933e-01,1.838112628685669436e-01,8.380926816618267106e-02,-6.703341665710048358e-02,1.123909521050390631e-01,-4.509564235112002023e-02,1.970184695446567102e-01,2.693163150333133596e-02,3.191015618126895048e-01,-2.300916124653384076e-01,-3.417305559307501350e-01,-8.871474001237781432e-03,1.700155060344848285e-02,-3.703558195854075308e-01,-1.036818140070486140e-03,3.324561994019957500e-02,2.469068109189134497e-01,3.064304961900558566e-01,2.842354082899156698e-01,7.659324427081248832e-02,2.702540668304505289e-02,1.204001278334893149e-01,6.784747329573433128e-02,8.056260504543782952e-02,1.764572529017460201e-01,3.942079925687979602e-01,2.281415443469386392e-02,-1.933327730363443991e-02,-3.369938200900998160e-01,-3.800701324599592423e-01,-1.763827626597521195e-02,2.152829735187938853e-01,-2.522909144081816879e-02,1.168513659123135567e-01,2.803472112044734788e-01,2.832163645848548295e-01,8.939116375855808705e-02,1.251121142450564161e-01,5.562056430998398721e-02,-1.641468145553740335e-02,7.092238483882927491e-02,-3.764653875307313324e-01,-2.770759785230119676e-01,-1.027478023548030334e-01,1.006778675048141010e-02,-8.686027251617466083e-02,2.937777217564089272e-01,2.629222478011266073e-01,1.978844979213384148e-01,3.276623286995758444e-02,1.943865565459145239e-01,3.404415537437062156e-01,1.493068130234821711e-01,-5.383279272215491656e-02,-8.773115638988561449e-02,-1.188367097958443683e-02,1.389838529608996252e-02,-2.268964176911534569e-01,-3.989653920227121398e-01,-2.515057461733958277e-01,-7.757005110293588301e-02,-3.214411973547835755e-02,-1.670337985824936478e-01,-1.690173557400043713e-01,-1.050115561556863031e-01,-1.435152079067151532e-01,-1.826812428714041578e-02,-1.270297658888518708e-05,7.033818965749001617e-02,1.269680767390589105e-01,8.009283017247226244e-02,-6.262944626530228542e-02,8.730939403615399497e-02,-1.976026741104520631e-02,-8.182776945333750107e-02,-1.342009526959962555e-02,-9.430240467446825148e-02,4.921060789238578675e-03,-1.051023662778131362e-01,-3.222348540823734564e-01,-3.230103115202532793e-01,-3.564535724824048901e-01,-1.282933618106920914e-01,-2.441211455814236708e-01,2.151712021715095416e-02,2.311532691997382483e-02,-4.636784677881120031e-02,-2.859244973200781442e-02,3.522779627666278168e-02,6.929121215362028796e-02,-5.995264338568047358e-02,2.234831336469877278e-02,6.159820276295885355e-02,3.621968828955516445e-02,5.635190735539191004e-02,7.667208196255612465e-03,-6.243452765811015326e-02,-2.296526298531840204e-01,-2.387729623021668524e-01,-2.699078848978644918e-01,-3.122107558303268693e-01,-1.003385865209720229e-01,-1.379243042810286701e-01,4.265587669419696609e-02,2.281616968436893378e-02,1.111172969524535925e-01,9.144685871181447434e-02,8.696846893983144200e-02,1.268293555376939254e-02,3.375134831869597979e-02,-2.903597527527531502e-02,4.065453274290051211e-02,-1.248343700843305287e-01,3.910470669939521832e-02,1.105595792955773628e-02,-6.062952524906718710e-02,-7.064343609462489515e-02,-1.614253721798449698e-02,-8.443600209977909776e-02,1.964696366737805899e-02,-9.066578504044932318e-02,6.230586743371549843e-03,-3.015479754473207943e-02,-1.782264979445833883e-02,3.654885027347973964e-02
1.249520606352912816e-01,5.289334288517261173e-02,1.789004687456778597e-01,-4.410080531484012467e-01,-3.992738371063735414e-01,-3.141391056316526070e-02,-2.646565725827725313e-01,-7.769628313463521341e-01,-4.212116578121332666e-01,-1.104234406224465920e-01,9.092280077719037956e-02,1.230154534661038329e-01,6.745811118586794719e-02,-1.619668956024445175e-02,-3.634852990882451312e-02,-5.553794085262277885e-02,8.216119000792133920e-02,4.458233052300946131e-01,4.201611654936410201e-01,-4.445037730565237766e-02,-2.839677668966987256e-01,-1.886622468682757070e-01,-2.616835759327744704e-01,-4.189964306114106751e-01,-9.405601701070330778e-01,-2.067152740683339263e-01,-4.220926372691828354e-01,-2.853058660075181163e-01,3.243573770311661275e-02,9.293237214181333805e-02,-8.467237211985809836e-03,-1.121215540157831370e-01,-1.425825048936462391e-01,6.663965444829290929e-02,-3.491732145270988741e-01,7.384089856141466679e-02,3.184891235327481224e-02,-8.343215391761515942e-02,1.546590802918041685e-01,-3.737613621053188506e-01,-5.095262109760418934e-01,-4.364671753640397278e-01,-1.367111888570955378e-02,-1.133440378870854970e-01,-1.282455849708716011e-01,5.583324388686194961e-02,1.612012282155992626e-01,1.076076090181656009e-03,-1.484592786477957060e-01,-4.722647350720329817e-02,-1.224601858739134998e-02,-5.153267857460408496e-01,9.758827099730098265e-02,-1.539621761929458321e-01,1.549544896405155303e-01,2.425620892846746257e-01,-2.871536927433840924e-01,-5.451790157191546138e-01,-5.318066086457247099e-01,2.751203588700451910e-03,-3.488543572380776170e-01,3.616649278552298841e-02,-2.711122930430897443e-02,1.063362941761712560e-01,1.203649853953275006e-01,-2.142984452613695967e-01,-8.586497638540999816e-03,4.161845253321594384e-02,-8.468174750911791615e-02,-7.203231884207458857e-02,7.677157213173248229e-02,-5.948517621693436702e-02,2.219280879352670405e-02,-2.139893290964884065e-01,-4.664781092428277876e-01,6.867065643795099150e-02,1.870106472604511627e-01,-5.725932525624412017e-01,-8.552184316311098322e-02,1.027254405563213929e-02,3.677356212800944602e-02,-1.146597775363599886e-01,-2.309256447755399788e-01,3.927113790522743925e-02,1.035265436140287432e-01,1.538718767528372000e-01,-3.954181463438274924e-02,-1.779881783062197687e-01,3.323683496802434800e-02,1.769178892210897941e-02,-6.134388303190199121e-01,-8.933617248728193960e-01,3.160886927093235765e-02,4.417152627244201879e-01,1.576414603193857233e-01,3.867400106966990547e-01,3.763846890937062595e-01,1.196913022371812740e-01,-8.965795267835025006e-02,-3.635277975460411704e-02,4.647561726839309626e-02,-4.255442440838238388e-02,2.753843386210048094e-01,2.077440433382809482e-01,9.894892820429112001e-01,6.046176741304944979e-01,2.186951329948374212e-01,-4.781670203582621403e-01,-5.580227974428372262e-01,-1.785583834444646467e-01,6.656429515514794559e-01,2.299425579592959124e-01,2.200849954794981134e-01,2.751145009388711316e-01,9.691108554479418991e-02,-6.054481277734506672e-02,5.663768907468095387e-02,3.150923297539849621e-02,-4.967234045547595789e-02,2.448861043232591073e-01,3.669139669284718352e-01,7.191409962177414128e-01,4.204189770820019878e-01,3.659211050514976082e-01,-7.241424782540774041e-01,-4.792217263637878477e-01,-8.936339117265795773e-02,1.013611638851141805e+00,1.112798093261050614e+00,7.334731120795903170e-01,5.425089993605084482e-01,1.769573791139834595e-01,-1.013617142893206424e-01,4.726900673489515398e-02,-3.294405929456682702e-02,-1.072090644848522822e-03,3.709892811676113178e-02,2.482389502838519835e-01,-1.102908450888080288e-01,4.453267737041344265e-01,2.434050034114522421e-01,-1.640241159662090276e-01,-2.600476648567743299e-01,-1.155645252902060514e-02,1.234133834482166403e+00,1.055308922095165469e+00,5.190385026177228855e-01,3.293947186414287742e-01,5.675870595631951621e-02,4.647935777314414485e-02,-5.450490572965710490e-02,1.302144377425781541e-01,2.336146512219447122e-02,-5.361300075424162148e-02,8.407996688503699412e-02,3.869130172471739182e-01,2.062361130304541865e-04,1.630418023809252770e-01,-1.308267544249969994e-01,-5.666518069039985783e-02,2.745868566900123292e-02,1.045057740025590931e+00,4.808671914556676974e-01,6.200890979181978430e-02,-5.689992683415388136e-02,-2.932901730645989455e-02,7.504487498311029903e-02,-1.370001681379780234e-02,1.054071226433912628e-01,-5.073712472503036364e-02,-3.481085221971972343e-01,4.634833015308317816e-02,-1.240543905539157055e-01,-2.561028538118035880e-01,-1.558158736179573456e-01,5.955936162866601324e-02,2.136344989511052561e-01,2.021358260243677485e-01,6.803575835650136350e-01,1.103947530910095731e-01,6.353707587107482180e-02,-8.545090361979300331e-02,-1.346370318205610261e-01,-1.321707992720900712e-02,2.128805016285454862e-02,5.348392284489248555e-02,-3.484599192211763896e-02,-7.329611881457956946e-01,-4.526490397603027405e-01,-1.686583876519672787e+00,-7.604099043716704420e-01,-2.303882684755311216e-01,-4.273922360017948230e-01,6.597331711657396236e-02,3.716061663598498876e-01,6.517833302197572065e-01,1.678429951901763348e-02,-1.209293115769161445e-02,-1.211215114705320589e-01,-2.670772848247884856e-01,-1.484351085719351482e-02,-1.303143853797058827e-01,1.765117921441069493e-01,2.347446388631083819e-02,-1.880329381685303114e-01,1.030024005100458190e-01,-6.836361439145558494e-01,-4.629191781041983589e-01,-5.047679030113130239e-01,-4.963161591193089306e-01,-2.729595107956782063e-01,1.594246348169914840e-01,2.429148978231882028e-01,3.339509887952653022e-01,2.843382687676223597e-01,-1.392010944079948020e-01,-5.411695427335408426e-02,2.786168942167862456e-02,3.889728222201482843e-02,2.602525243971526292e-02,-6.777741839657173972e-02,6.601565919488414091e-02,-2.568236961265410803e-02,-2.643858474531516345e-01,-7.545805132939001347e-02,-1.319328069427596339e-01,-4.401845013458008937e-01,-5.969347202554883269e-01,-2.480301117152756696e-01,-1.016643644732824481e-02,2.100794059802277847e-01,1.302080619518434790e-01,-9.535516755704427638e-02,3.115017954742421366e-02,-7.749330039443506901e-02,-6.508662548030380579e-02,-9.183651096186563889e-02,-2.855963259203192495e-02,-9.745828034706052051e-03,3.424452760966562037e-02,-5.332378221106864880e-02,-9.939853991654085466e-03,-9.796943068028149751e-03,-3.318684333340183312e-01,-3.633249681734280756e-01,-4.691893889041882648e-01,-1.245920723844455846e-01,-1.471458962368557555e-01,-9.151362977848331859e-02,-9.611264397901031487e-02,-3.822672670170886716e-02,-2.070435413920696313e-02,-8.143812071820021037e-02,-1.291578911761644133e-02,5.396202615145882266e-03,2.710581124469881725e-02,-7.762495371259835186e-02,4.193870614316153218e-03,-2.606569383117606636e-02,-4.998741303095653732e-02,-6.303494124093879380e-02,-2.106661443061030592e-01,-3.604266502002870243e-01,-3.953235209074383305e-01,-3.278142386990207102e-01,-1.136632930643294154e-01,-5.492351804573741836e-02,3.515973088700695415e-02,5.140509432468205048e-02,3.648810176251421344e-02,2.474913939135164886e-02,1.922874942724609737e-01,-5.327914321485111709e-02,-8.838125574158238462e-02,5.682736149615319476e-02,2.043733217343025529e-02,2.955862001350276907e-02,-7.213219319200526135e-03,-4.942540602151685586e-02,-4.387138814179263741e-02,1.073438613681965137e-01,-5.713431493919640149e-03,-2.159912274470039001e-02,1.970618308618135583e-02,-7.108575673149265806e-02,8.130468786106601758e-03,-1.062453630748487997e-02,-2.160270188133106908e-02,5.971444896105621708e-02
-1.152075121281326969e-02,1.602039830581890589e-01,2.681717136960871661e-01,6.695460946400403346e-01,6.939966851162781003e-01,7.052480940895589079e-01,8.454131470708858842e-01,1.458406171370022764e-01,-5.208782895345596270e-02,-1.111229168770019697e-03,1.650060068242492628e-01,-5.735534989116469057e-02,-6.193959414793372142e-02,-5.932599438947386977e-02,-1.262012004885649796e-01,1.282023770399295590e-02,-6.119541988960732620e-02,6.965077040612367709e-02,2.814613781572198326e-01,4.118405650725012190e-01,9.346866485129255997e-01,8.429172001145621707e-01,6.534852369520022242e-01,4.983574017184325133e-01,2.926821174618396970e-01,1.557706382896474617e-02,-8.626323644436595384e-02,1.754699641700836754e-01,5.055656508361682129e-03,-1.156277648466353947e-01,-3.286103731209322198e-02,-1.649348449143615558e-01,-1.063438326950168211e-01,-3.827925224935588289e-02,-1.213168684286216048e-01,9.541698870923125131e-02,-1.987314218210260164e-01,3.864060070370856081e-02,-1.532577218641615995e-02,-1.494483837071441112e-01,-2.876896625005157526e-01,2.681734291980801821e-01,-1.398157758751463753e-01,3.037645334911501932e-02,1.790539107754737791e-01,8.400943827292366162e-02,-2.681273010486523792e-02,4.930329204991380082e-02,-1.220495566656233516e-01,-3.367637887869583818e-02,-8.786542302653846045e-03,-7.592754891737417411e-02,2.453098860746154991e-02,-2.249719009120531854e-01,-1.462324914816208743e-01,-1.100663027652718090e-01,-2.778001763541125824e-01,-3.336474261001961539e-01,1.609912361705197192e-01,2.834791860167026334e-01,1.021738989121890456e-01,1.048609688921461475e-01,1.708988708722031791e-01,4.795826641485587127e-02,-1.036634504231199461e-01,5.693219635573138621e-02,-6.596594824236391708e-02,-1.073372130065562702e-01,-8.012690122593522923e-02,-7.954728034082343691e-02,-3.228214091505917649e-01,-3.277814497286449247e-01,-6.742767674359413654e-02,-1.486161260819661434e-01,-4.547875485841781223e-02,4.299097213539636031e-01,4.218639535605465118e-01,3.520774818366271819e-01,2.074593062694576051e-01,1.050942950757841610e-01,6.723504508311306527e-02,-1.329915948939792147e-01,-1.483885038290102057e-02,-6.171186217802358820e-02,6.153205466465015705e-02,-2.247861284527924164e-01,-9.008915052967665649e-02,-4.666189443401329295e-02,3.945953161775751089e-02,1.382628357859481960e-01,1.186882660059678657e-02,-2.238905109618096467e-01,-3.953603969767860438e-02,-3.103571025761494573e-01,5.111182372169555121e-02,7.563988313677130759e-02,-8.129439793584995050e-03,5.593244546080451511e-03,-8.650809420131030936e-02,-1.033774889126391899e-01,-4.029728402306274188e-02,5.286991204390288981e-03,-2.377262230912939589e-01,-8.116145730324837715e-02,-1.430477810118044868e-01,-6.370872377389510954e-02,5.402505141903679066e-03,3.677845341743691265e-01,-8.347792851663697611e-02,1.345389827829683860e-01,-1.522774325987142907e-01,-8.712318900890249351e-02,-8.418135738519154365e-02,2.971309933332231742e-02,-6.758809277371530255e-02,-3.954295444293192546e-02,-3.038965201947648950e-02,-1.196487954677048771e-02,5.545732090890162849e-03,6.689977246577549774e-02,-1.120187689583662938e-01,-8.552133245920094939e-01,-4.602742516535985318e-01,-1.786419445299137210e-01,3.546518702879001284e-01,2.674855978044768934e-01,3.671841704226976866e-01,-1.582386242041306235e-01,-1.568298132005204459e-01,2.914253686744467525e-02,-9.947923073599308774e-02,-6.104854023170417504e-02,-1.466203365265960623e-01,-8.676459687292804868e-02,-4.541264730633554070e-02,-2.519663081288522552e-02,-3.424359122919471976e-01,-2.670860165855622470e-01,-3.818473113665794560e-01,-3.483476684294104508e-01,-2.900076514477638590e-01,-6.928720743020849726e-02,5.184965719261549477e-01,5.948753193496224556e-01,2.782647318547040172e-01,4.409257472945202205e-02,-9.866303906155357573e-02,-2.069348386632217374e-01,-1.211987730112281114e-01,-8.955830386701425783e-02,-2.789504821137978735e-02,7.847578418839767922e-02,1.546270280638021265e-02,-2.178318133913211274e-01,-1.535703400108274774e-01,-2.075220063138429327e-01,-2.420632714959729814e-01,-1.307508719424693988e-01,-5.058243873831624882e-02,4.979713457667581666e-01,5.737852013101871762e-01,3.741351467108941509e-01,9.018425063824422883e-02,-3.850424823440476430e-02,-2.189569230548966405e-01,-1.458881613820793011e-01,-1.206769489083572705e-01,1.069901831398636372e-01,-3.863749665312121023e-03,-6.624274928363436954e-02,-3.196328060844515484e-01,-1.780539231632097819e-01,-4.421062879449237371e-01,-3.093133957146925184e-01,-1.874138343396893058e-01,2.990176036938307913e-01,4.778901181743954174e-01,8.030511413952811095e-01,3.621183861889353817e-01,1.461007535331768636e-01,-4.346514763026889175e-03,-1.104108550148955870e-01,-1.057367336755050818e-01,4.365501765291292940e-02,1.053676158963312570e-01,-6.100576815204367120e-02,3.223636708433583881e-02,-2.141310753201401129e-01,-6.615930352545525139e-02,-2.729479849681437642e-01,1.497509104102084376e-01,2.852532914419031451e-01,6.159273754110241583e-01,1.021778610720185831e+00,8.379685329618451473e-01,2.333906101642710673e-01,2.074093653423524086e-01,1.649647199667340081e-01,-1.591078461150591539e-01,-2.122366130914745685e-01,6.331185085126267431e-02,-3.720169690582289523e-02,8.473972116544190025e-02,-7.400341884333434817e-02,-7.363859373018938163e-03,-2.145005251297588122e-01,-1.118003717830107491e-01,3.622703843932947310e-01,4.508395315097489808e-01,4.855946960505953536e-01,6.915873392134760378e-01,8.310465997048178677e-01,1.849559748745100984e-01,4.388867890556800294e-02,9.398844913611485719e-02,-6.269180964397665090e-02,-1.768235235583100473e-01,-3.110915356281863942e-02,-4.284940983776874129e-02,1.381666934030750457e-02,-3.678342085870622835e-02,7.503070681480873694e-02,-1.369199532613892545e-01,-4.586689355760577291e-02,4.246147376715521393e-02,1.257669867978575273e-01,8.011062296039082875e-02,2.360308402668351013e-01,8.668291826327305383e-02,4.731562527136488894e-02,-9.156753471596350280e-02,-7.963732977944838753e-02,1.269114592309942939e-02,-2.834801817482118791e-02,-1.536366396394089895e-02,-3.428977418959548024e-02,-7.606976163574637184e-02,-2.376174088829409795e-02,-6.086318594001222798e-02,6.575193527204860333e-02,1.210108945616547409e-02,-4.775477586475680020e-02,9.259626520584386677e-02,5.317478380263975651e-02,2.600190078022227361e-02,9.888982380050580223e-02,1.228802278690286909e-01,2.360524251468529636e-02,1.126347591601486531e-03,4.237846853229188665e-02,-9.236380333124993847e-02,-5.722698821032803224e-02,-1.034526462393486196e-01,4.103702924251888262e-02,-5.820167167983319317e-02,8.183957642169042285e-03,1.368256638670670676e-02,-8.420770850136517771e-02,-1.503764054568171825e-02,9.575679900622870167e-02,5.040611231944532727e-02,1.003232660191331754e-01,7.849168067239201130e-02,8.965797556947725788e-02,1.044852967723486903e-01,-7.356067744887420830e-03,1.192900482828577330e-02,9.957907419312930775e-02,-6.189682865343536927e-02,4.733786201132539340e-02,4.480137380090248866e-02,-3.796331137443766796e-02,6.520681271446007732e-02,2.277253313671857935e-03,5.818225836214847152e-02,4.750491749809698794e-02,5.329520638049213554e-02,2.576867949484057743e-02,2.967772350923506344e-02,-3.933279771545187577e-03,-4.297237207029622891e-02,-6.342212139475666977e-02,7.715358943932626445e-02,1.010999930089845206e-01,-7.550144672916546222e-03,-8.628491486167728930e-02,-1.003443488522392547e-02,-3.844408665677536557e-02,1.900936956093991770e-02
1.810951581577307512e-01,3.089158932950587522e-01,1.179733755869532275e-01,-2.590458875253190407e-01,-1.233577984003176642e+00,-6.333187740848644776e-01,-5.252376513166623351e-01,-7.984409953169206708e-02,1.899461662834424636e-01,6.237748984798950902e-01,4.641537381498512249e-01,3.926405416539361370e-01,1.039889090296917604e-02,6.901179322852149522e-02,1.359362970939040627e-01,1.053173711111934918e-01,8.792231550220996894e-02,2.358702747650948117e-01,1.573477088601739349e-01,1.472152501999699215e-01,-7.296469673381910104e-01,-9.854022858980854283e-01,-5.978369534120963058e-01,-3.695149260582779593e-01,-1.341037265390147837e-01,4.301052700106932636e-01,5.854896086847960479e-01,9.556402215283855694e-01,3.634579300871718099e-01,-1.757825949385478925e-01,2.582969187745096096e-01,3.863356988563108607e-01,-2.824707605995441413e-03,1.442048739547252718e-02,5.001643981500466518e-01,-2.529802071242582828e-01,6.073834065323606701e-01,1.655570671256443582e-01,-4.279889185938603458e-01,-4.141015747173505956e-01,-4.255280690733231341e-01,-1.708206946701470302e-02,4.627060106335408318e-01,3.104777902587232408e-01,1.548590657519079705e-01,2.418159984835706600e-01,-9.395031065113322588e-02,1.801626681572065791e-01,2.036148501996448978e-01,5.241591519384580095e-02,-5.528384499817736580e-02,5.675937509353247146e-01,-1.818104078140728441e-01,7.535650004943237334e-01,4.388817679507844849e-01,-1.107577591613112533e-01,1.291506755464322254e-01,-1.811139275900319479e-01,8.561831966185409204e-01,9.027832915487198351e-01,6.922151247153800480e-01,3.210069242251073485e-02,2.972000751369273663e-01,-2.721150774339441414e-01,2.334596441655964472e-01,2.709300683009913113e-01,2.807221523987199832e-02,-2.926104226353076418e-02,3.303023045155561443e-01,-3.060376334144472299e-01,4.889419773246919676e-01,3.266477963871753376e-01,-2.791272743199483819e-01,1.340382936282255855e-01,-5.359742489904676527e-02,-1.095001225632487862e-01,1.031585061361316003e+00,4.498422175344505280e-01,6.270724560358163779e-02,-1.561797729631619544e-02,-1.106045362483004495e-02,1.182684559474670161e-01,9.861793034667709623e-02,-8.098838424630409524e-03,7.367774952685483825e-02,3.440785614997514674e-01,-2.105048637026231129e-01,1.154275064121958461e-01,-8.625694169708810755e-01,-7.811773800504178134e-01,-4.139285018102251690e-01,1.969791226990481592e-01,-3.225137001516454379e-03,3.515036354646675631e-01,-2.844952696337523790e-01,-1.607412950584296285e-01,-1.839430075857292068e-01,-8.317557338161904457e-02,1.563069640024067619e-01,2.437578064236730832e-02,-1.119403989856339043e-01,-2.582522988479836468e-02,3.798620097824555453e-01,-1.518470490556378116e-01,-5.667831394491446018e-01,-4.126451113749633470e-01,-3.244760130811361609e-01,-5.030979870916324481e-01,2.218800408214338660e-01,2.963996532047042387e-01,2.476016880792254737e-01,1.255334007770479987e-01,-1.286090128559889446e-02,-2.352810844436937499e-01,-8.197176615371566666e-02,1.301299339378707842e-01,1.805556127927760443e-03,1.970428468666771127e-02,-3.625476819019685798e-02,2.104247318693071994e-03,-1.829579229989693190e-01,3.268884772539069616e-01,2.553995671752724017e-01,-7.982225597766802461e-02,-3.775523769761580106e-01,-7.176582871043529765e-01,-5.113461799092196003e-01,-7.508458161535797037e-01,-6.298624585895685746e-01,-3.123291692352901938e-01,-6.071426924480742837e-01,-2.020029076367460263e-01,1.188819050121215637e-01,-1.643326614710138855e-01,-3.738350329882536571e-02,-1.226485968962607587e-01,3.126721159168416864e-01,-3.266513988941107671e-01,9.818241667619453938e-01,4.734515475109832838e-01,3.895248100787471746e-01,1.101780590076340965e-01,-9.930044703362922442e-01,-1.080337698660978729e+00,-1.388582901952956972e+00,-1.145611966135500204e+00,-6.222664998998317376e-01,-5.796073408951653017e-01,-1.618464312794967441e-01,-9.154469031052708816e-02,6.042367970808248251e-02,7.957945621656593860e-02,2.050787975240465216e-02,-1.254658294768009053e-01,-1.753044873123976166e-01,6.055579072825437725e-01,4.006424714699752254e-01,2.302729472796120336e-01,5.280190348094545572e-01,-6.941860041794131186e-01,-9.126055449533010400e-01,-8.952159306266487260e-01,-1.341436554553862015e-01,-3.407672929568732467e-01,-2.800287553093631088e-01,-2.277417726108428575e-01,-5.212462683515259321e-02,-7.312253185845812853e-02,-5.470384435775210025e-02,-5.485453278384570114e-02,2.686647690386518295e-01,-2.218932542795868865e-02,4.818223125566383214e-01,2.960622270706466663e-01,3.112465214066891250e-01,3.217374594455595371e-01,-7.959506804805141500e-02,-8.817510224593547719e-01,-6.870101843857733259e-01,-3.036111334909429305e-01,-1.612689830444725136e-01,-5.160086684145440694e-01,-5.367145688343117477e-02,-1.273358672667445068e-01,7.176863877381617352e-03,-2.757466228117087109e-02,-3.062482411048949443e-02,1.397009657744969213e-01,-6.520774576168197889e-01,-8.150942309374303862e-02,6.383702517269537746e-02,1.518157273046328304e-01,5.829570953720500937e-01,2.667503028273817689e-01,-3.101700986275239269e-01,-2.359062793098795630e-01,-6.374403785714041204e-01,-3.574396500438793423e-01,-5.848982954705113091e-01,-1.978275169851833881e-01,-1.421463627696858134e-01,-3.319542472978934816e-02,8.091250756733581531e-04,-1.470994907969431012e-02,-4.135775700516683417e-02,-4.906505054334849292e-01,4.824790386911258500e-01,1.650552730106546739e-01,2.356379907348527536e-01,6.929087682256566127e-01,2.061403368477157938e-01,-3.035709995475540102e-01,-1.753747074403022299e-01,-2.481113420884974996e-01,-3.403613564088377175e-02,-2.185955097601291752e-01,-1.323283250201171546e-01,4.357433916978131067e-02,-1.079346333048868678e-01,-1.521578956716259923e-01,3.227615749566752068e-02,-2.239945018273461486e-01,-3.861391386687881289e-01,-1.635603100977034707e-01,1.260353857524462327e-03,2.763023143000735080e-02,-8.588350309231802815e-02,-1.529736214799363447e-01,-1.101777196508944290e-01,-4.036716521808068614e-01,-3.000935357403330950e-01,9.105166472300659994e-03,5.876110706073130879e-02,-2.166541492231100971e-02,6.272519184523898603e-03,-2.883982045110572434e-02,2.429071363246539106e-02,-3.478149092247161556e-03,5.516425371397225969e-02,7.294745463716857670e-02,2.452462463335121443e-03,6.579940788952869102e-02,2.136981168020919350e-02,-1.052585780043356761e-01,-1.853836108730984589e-01,-3.043648344608655409e-01,-2.765644409448969054e-01,-8.631484201875473661e-02,-1.559408912163914029e-01,-8.410248414020286833e-02,-1.899864417524510171e-02,-4.548541935220797722e-02,-1.066860411258227226e-01,2.817939311188785018e-03,-1.052874283562502261e-01,-8.501599402440752906e-02,-1.209369968640064234e-02,9.465983017439318081e-02,-3.651073855949456270e-02,2.960861224101485160e-03,-5.294551661413827992e-02,-3.773400092298448416e-02,-2.112416487954683897e-01,-2.086440222227976538e-01,-1.824954673382903347e-01,-2.274914438288474228e-01,3.429948623727667456e-02,1.086031791023141409e-02,-1.238953980233419017e-02,-9.530236893867419234e-02,8.780252084249550587e-03,3.245201314461026304e-02,-1.114581455497634238e-01,-3.114234255319785552e-02,2.748166198526091897e-02,-1.541874493809490022e-02,5.480094107883239779e-02,-2.485353480893441255e-02,1.583071730701034741e-01,3.956992183421526726e-02,-8.357813688502829796e-02,-9.592697007620366867e-02,-6.494745047156900986e-02,-9.574481711292164021e-02,2.002978298048713884e-02,-9.133516897992259576e-02,-5.095538739160651587e-02,2.093187025680041252e-02,4.416530829567696936e-02
1.993643739624498534e-01,1.826010725626124043e-01,2.487282223861402297e-01,3.244326075834089163e-01,1.178836844013207014e-01,-6.148707748345896285e-01,-4.308332650935541019e-02,3.504654290856948906e-01,1.598853989781337526e-01,2.273368595185069341e-01,1.603398131106147928e-01,3.494545415072223410e-02,-8.846794696060657215e-02,-1.162488112373214477e-01,-1.683839421563870509e-01,-1.229590568284907592e-01,-6.906120257600871504e-02,2.789895714416499861e-01,5.478078439150393386e-01,3.583780527055908105e-01,-1.990451693304230718e-01,-2.235158063562913688e-01,-5.059745629878146245e-01,-7.328783037238581488e-02,6.159578374437916226e-01,5.848391773193467591e-01,-3.121533932778775694e-02,2.422237549111716792e-01,8.550473422318713435e-02,-6.379352420380410282e-02,-3.649800115428526448e-01,-2.228818982361599199e-01,-1.955780089056342319e-01,6.497349857549282459e-02,2.471468511253953615e-01,1.383266940254826716e-01,-2.678945135312928438e-01,-8.952580285118698633e-01,-2.480522351608713538e-01,-8.553670695345970687e-01,-1.107453583514389356e-01,7.238829235037341769e-01,3.435118601769891478e-01,-2.963212704114314699e-01,4.202566683660488578e-01,1.780083819035290782e-01,-6.969220633534463361e-02,-1.291780986132966269e-01,-2.618223090567048938e-01,-5.654804540971229698e-02,-2.536288383161607388e-02,-1.512544920921318203e-01,-3.569508543518818411e-01,-2.209668373123627183e-01,-2.981478747490423631e-01,-3.958681832470108963e-01,-1.375437166516086107e-01,-2.749741938620781090e-01,6.158939443156076221e-01,7.783349906991946510e-01,2.031568102410541976e-01,5.494054479520849021e-01,3.384885676747701466e-01,-1.503751384957351112e-01,-2.173275715336322467e-01,-2.101878408930698272e-01,-2.015070033074991274e-01,-2.134844320861546338e-02,-3.233972855276803782e-01,-5.579859609222630468e-01,-4.181201993646160298e-01,-1.541231079179756006e-02,-2.183031796729650031e-01,-5.503482726700618111e-01,-6.475301285557161224e-02,8.227914371433735496e-01,1.010928757155883373e+00,3.837311569672410827e-01,3.524797094073660042e-01,2.570312338686130960e-01,-1.597574963174998586e-01,-6.796142345603761736e-02,-1.888642890250008810e-01,-1.041740097435553819e-01,3.064408189687368653e-02,-6.493946184019924184e-01,-4.969686670269376494e-01,-4.302845114582026231e-01,2.000844694929818368e-01,3.534435216976160588e-01,-3.357881885328177773e-01,3.086405489528376012e-01,9.953481675696792541e-01,6.148215823349828524e-01,4.369056604014852074e-01,7.753181985686770361e-02,-3.595290112561763674e-02,-1.110636634479103199e-02,-3.003267387803216781e-01,-1.541594619992192328e-01,-1.839293382556280720e-01,8.759467253628132333e-02,-6.202508142777621858e-01,-5.716113275226436530e-01,-1.254930558285357600e-01,7.090532508893896413e-01,4.057730665791237645e-01,2.231312426095156953e-02,3.321893022094794534e-01,1.036562924649863104e+00,7.210057805905702999e-01,4.820094999565482929e-01,2.716993585942371614e-01,1.086870560058969121e-01,-1.352613181652706220e-01,-3.748108220639473909e-01,-1.422246761595288567e-01,-6.713499399515077126e-02,1.504536799780685323e-02,-5.782324234417401954e-01,-5.265662505996931975e-01,-2.709723090044896185e-02,5.931433623587938353e-01,2.792948450095256718e-01,2.780988656954929694e-01,2.413827821560482478e-01,5.191925355710583778e-01,5.283629811862757819e-01,5.686517222306493036e-01,1.576207511435384345e-01,5.081731573133589988e-03,-2.962504972017732108e-02,-3.182487336158920654e-01,-2.446640507562446720e-01,-1.185622887155047406e-01,2.027241557149461748e-02,-6.757506613246534455e-01,-5.523939573205415288e-01,4.495587412281946971e-02,8.770442153445676126e-02,-1.975000717983878551e-01,-3.853598596049946368e-01,-5.385702399922922406e-02,2.187908234583062217e-01,4.835006835354406229e-01,4.779762642152404761e-01,4.206227552484564924e-02,-1.234934351746038057e-02,-2.105170051150459520e-01,-3.410225038715875567e-01,-1.450126907913583119e-01,-8.238711923876958221e-02,4.946114215533670144e-02,-2.532267962777998149e-01,6.563955979520486039e-02,1.218851790729794105e-01,3.752625123398544565e-02,5.987060840277717844e-03,-5.611621907456674219e-01,-1.596877239478366461e-01,5.753972333920228527e-02,-4.383946991713444374e-02,-3.264158528452397456e-02,-6.744642213051127433e-04,-1.191817303235236242e-01,-1.930899038614870833e-01,-3.661926083023457901e-01,-1.474212140964352435e-01,-1.563727374748846155e-01,-1.296709666294005026e-01,6.202481515648152754e-01,3.931460350413812921e-01,3.320210121322531571e-01,-8.087195555762446975e-02,-3.779633988926496824e-01,-6.617457661512119449e-01,-1.643889494870197643e-01,-4.054732269509672693e-02,1.745346621278061339e-01,1.201261354545900828e-01,1.810582491831574936e-01,-1.552443464566640730e-01,-2.410368991093597979e-01,-3.097964553108739638e-01,-1.712561664265415395e-01,-5.137921729155284223e-02,1.942543461207520486e-02,4.772404343190095877e-01,2.507975261014817048e-01,-2.031003454490852480e-03,-6.379363205982576668e-01,-6.139581536135879647e-01,-4.483616886182437145e-01,-4.457294203952826828e-01,8.978477741453353908e-03,4.629513492657269524e-01,2.727020792041336406e-01,4.360508611917374711e-01,-6.079337719664828360e-02,-1.207705945837308087e-01,-2.291759431856027762e-01,-1.405409223163487931e-01,-1.520751305254471608e-01,-4.904851407916858280e-02,7.309715859310075281e-01,6.954567326864475874e-01,-3.815748735023825888e-02,-3.987604510183401924e-02,-3.019796501891243157e-01,-1.881327800042442988e-01,-5.434423217366500802e-01,-1.845174737448344315e-01,3.892969416786496439e-01,3.226915575639969225e-01,3.065726680385893466e-01,8.689263610848331487e-02,-2.067839681491681070e-01,-1.045119383438767868e-01,1.135921083877304647e-04,-5.903075118801713594e-02,5.662557226941975635e-02,3.547089238387493570e-01,2.604582073583479596e-01,-5.961373324886468095e-02,-5.897372646220542386e-02,-6.680444644405036936e-02,-2.824480445658992811e-01,-3.240508740259422371e-01,-1.786004503813993227e-01,1.502474161368074108e-02,-2.997988299066096929e-02,1.415758298586786978e-01,-3.950534690122500109e-02,-4.301237883321994138e-02,8.158630123229494713e-02,-1.749548724269139183e-02,4.645493098050186564e-03,-6.207755802039433002e-02,1.184981572043947023e-01,1.340296471334782302e-01,1.036427874748776790e-01,-3.149156976668480296e-02,-3.025948877119779765e-02,-2.555172776227537801e-01,-3.812119553445077469e-01,-3.236055655960069499e-01,1.467456336629066257e-02,-2.028883885281213828e-01,-8.037052959144375119e-02,-4.055202606704540191e-02,-1.092627992166938511e-01,9.592864383419927310e-02,-1.092865957637070493e-02,4.989823823804800246e-02,2.997522062114018823e-02,2.274741506663465265e-02,5.504048825073692974e-02,-6.997545537987166775e-02,4.196886818194815044e-02,3.276879761304254263e-02,4.352301626289176162e-02,-3.019620184564390519e-01,-2.911455289028973548e-01,-2.289339066998865024e-01,-2.184620526073990099e-01,-6.590250475392295249e-02,8.326879751822771625e-02,-3.418854191348706661e-03,5.550534753717869391e-02,-1.710274008137134538e-02,5.974980368216942922e-02,-2.234714432293081338e-02,1.992492379231016256e-02,-3.475007126692115228e-02,2.373244802708373777e-02,-9.239638621589117695e-02,7.496938108291262282e-02,4.032423607046432823e-02,-9.980935029053035479e-02,-6.646596134251445132e-02,3.285767218023530421e-03,-4.030743748833283402e-02,4.490868232019080974e-02,-3.047733485783843052e-02,-4.113634986235933239e-02,-2.858633442691923751e-02,-2.583887718470845654e-02,1.794215647546991421e-02,6.566624216022269589e-02
5.444275554536958522e-02,-2.525637929733299258e-01,-3.339739198226641115e-01,-1.857104002614789195e-01,-1.378428530140377029e-01,-3.933858016700957361e-01,-3.014557947824587636e-01,-3.314182166341373414e-01,6.626753647248126433e-02,5.719638301509838429e-02,-4.831900243890380892e-02,-4.725054494680498707e-02,3.006741254203226799e-01,1.295838439657130137e-01,1.087006690235443468e-01,-2.752085988789589044e-02,8.393278482531020546e-02,7.174117126957643871e-03,-9.803698308849309595e-02,-6.115787315436611860e-02,-7.324668776836250339e-02,-5.850443801323759185e-01,-1.229653177910781103e-01,-1.071027440612791898e-01,-1.339594618837652018e-01,-2.922012116094215295e-01,9.750986843559031336e-02,1.457315030560236424e-01,3.232666375316559093e-01,3.089820498777843816e-01,2.124322706419871643e-01,8.625707703350372901e-02,7.519756173901366580e-02,-3.434279649249873112e-02,-6.300906719718346594e-02,1.497824482946016333e-01,-3.504810006366197994e-01,-1.242777727452095138e-01,-4.594149986262906493e-01,-1.680061074385700293e-01,5.816985823528606492e-01,7.080481052865547631e-02,2.849970652804578730e-01,-1.493569443024816978e-02,1.654092367621996240e-01,3.312636298261668610e-01,3.043465979995858550e-01,1.122277310328349959e-01,1.315789421065728659e-01,1.091883295257519843e-01,1.017726834223779339e-02,-2.455627596590196360e-01,-4.414359938354337487e-01,-6.574715695472314048e-01,-2.637984835493109928e-02,2.888947209873190536e-01,5.228051209461611615e-01,1.162853263135928739e+00,5.568248844285674792e-01,-2.979609268707101299e-01,-1.438372342165254170e-01,-4.441623658592758206e-02,1.149196756012465237e-01,1.330451459316550900e-01,1.876607862627001078e-01,1.362554764480516933e-01,-4.397596529478056682e-02,-8.163477008870330398e-02,-5.123855124237154390e-01,-4.758174063388399544e-01,-4.913612611470017932e-01,7.678621558095538591e-02,6.616632664398036656e-01,1.038074558203089914e+00,9.656198704946633571e-01,6.421053865281045603e-01,1.726476021008767348e-01,1.623639966957703684e-01,3.642207415323333586e-01,-1.049552660234867596e-01,1.648338783567594723e-01,1.555772770254903736e-01,7.881067467476809973e-02,1.056108757278338972e-01,1.860359772106569970e-02,-1.781644859296716288e-01,-3.351962899576069743e-01,-5.416660631050924657e-01,-3.517882975253504019e-01,2.695454407766894045e-01,6.735351742716377821e-01,8.938656768293420374e-01,1.552408682504473059e-01,2.385135178609307932e-02,-4.901689048977923152e-02,1.948326226745250023e-01,4.006724662040762885e-02,1.540604759561355064e-01,1.673573425213046306e-01,-2.853563008964976697e-04,2.551383778497040913e-02,-7.709360865127443119e-02,-1.292843989075513622e-01,-2.544023194979868618e-01,-2.757664239895582514e-01,-7.624287153639451864e-01,-3.136288187364882352e-01,3.706810384617003629e-01,3.376568447288981201e-01,-3.497877898626752247e-01,-2.774744425130823977e-01,-3.489698414697516848e-01,-3.630285544836128059e-02,4.923316433763041261e-02,2.590679372457220797e-01,8.115627085145374342e-02,5.863887375358925458e-02,1.273216010433494694e-01,5.525144211300072467e-02,-7.350699346808196866e-02,-1.998790706678855722e-01,2.827570076696710524e-02,-2.711685789742426245e-01,-3.148711303491870395e-02,6.202858085018209122e-01,9.635596240339104890e-01,-7.074801759754853481e-02,-1.198221402339554875e-01,1.124697770807393665e-01,4.709661226739440820e-02,1.120898402248001885e-01,6.976124524967043661e-02,1.429542734540411031e-01,3.132788547745642832e-02,-1.830178502252785902e-02,-3.438149777659100376e-02,-5.749337424277718711e-02,2.032467597404571114e-01,1.380315124821047124e-01,-7.008434804756019654e-02,-8.901167708989626837e-02,5.105363190266756224e-01,7.915062220417564687e-01,3.352417510401939360e-01,-8.420925289324798779e-02,1.655244202444507151e-01,-3.631474702200349937e-03,6.975964259607193851e-02,2.367993374382656446e-01,1.453071920350452184e-01,5.963591819283606960e-02,8.148171576901076796e-02,2.231296189635045835e-02,-1.837423212725596278e-01,1.753417351403873115e-01,1.737343700629594423e-01,1.266777320528419404e-01,-2.077025461944298768e-01,3.666109323975050849e-01,5.145168212795665497e-01,1.442328989032620190e-01,8.531112470486108823e-02,1.877717079647524545e-01,-2.218661921292989017e-02,9.668333126729271310e-02,2.262118703642025663e-01,6.174666371270089160e-02,-1.386737719410765721e-02,-7.981320928418404737e-02,7.343601950096587117e-02,-1.698038733234755460e-01,1.562044634551474354e-01,4.539013462791220421e-01,-1.015831342009415050e-01,-1.156084538559555563e-01,-5.958300961677466534e-03,2.417713246329940280e-01,-7.126611191892019692e-02,1.241785277018228190e-01,7.789594681399969467e-02,5.848626092569542134e-02,1.494877336131288093e-01,1.878434479544020819e-01,4.767629969367170178e-02,9.398002008004188723e-02,4.406145451803436530e-02,3.153130189559312513e-02,3.982723133936663107e-01,4.894428642493815484e-01,6.236873226184754815e-01,4.825424017316415348e-02,-9.887001314873984648e-02,-4.515141129122502983e-01,5.160153014616041672e-02,-1.506055505211689460e-01,-5.132133839973507944e-03,3.133814470952255710e-02,1.207597167604245042e-01,1.524815117202572290e-01,2.897063607186743939e-01,2.216982411855038596e-02,4.711224088559534673e-02,8.872278942202178886e-02,4.117287826505783982e-02,4.038100879840280655e-01,3.276351718522415579e-01,1.490593314865597541e-01,-3.241030468521826080e-01,-3.179651904947977115e-01,-4.604954860905648428e-01,1.832458275088660604e-01,-1.105276703362290114e-01,-1.816396161952257005e-01,-6.532928742781241027e-02,2.432319980935457315e-01,4.052126647071735976e-01,1.182352366086128481e-01,7.388440795969852815e-02,6.196026802115570803e-02,3.052484441069905005e-02,-4.602334663456419950e-02,-6.165902447061767655e-02,-2.039785626869810853e-01,-2.592567387179324223e-01,-2.794562491721261366e-01,-2.662749878878281629e-01,-2.356235496243207772e-01,-2.927286895132896194e-01,-2.385373095183702108e-01,-2.233065622115177618e-01,-1.288139293299670751e-01,-2.518783544173033156e-02,1.649530326264217863e-03,6.034908057209661253e-02,1.360426566292950333e-03,-2.996027489716847694e-02,2.101607882110298475e-02,9.047754699212850679e-03,1.812793336418395962e-02,-1.049667450062950480e-01,4.546864070014840220e-02,-1.025495909852869036e-01,4.363846159302741355e-03,-1.158670666666739846e-01,-8.076528551474561335e-02,-1.548972373259794866e-01,-1.191744565443607629e-01,-8.453902814672464849e-02,-6.357054885790623666e-02,-9.115957478706554484e-02,5.732262991511569150e-02,-8.694009976881587887e-02,8.888658914574058822e-02,-6.086455916693760820e-02,-5.465378193344219660e-05,1.149543615538419217e-01,3.591290325058490995e-02,1.795315153578998790e-01,-1.915310270967137199e-02,-4.380710993784605461e-02,-9.287933339974466240e-02,2.228486612556675878e-02,-1.206797878838332810e-01,-1.221847387304887400e-01,-1.026251649860346338e-01,-5.074552113353116012e-02,-1.972801255767282075e-02,7.918890364780299673e-02,1.246162204363140090e-02,4.921328749630225069e-02,4.369984270415642330e-02,8.575891195355828112e-02,1.212248396687015846e-02,1.134533266042112576e-01,-1.119250630889849669e-02,-5.312227923311075434e-02,-2.757517860964164846e-02,5.171711666232839399e-02,3.573942926311289570e-02,2.086445819366505514e-02,6.997879441604912265e-02,-4.789995886356721022e-02,1.236547112455863538e-02,-7.338659482972702264e-02,-5.612446341267983418e-02,-2.684232554982680583e-02,-8.755494081717504762e-02,-5.294821258607435022e-02,-3.454640604935002579e-02
