-2.323901308508286578e-01,-1.474564226682100465e-01,-4.490695356913336211e-01,-2.404231083911505529e-01,-6.049525739542749997e-02,2.899847383369050791e-01,4.414268394043173727e-01,5.100526783859166136e-01,-1.477706483957889894e-01,-1.755837354302681452e-01,-2.551391869951307734e-01,-1.844428775271816645e-01,2.732961065822385807e-02,5.979894526233085674e-04,4.860178768703440899e-02,1.295268261525573880e-02,-9.770982039351676363e-02,-5.986397048535841980e-01,-7.410222747732621018e-01,-5.556755477805139787e-01,-6.679775808401308135e-01,-2.878151339200208381e-01,1.750202745371965962e-01,5.959427261517182828e-01,6.705746652506949790e-01,-1.805657118588314611e-02,-2.454390960047628245e-02,-2.446478297950546443e-01,-3.992383689334465940e-02,-7.025256873243722333e-02,-2.080571616670460477e-01,-4.542731485804632485e-02,-8.560016500527539707e-02,-3.152056201061902846e-02,-4.575691330557722925e-01,-2.383794068225502383e-01,-5.163088189141876727e-01,-5.085472820675441402e-03,2.874511431504354203e-02,3.200032016227422060e-01,5.452014812722645321e-01,4.258789662190834435e-01,3.089962667840520649e-01,-4.868559292950123268e-02,-9.285521848869489336e-02,4.192584595533280917e-02,-1.425165943657430261e-02,-1.351300658346309413e-01,-4.853891058851456108e-02,4.754288211253657886e-02,-4.806928167264268650e-03,-4.043295300150811511e-01,-1.055111308645843293e-01,-3.582779065562805010e-01,-2.517315663358846711e-01,5.443068728389068717e-02,1.858433311372692520e-01,2.794869289055593176e-01,1.349769917902970962e-01,-2.167563384375533614e-02,4.047139499290600129e-02,2.032440248165362229e-01,2.939297468632392357e-02,-1.187202271581123125e-01,-5.711958677141907442e-02,-9.511529020219932837e-03,1.342302678686095041e-01,3.301453523827498765e-02,-1.610679021956221424e-01,1.509476070980152532e-02,-3.625875012126976160e-01,1.227115123497656696e-01,-2.513462944526592083e-03,2.106268689949042927e-01,5.839305483357792176e-02,7.536991562198919192e-02,-3.445415210522564248e-02,1.197931271828229366e-02,1.358418626986604150e-01,-9.834896677573594370e-02,-2.079759171774913096e-01,-6.886709080516664749e-02,-7.273191556557753734e-02,2.009698779710519974e-03,-3.129912730585922981e-02,5.497043178164310456e-02,6.841633476066988351e-02,-4.207778625675080986e-01,-6.024720925534213789e-01,-5.999544597839332472e-01,-5.425483154526868912e-01,-4.519189465825987351e-02,-5.346573128609835579e-02,1.485593708339278951e-01,2.426200032032070353e-01,-5.215123217165206632e-02,7.401731918987394798e-02,-2.127892027169082934e-01,4.235364296521087341e-02,-3.764958226479827447e-02,-4.728021126794996337e-02,1.136296672899821947e-01,1.723564443109080746e-01,2.988968597241152270e-01,-3.655491960826517950e-01,-4.311560694727281096e-01,-4.800662063768457166e-01,-5.250640137475798275e-01,-2.213826067424004285e-01,-4.331704243771324903e-01,-2.496203433382257197e-01,-7.348299017958043883e-03,1.302922383947903995e-01,-8.739507185100243991e-02,-7.737276508561756472e-02,-3.168489077177095298e-02,2.801919333896854200e-02,-1.154316698593719701e-02,7.433182013795672227e-02,1.573441193552306827e-01,2.513296883390898628e-01,1.444462267060337146e-01,2.950022714922013733e-01,7.315402375545045077e-02,-2.534403348439554504e-01,7.697496535913417662e-03,-2.393516875587722581e-01,-2.360020910412943818e-01,-9.128300915446162234e-02,2.010397619327454755e-01,-6.178026248518642388e-04,-1.011659622475966080e-01,3.601412331294771840e-02,-4.454201462928794228e-04,-8.327622224801957407e-02,-6.450718575558041235e-02,3.487828742375059243e-01,4.507709915766471842e-01,3.362978989269583274e-01,2.101977498795738752e-01,2.637973271933575781e-01,-6.283133251664350938e-02,-1.758999589521682005e-01,-7.551626213096600260e-02,-1.836194402601780407e-01,-2.981219252784782503e-01,2.111211026397259716e-01,-3.778656833777228885e-02,1.214905167827901034e-02,-4.562626547102498903e-02,3.394746852474880838e-02,-6.659036961235355323e-02,-6.511508461001677683e-02,1.982493848768701328e-01,3.573481559950796305e-01,2.895400163969283347e-01,1.163866017572476180e-01,2.250070346119943665e-01,-4.581192693194550275e-02,-1.333971322141911386e-01,1.910041381337217736e-01,-2.148759792949227476e-01,-2.581092474543733584e-01,-7.027966681267022730e-02,-3.511167345584447624e-02,-1.242419568787700712e-01,3.899370354583386877e-02,-4.035468850359236886e-02,-1.421406230410561522e-01,6.825284534143340187e-02,-1.272056476937853675e-01,3.120105675683606528e-01,3.115424870859033191e-01,1.024241149194913131e-01,6.409470130971219037e-02,-2.233237741551571676e-01,-4.914260598088681514e-02,-2.060846049189410389e-02,-1.476798903840932653e-01,-2.649209015787209465e-01,-2.779467092383528515e-01,-2.625043636922813062e-01,-9.124468199656864120e-02,7.106442550499933453e-02,-5.954982429122222809e-02,2.270857995861870655e-03,6.412931355746043227e-02,5.354829336504740578e-02,5.319269896271425768e-01,5.530692114985862329e-01,1.114130619762938590e-01,1.320648363560272265e-01,-6.378242158399093087e-02,-2.192690178506080390e-01,-3.596972504556716910e-01,-1.535213235133149612e-01,-1.060559106681343844e-01,-2.906035787671355508e-01,-2.077449083361194437e-01,-1.104484711304351136e-01,-1.201913327747087951e-01,-3.529101120016571447e-02,-3.391695133157384551e-02,-2.030501345675834318e-02,2.193855304869790912e-01,2.014332424319116299e-01,2.395578959199841096e-01,-3.837180803582133926e-02,6.175070347239635868e-03,-1.559305286868899014e-02,8.812545404225227696e-03,-2.225554515949001722e-01,-3.044123835934027245e-01,6.464588482215800902e-02,1.981509917262131992e-01,1.219164522714716661e-02,-9.716036457716570318e-02,-7.582597408619956569e-02,-1.474684315505477884e-02,-1.170768934708641962e-01,-6.824476009820046318e-02,5.778814464743652068e-02,8.169684725816350745e-02,1.549862318421710121e-02,-7.727076207238102457e-02,-2.156027505996165883e-01,-1.357693707979730491e-01,-2.034696631462535044e-01,-1.322136362013570932e-01,-6.917759731717602889e-02,1.565782137492618686e-01,7.014035397846922482e-02,-1.999582156562339577e-02,1.365293960638396670e-02,3.331648255109865425e-02,-5.660032554121983278e-02,-2.256713926910026285e-02,5.659282113540680531e-02,-3.849791671784318775e-02,1.125151262701123145e-01,1.184016700735788380e-01,4.981793362353240801e-02,-9.927828602002491953e-02,1.349930926302802814e-01,-1.661938962906080175e-01,-5.418344920989140445e-02,4.692857890205107477e-03,4.218802407106961305e-02,-9.857864798539517359e-02,-2.861220628154311288e-02,-9.178619916871061379e-02,4.996146446096223076e-02,5.449521479104454946e-02,1.653651010530680920e-02,2.546418288925102885e-02,-6.716378176416641643e-02,6.007939452256857993e-02,-4.744059286181884216e-02,1.268018003160828466e-02,1.407135225306871580e-02,-2.043564304797796868e-02,1.398694368596837059e-02,-6.058098330771988921e-02,-1.096292265401197993e-02,-5.872071334138571908e-02,-1.943615337344705915e-02,8.366194196346456863e-03,-8.036118810562359327e-02,5.763043855953803307e-02,-1.074230349438587070e-02,3.612251062904380666e-02,4.063620054433411330e-03,-2.976017148778061991e-03,-1.744189000371949155e-02,-7.515186951486546758e-03,-1.774087267366834461e-02,-7.200621757852249637e-03,-3.202288049553002336e-02,-4.352029632158362776e-02,1.195308054739568915e-02,-2.343627655756573558e-02,-5.614327004026817280e-02,3.145603720059692021e-02,-2.495734104159505560e-03,3.560197611292754971e-02,1.224800720835235966e-02,-9.042786620723695240e-03,8.418062200425681374e-02,1.228320633541847041e-02
6.800729450242325169e-02,1.128234405225276987e-01,-3.302379082212266725e-01,-3.279417505844498537e-01,-1.838292751980645512e-01,-1.751403774003301717e-01,-2.265008656886594376e-02,2.200022633089926405e-01,1.119749520713707452e-01,1.009523654751503380e-01,-5.990054180925483140e-02,-4.185120673915049966e-02,6.339214793882221033e-02,-5.040861129788714451e-02,-1.014607831075202415e-02,-1.326495299592193519e-02,3.405993629064172495e-02,-2.002259183621583893e-01,-9.387754692274130619e-02,5.211629694723144204e-03,-3.935669073642949489e-01,-3.106089866573612523e-01,-2.477565431568125309e-01,3.180903535166810375e-02,4.305522637096170224e-01,-1.436427064009685589e-02,-4.561778914092519399e-02,-1.403043850436877793e-01,1.226579507883248099e-01,-1.165302412203348958e-01,-1.067637410492992406e-01,-7.705054014121846297e-03,7.231126556301635533e-02,1.994153346632393520e-02,-2.614186504885540052e-01,1.077255116967897330e-01,-2.065609843120762845e-01,1.207636346253235515e-01,4.193887206451255706e-02,2.078146157099983737e-01,4.088006961647931981e-01,4.173449596913600401e-01,1.831310323719639310e-01,1.144072098303356225e-02,-1.116264016938859766e-01,-1.486309607549267109e-01,-1.571771536967830341e-01,-7.342317497108770408e-02,-4.994796026633161606e-02,-2.635986027828447764e-02,-3.820234928427371918e-02,-4.718786833067343811e-01,-1.891461195764182202e-01,-3.624142076180968952e-01,-7.406244122915180139e-02,2.676786921295251642e-01,4.108742027968815269e-01,4.977993328999682499e-01,-9.514936919888011130e-03,-8.476368818059937249e-02,-2.289420547624493318e-01,1.123040699554721418e-02,-1.872500844963946587e-01,-9.495343173787958169e-02,-1.294672095214997876e-01,1.969343620326420852e-01,-7.340383257726521005e-02,-2.091692228505935905e-02,-2.109164399328977701e-01,-1.428393582272411977e-01,-4.648402800390733502e-01,1.166835382952619848e-01,5.430779481241639894e-01,5.239224553524756134e-01,3.855421235882705022e-01,-1.317717434018002565e-01,-3.605886304506867868e-01,-3.743622523510226063e-01,-2.887698516785116021e-01,-1.550935337613278397e-01,-1.122986739254253352e-01,1.857395394590716231e-01,1.884304107096846648e-01,-1.432192999899536134e-01,-2.392967455618413494e-02,3.840354421801243923e-02,-5.203283255935953200e-02,-4.522426668549474615e-01,-2.698995633083132173e-01,-2.935156941497042704e-02,2.627411206845306491e-01,3.166575465784364773e-01,-1.250890729420139069e-01,-3.930751028654019819e-01,-3.131545402179282123e-01,-9.705061274251015890e-02,-1.453005849427584373e-01,-1.940159448674990961e-01,-8.585070797159310985e-03,1.160693035107232401e-01,-9.105280678662067140e-02,5.185181028079665841e-03,-7.434387618095476824e-02,-2.223327958937256210e-01,-5.939845628042198511e-01,-5.876070020310640851e-01,-2.881295058921084506e-01,5.871346846022183069e-02,3.601061317175644622e-02,-2.965301504051209291e-01,-5.416834192348367605e-01,-2.662284491120708307e-01,-1.504908543907559348e-01,-1.411016068743762841e-01,-5.327333226982713943e-02,8.808616901849795899e-02,-6.136009361776047222e-02,-1.539305122835911699e-01,1.367531604106657535e-02,-3.959309049487547832e-02,-2.231202871619078765e-01,-1.407262080864299103e-01,-1.967659805266254724e-01,1.695467350711545307e-01,1.073660795527733441e-01,6.288463312834003949e-01,1.552905504125365321e-01,-8.098133792700304423e-02,1.253401774781918165e-01,1.669091273465423964e-01,-8.971552928838603946e-02,-1.683618146625337764e-01,9.750119907589907542e-03,-9.734089095785712631e-02,-1.248632568776169571e-01,-2.237017116699223720e-02,1.743812466974911657e-02,1.621912478519329792e-01,-2.147472786004715056e-02,-1.602253945293268811e-01,3.614081165162152248e-02,2.555872022109255681e-01,3.428608748661433059e-01,6.216411877771543804e-02,-4.656492008920925380e-02,1.135334584200913544e-01,3.383313001180878188e-01,-5.850241286222743198e-02,9.658400681878694105e-02,2.889673986246672766e-02,1.589844171846830842e-02,-3.601672318988741878e-02,4.801790782718111383e-02,-6.665898395600990123e-02,1.756325040371597701e-01,-2.607154452861223382e-01,5.052802257063242555e-03,4.321719468320668611e-02,2.752770517196539424e-01,3.207589867140968054e-01,7.201405305239821919e-02,-1.118053166160910411e-01,-6.023434730780997254e-02,1.744656749462362988e-01,-7.647388630944711163e-02,1.408654033159784102e-01,1.293713119815189695e-02,-1.015773094106844909e-01,-1.387982344004604074e-01,-4.072735032679795225e-02,-2.373153798315236207e-01,1.414145982777370858e-01,5.734312419422334106e-02,-6.554761843969957036e-02,1.709901963333176067e-01,-7.901456075974407078e-02,-3.684559105213510571e-02,-6.457410637795320263e-02,-1.690917845612245340e-01,-1.331876496207481594e-02,1.309289855205277853e-01,9.536600249422512443e-02,1.028752807820328130e-01,-7.136391772614536499e-02,-2.152682718919118054e-01,-6.778104155498733407e-02,-2.598959394709720455e-02,1.228918617391917822e-01,2.818634627195853448e-01,4.695155626081012334e-01,2.852989660014761952e-01,4.166106871253588140e-01,-7.710261022862055502e-02,-6.013509604082617477e-03,-1.650666878122473424e-01,-7.279410268302725917e-02,1.143766573912888412e-01,2.227086937563527436e-01,2.746154219955195264e-01,1.418522118808542287e-01,-4.448058672130626723e-02,-1.057753185835985377e-01,-7.465270030206976049e-02,3.552152311124982809e-02,3.057225546452373155e-04,8.326778871450848940e-03,2.620941478520565915e-01,1.455415505229164241e-01,3.851506027167452273e-01,2.926781108519751484e-01,2.376596008270236149e-01,-1.333081424457930042e-01,-7.386160386001887346e-02,1.995308852790680376e-01,2.137439856387149950e-01,3.028331318784101001e-01,-5.616415881616129702e-02,-1.318375489844050667e-02,-1.854677183096450355e-01,-1.581731424296481114e-01,-6.285252489497550332e-02,-3.632293174245885495e-03,-3.433867957077096911e-02,-6.096929771019421462e-02,-1.633809062768518672e-01,-9.069696952560550585e-02,5.463506159843038723e-02,1.060129677061377729e-01,-2.780663956970757036e-02,3.716585016016502041e-02,1.245282940473449174e-01,3.005779665641970452e-02,1.488596119106999627e-02,3.084588747701691794e-02,4.007900178249152595e-02,7.153616461223243073e-02,-2.443188270808506479e-03,2.920349144649431877e-02,1.079531880351532191e-02,5.195027769308285109e-03,2.340310404649122850e-02,-3.319257578110987317e-02,-1.279494682439210607e-01,7.336182458073493839e-02,1.873796579110937055e-01,1.323764076439207793e-01,1.670212625457145883e-01,1.305118774371644419e-01,5.130524157855397699e-02,6.234057816658915285e-03,-9.531995070718732310e-02,-1.790654291884656666e-03,6.733361825947854762e-02,-1.627502938382660233e-02,-5.080941833326764467e-02,3.518141052351463072e-02,-3.462753578587614289e-02,-2.986637875962318972e-02,-1.171924837727627254e-02,6.255891123039317159e-02,7.122675744160318623e-02,1.714868480981182608e-01,1.437501375444018847e-01,1.046981880902094070e-01,1.803400053178073614e-01,8.527487327522928484e-02,7.838453812671339338e-02,5.033804874152577463e-02,-4.648275963777651065e-02,-1.037774366445330665e-02,-5.694357052900105021e-03,1.009326165823865584e-01,2.398107976612226175e-02,-1.709591968287252003e-02,1.681384983473719480e-02,-6.288658818677414497e-02,7.508664515503069015e-03,4.114401478759449615e-02,9.338691022271465580e-02,3.108006880401030167e-02,7.359817105802776704e-02,4.269159223438103584e-02,1.874789991719017640e-02,-1.085756352257691987e-02,-6.023573265573049784e-02,7.542717886034039365e-02,-9.059885275526039644e-03,2.586472630826902597e-02,4.230682981713949908e-02
8.537558692587030040e-02,1.784544092734392795e-01,5.372350435562280729e-02,5.298602533636158352e-02,1.905781688712796240e-01,-1.173160624244283801e-01,-2.357890798103882968e-01,-3.698266720919667350e-01,-7.970553130964766475e-02,2.012630876181552286e-01,1.434314647910997498e-01,3.050437305458652756e-02,-3.698081558783323369e-02,-2.573411946146472729e-02,-1.633345596411139022e-01,-1.233306148136661812e-01,-6.679385271432548843e-02,-5.701570379697920576e-02,1.395809340110392982e-01,4.577941095641285818e-01,-3.783569043690242911e-02,7.812457079390813797e-02,-1.882819617325163231e-01,-4.178807762638555023e-01,-7.462520252467680359e-01,-4.922687783310656512e-02,1.717775847817618884e-01,1.585501049796163020e-01,-2.394207605926831559e-02,2.625627206974375655e-02,-1.569158320500400050e-01,-1.369902585832213360e-01,-1.149568517538546858e-01,-1.151001211110955907e-01,-6.117563219442681555e-02,-3.700161987685222226e-02,-5.564433526753639336e-01,-3.015372097913320282e-01,9.313908032181507368e-02,1.261176867594352158e-01,-1.442960148918301100e-01,-5.045744959207307812e-01,6.727094325186461221e-02,-3.189446081092791596e-01,-6.750303487793972435e-02,1.080656056468574100e-01,-1.362978342235437179e-01,-1.775265699823188326e-01,-1.895841082544656164e-01,-3.500171256158091104e-02,-4.148994944310271937e-02,-1.807521913622718857e-01,-1.757064813361338407e-01,-3.626230690385781052e-01,-3.771144406665473126e-01,1.456642052126528308e-01,5.775821151358535854e-02,7.389997298880561505e-02,-2.546068405194537587e-01,1.051675880692158060e-01,-2.582662476024532028e-01,-8.579011790245556768e-02,3.092964275039250185e-02,-2.652333322568460605e-02,-1.740061338414503611e-01,-1.237179526380919742e-01,-1.290135079044597011e-01,-1.051500865326435580e-01,-2.467823360565768731e-01,-2.027852268874662800e-01,-6.755781540285283882e-01,-2.466134394359957016e-01,8.417412056638245987e-02,2.191628987638622184e-01,6.672513232551691154e-03,2.026103596764297354e-01,2.590132564331672563e-02,-4.493611523750626890e-01,-1.129779786771560185e-01,3.317019746450225459e-02,-1.071938510331426064e-01,-2.112699183321527507e-01,-1.320898968519223504e-01,-3.274098823084221899e-02,5.863336503860695596e-03,-3.051130270397382493e-01,-6.196641784584799167e-03,1.253503321708765716e-01,1.003581608218282253e-02,2.623815534515852588e-01,2.751664475000029642e-01,3.121095105508114864e-01,3.384145500341049356e-02,1.310470773264639788e-01,1.001128847460883015e-01,8.775432764586910822e-03,1.271487382275209022e-01,-1.496735731872181341e-01,-1.777817852608928606e-01,2.379750935697901373e-02,3.222596874323678529e-02,3.975581599749443418e-02,-1.254394474563926831e-01,-6.793564654398516478e-02,-7.555026819281529527e-02,2.079940253505816738e-01,1.743822152162858852e-01,2.069666960379001885e-01,9.990665305246126948e-02,-1.048339150242448281e-01,2.082082806092169780e-01,1.495629712743730688e-01,1.352582670241231355e-01,6.980961951590175518e-02,-1.061940557132886043e-01,-2.671949083480246179e-01,-1.226252012790707002e-01,1.646897142672552883e-02,-1.968261518639023155e-01,-4.514785642003078803e-02,-2.392205764935948983e-02,-1.861213695513531385e-01,-2.745473258966886765e-01,-2.956003093025142414e-01,6.603462216845719379e-02,9.545733154850832847e-02,8.433585400616640942e-03,4.990509473865062384e-01,5.552704013753553269e-01,2.613239474797201534e-01,-1.065056872743026448e-02,-4.566754004327915062e-02,-2.072162761673142783e-01,-5.953184645418199000e-02,3.269205918923587945e-02,1.254315193914570803e-01,-1.584496688911581075e-01,-8.215050590674803643e-02,-1.492667147143652562e-01,-3.351431195205369917e-01,-3.132134867568107939e-02,6.389453350795773479e-02,-8.641753231853937373e-03,1.600963694706159235e-01,4.908743935820294446e-01,5.781288758727841648e-01,2.222262224485559989e-01,-2.249486741823282857e-02,-6.817717185031732519e-02,-1.596387549373062542e-01,5.095655807425669877e-03,-1.275358355783597422e-02,5.371123832166103257e-02,-1.251326415054350993e-01,-4.114244596921272368e-02,-4.576265483173881377e-01,-5.144346635719508898e-01,-8.739006573841757997e-02,-1.677795533640177306e-01,-7.032527128814736184e-02,-1.098217814087497496e-01,2.867926578369776047e-01,3.184142797583905393e-01,2.610765728814370412e-01,-1.814976144343133646e-01,-2.317796672177776796e-01,-2.725331903474643644e-02,-1.346645289455259964e-01,-1.298046461316933360e-02,1.161652340817526385e-01,-5.420898997145221637e-02,1.213145848136821248e-01,-3.221179320137690372e-01,-3.484654131104241159e-01,-1.212955402039215397e-01,-8.063993633368739256e-02,-2.440717652307511712e-02,-3.318565649951881746e-01,1.089050127095978759e-01,1.981497207890744322e-02,1.434339105898611300e-01,-1.377973617311008259e-01,-1.964399319153635470e-01,-3.197444563666893697e-02,-5.238593960765573071e-02,-4.195590441723237758e-03,-5.045610430435275816e-03,2.038155785694850675e-01,3.453959812622002246e-01,4.818142509298893872e-01,1.824452674159867671e-01,6.551717518639715854e-01,8.679110406386557619e-01,4.558141083455616305e-01,4.149218646364786350e-02,2.043241827673305533e-01,2.144514280141482099e-01,-4.680612151196082010e-02,-1.403022119252069766e-01,-1.031336316079842635e-01,-4.474612480874174542e-02,2.971556077359247677e-03,1.732252093145951119e-02,-3.140643912315624342e-02,-1.686684585230337208e-02,9.058065367481106522e-02,4.594973492862092779e-01,4.992269730440015985e-01,6.060459967431849337e-01,6.707363094482057253e-01,4.086226948996230512e-01,1.059723507593279268e-01,2.629419348989266436e-01,7.264635280337319867e-02,-3.161458273477374403e-02,-4.214215506643519127e-02,-1.862866118111343450e-01,-6.197710051696062733e-02,-1.982622206720185271e-02,-6.342428324265989015e-02,-1.676269119549425313e-01,1.328752640235098328e-02,-7.894073975622575845e-02,2.025404980397580226e-02,2.011012432635683050e-02,-2.995199723016481880e-02,1.805162027858129431e-02,5.672208325086516845e-02,-5.703071816220445060e-03,-9.242799614598364022e-02,-1.014971232337496670e-01,1.002073609255782483e-01,-1.342504670360887380e-02,-4.804905252255911585e-02,-3.885420933518318742e-02,7.550949976590702606e-02,-1.899308991693293008e-02,-6.949030265849948096e-02,-1.194530624914376046e-02,-7.308914243775278818e-02,4.215257223344358664e-03,7.301506059379707370e-02,-4.211845448827812241e-03,2.642241433172853524e-02,7.131197784267911954e-02,-3.586441892711275670e-02,1.429765450425068973e-02,-2.807414199276017826e-03,1.911987891599094269e-02,5.703573456684236237e-02,6.133959055622691808e-02,-5.292076490719997695e-02,7.728359843214627212e-02,3.884657927386472864e-02,-8.700544881252898766e-02,7.617566899006948666e-02,-4.697638425306497473e-02,-1.363076899125184420e-02,1.064433133156712785e-01,3.958021630111425992e-02,-2.539356316239340522e-02,1.946193655083671217e-02,5.555075401364314297e-02,1.016241551449330455e-01,8.597610054382406886e-02,9.049888230101876818e-02,6.294893980737595492e-03,1.872477864765729680e-02,-1.419884905818284415e-01,3.478668836200073111e-02,-5.598007584776414081e-02,-8.392871650231960301e-02,5.586971443948236110e-02,1.054594037319208505e-01,3.506445833910259990e-02,3.257084016728341302e-02,4.622239924311755815e-03,-1.222166774025859326e-01,8.729411547983739750e-02,1.652438988281056120e-01,-2.008818484784165304e-02,-2.498947015559772195e-02,-5.311389573433789729e-02,5.549555516208801165e-02,6.781937610651245230e-02,1.510237557716540870e-02,-2.745907383051270426e-02,1.458668756623896293e-02,6.642107935122724960e-02
9.815396437974466259e-02,9.624249038136831191e-02,3.172010108323751187e-01,5.059232894554961391e-01,3.387137609884293687e-01,6.724401657857376202e-01,4.763017223922786370e-01,-9.519448972857193214e-02,-3.547754369644021133e-01,-1.939115110987830737e-01,-5.044480252080629085e-02,1.015089431887734317e-01,1.415392797295974003e-01,-4.313042941981917039e-02,1.404873685046445671e-02,-7.370462437858209259e-02,-8.471199767424271443e-02,-2.261773214773587018e-02,-2.711895319561721251e-01,3.329256343588894995e-01,5.607482430259375095e-01,6.879869074255803296e-01,4.935064494036350280e-01,3.855052360969187797e-01,4.615218183958858661e-02,-1.688276734184505357e-01,-2.659260218460338665e-01,-1.908741242499520027e-02,2.346653465415211859e-01,1.963375744013857171e-01,3.081128833328271310e-02,-1.812858351877903729e-01,-1.354953882894335826e-01,-7.894367017883904825e-02,-1.925097853659951952e-01,-1.910172140460730528e-01,-2.044845368255797657e-01,3.194173741039334491e-01,4.833971616844778829e-01,1.209037121188387270e-01,9.148947523763441281e-02,2.498948571125124141e-01,-5.648134203776002810e-02,-2.294066797034881033e-01,-1.380077797796059463e-02,7.987299071921413751e-02,1.349694873398103179e-01,-1.703638412844343114e-02,-6.053261938173619405e-02,-3.763370588568262093e-02,1.979433787184847401e-02,-2.605871347952058714e-02,-1.545201493612980703e-01,-1.773180753506382878e-01,2.114458692013070351e-01,3.324332980053741338e-01,-1.515156144731525378e-01,-1.552806300184376431e-01,4.202525696986584292e-01,1.140652437506886330e-01,5.495828253823945020e-02,2.933331938747218287e-02,7.966808049975968031e-02,5.767309603296270903e-02,3.343458211705315625e-02,-2.181258658997808908e-01,-7.568228959392878097e-02,-1.019205897607687594e-01,-8.448079628962595899e-02,-2.230264192430894410e-01,-1.655646323490805039e-01,-1.499664602053520090e-01,4.390028204947759444e-02,-1.315280514441616311e-01,2.519782103347232086e-02,4.401219103359820251e-01,2.611410754866376749e-01,-2.202795164330793865e-02,-1.148507883136644647e-01,6.902225596084417270e-02,3.594260206396503177e-02,4.877243520273352728e-02,-1.382008479471658891e-01,-9.613030679140779911e-03,1.138695401732810475e-01,-9.323584595913897433e-02,-2.648421209328672976e-01,8.688797980207645100e-02,7.470024915360597151e-02,2.746619727961159829e-01,-1.406505446918966118e-01,-2.006654642460489052e-02,1.406008697166873656e-01,1.038656027939329901e-01,-2.172245079056401851e-01,-1.828328532547773833e-01,-8.764099218560257587e-02,4.718750321447477691e-02,-1.096606290349817214e-01,-7.193634857255021275e-02,1.139990150210378889e-01,3.745725376023961717e-02,-6.221011689408984663e-02,-1.226357954493885322e-01,6.311602971043111729e-03,2.832899106432108793e-02,2.420057051635878809e-01,1.562961189547805918e-03,-3.272589212233910638e-01,1.062063092838163164e-01,2.451731725531408335e-01,-5.045119572736618541e-02,-2.045442618545508795e-01,2.265629681005249668e-02,6.225045815980469188e-02,-5.288185774815123280e-02,-6.073701831161145565e-02,2.294090949128127586e-03,-6.051451383499310138e-02,1.979411916658569692e-01,-1.869945887896044268e-01,-3.490463070753048735e-01,-1.452079299243279331e-01,1.618669347440914175e-01,-8.417195492131170076e-02,-6.189658144203546986e-02,-3.403088425477472992e-03,2.762615766005168116e-01,1.399081326306262363e-01,-9.838105958605193602e-02,9.708274274537867510e-02,1.810938566005296513e-01,-7.790876851699454764e-02,-3.565221025956533812e-02,4.093539436209315402e-02,-6.044789036171938079e-02,-2.163879971569959149e-01,-1.515763472875389928e-01,-6.733090625286913822e-02,-6.647126975517719805e-02,2.155877815862485836e-01,1.323377742411434022e-01,-1.058540527318896501e-01,-3.357956722187259158e-01,2.783883970505482419e-01,5.523003150867340783e-02,-3.530396794886029865e-01,-3.533018749999853464e-02,1.432438418388248813e-01,-2.881453792235711894e-02,-2.188364987464360562e-02,-1.369582529861974318e-01,-6.546265749115956489e-02,-4.196363761886513777e-02,-1.698570790425368571e-01,-1.189665861875430636e-01,-7.499794432518751275e-02,2.551042027947951207e-01,3.472646326807146133e-01,6.759859048284263747e-03,-2.063580463005063037e-01,2.197024657309111506e-02,2.940086169021280046e-02,-7.467425153664214443e-02,-3.481802279999703792e-02,1.140363300991653339e-01,-1.213778831275702692e-02,-5.626862515747898391e-02,-8.467462089612687315e-03,1.669857838930262697e-02,-1.483600732062466121e-01,-1.333020870944606751e-01,-2.546759119951740868e-01,-1.303757746705049361e-03,1.285856575621109610e-01,2.374611592128345328e-01,3.641245085829381556e-01,1.171806010866083686e-01,-6.485137901743467936e-02,-8.519068466396823025e-02,-1.617673091123542350e-01,4.755827715246838810e-02,5.835533909165988020e-02,1.173074640670499214e-01,7.373332829409511143e-04,-5.131017808109548245e-02,-9.753512995415943021e-02,-1.554943115186000445e-02,8.479627000879038159e-03,2.224138647880337105e-01,3.607607480942988110e-01,5.403028463749245391e-01,6.147805295949425597e-01,7.848370144721266151e-01,5.136741300572063018e-01,-5.685454216800883004e-02,-2.858470000526358024e-01,-3.243575405535136236e-01,-2.431786081590933332e-02,8.335312011284251588e-02,4.494350433634999170e-02,-2.994229665369723195e-02,-4.933501956271686695e-02,-3.289108870681364122e-02,-4.344836770110983848e-02,7.228012715205545634e-03,1.923786314636813655e-01,4.339606448188400023e-01,6.671526255142471440e-01,6.068757392246256765e-01,6.241277663607569526e-01,6.594776835083880906e-01,-4.290973791957972822e-02,-2.622807168074743900e-01,-8.597080034369966595e-02,-1.135795378306645315e-01,-4.385814951351525021e-02,1.845155634727261868e-03,8.080591870784817332e-02,3.044984750539886376e-02,1.434085554442108765e-02,-9.829785000737702172e-02,-7.852842137659246657e-02,-2.273590211632012595e-02,1.418703230337895471e-01,1.498930983000347217e-01,3.528152151950760679e-02,1.603933717589472174e-01,6.204503766416694793e-02,-1.088810841550832825e-01,-6.937000911728051500e-02,4.509242885154710750e-02,-8.249081083634515754e-02,-7.571664952279691385e-02,6.994492224771273192e-02,7.273737258661940042e-02,4.067850009098563507e-02,-8.557444115001489049e-02,4.271160847314346698e-02,2.290042412790215323e-02,4.422231046078714534e-02,-4.223791735140984549e-02,-4.802676824779266232e-03,8.179011477023370160e-04,2.932695407882683625e-02,7.870790513644955466e-03,6.335384942840875666e-02,-1.236769086788116513e-02,2.260311962858908841e-02,5.075617862787670104e-02,-5.768521678379275042e-02,-3.420113900741187513e-02,-2.201515722466832956e-02,-1.311290679546161207e-02,4.262938235920363250e-02,1.833714202699623583e-02,3.780867167193303208e-02,5.872099332283944872e-02,-1.976102212051875084e-02,-4.927025909301635531e-03,-1.996014154737201646e-02,-3.436942390414249315e-02,3.908041349758304556e-02,9.670203717890953066e-02,5.339711304839607486e-02,-8.735003904958195398e-02,3.175646354416416378e-02,-3.941347595009563054e-02,-1.142478569213449258e-01,3.273290350311418295e-02,-6.411048852779807627e-02,3.862484140845728886e-02,8.742889607842885269e-02,-3.174090835518039028e-02,-3.537619326280525001e-02,1.615425551624164596e-02,1.390710208607802145e-01,-5.309182027896591771e-02,-2.348046356281521981e-03,-2.043179029414164335e-02,-6.660462394876019709e-03,3.517021295752929128e-02,5.691315448848259517e-02,8.032271543053307039e-02,5.893640901989603831e-02,1.052282877812591999e-01,-6.601032096109975267e-02,-5.177251961656958307e-02,-9.895465513503104438e-02
1.843650245461747605e-01,7.945655961288140487e-03,1.010823922149416548e-01,-2.027696334349409629e-02,4.630179465868464878e-02,1.360360156140761057e-01,2.020430383204919189e-01,-2.273629562829529785e-02,9.103700961738275810e-02,-7.357363916093309728e-04,-1.143115255760430854e-01,-6.619070811466018500e-02,8.883383346092446620e-02,4.733857979914646991e-02,-5.996942171589255549e-02,-6.693642082622799916e-02,-3.386545965326824559e-02,1.998943072560484813e-01,4.444558891083912749e-02,3.129868563182507807e-02,3.570813029606535460e-01,1.263979554058486110e-01,-1.474345428694386340e-01,1.963874079786022409e-01,5.882491807167320452e-01,6.021335488248712453e-01,2.060097627209843407e-01,1.798696220500494714e-01,-1.922475375594893607e-02,1.138652822504615109e-01,-7.617938752687873627e-02,-2.896953370625843793e-01,-1.914102899059668683e-01,-2.107886903783136659e-02,8.975254903488813496e-03,1.156583301972908956e-01,6.027180010297136237e-01,1.034954505598181113e-01,-6.055098698181365230e-02,-1.808918582450153578e-01,-1.161689962369703011e-01,4.551149890880047955e-01,3.901459654778539066e-01,1.157284706759757059e-01,2.533700092084254646e-02,-4.122394556094401835e-02,-9.875288531076001353e-02,-4.102081106963233886e-02,-4.328170090815245535e-02,-1.889382569552179036e-01,1.626688271268653466e-02,-9.679695591653249276e-02,-3.175876309937734066e-01,1.833174097504222388e-01,1.886067361531260644e-01,3.384262986052107292e-01,1.109423986298257447e-01,-1.600732748200680428e-02,-4.270373899878630169e-02,1.793025098538165718e-01,-1.868622726318268645e-01,-4.356954827263939331e-03,1.136799404687254544e-01,4.172954000540055747e-02,-1.032874857965210696e-01,-5.721854471591719671e-02,-1.777609318899620872e-01,-1.369392541059909728e-02,3.050548118686829610e-03,-7.639227080371312206e-02,3.303515232791462974e-01,3.068381599981214181e-01,5.240317245873562513e-01,3.384008614594296444e-02,-1.530746927838102789e-01,-5.000713667934397755e-02,-4.228066339822838526e-01,-3.548804075565555882e-01,-2.205659864157618610e-01,-2.367257622404522477e-01,-2.678703045901850155e-01,-1.900343956189214645e-01,-1.064965671637308764e-01,-1.327620749102627895e-01,-4.328790762467907283e-02,2.379712422403844618e-01,1.968213506445920871e-02,-3.214565791382583138e-01,4.048779474287906854e-01,6.775641655678583675e-01,3.767964067072329670e-01,3.355718077373507358e-01,4.877473529653794659e-01,-4.370088392663893928e-01,-5.795824940076378384e-01,-3.581931688256780877e-01,-1.643804428514603067e-01,-1.630852415134489697e-01,-4.461566487443260898e-02,-8.476964280161683463e-02,-4.765250582054985501e-02,3.010880504613723876e-02,1.554561504855117293e-01,-1.339021022449150000e-01,1.224435928360355641e-01,7.950694422979517895e-02,1.898954182974937066e-01,4.300815047131382185e-01,6.991321143940665284e-01,7.160503631596616403e-01,-2.232778564397952248e-01,-3.136272935157263242e-01,-3.777814591090070673e-01,-1.323575112766069983e-01,-2.051010353796975105e-01,-8.195804043742097034e-02,-7.218408518678577634e-02,-7.499385022607472917e-02,3.352442840965037113e-02,8.639928030576400630e-03,-1.490694085390938395e-01,4.232945400493005050e-01,-1.705179313338368030e-01,1.137038113887592627e-01,3.210732615060688522e-01,7.944998634614486299e-01,4.939701036867997219e-01,1.818531302508337999e-01,1.245659047998889796e-01,7.233145839512677977e-02,8.146473956161633112e-02,-3.357890576452289555e-02,-9.756556567659291357e-02,3.230418784479257427e-02,-1.928575928737090439e-02,-4.787682423920029684e-02,3.706468693050869456e-01,-3.559505961200380708e-02,-1.362607691736301418e-01,-3.772209508561325531e-01,-2.967131259696077494e-01,-7.681303695743396664e-02,3.220213104374641255e-01,4.898378655187454050e-02,1.458774692311863852e-01,3.059697797772854000e-01,2.443293415298095350e-01,3.884500876757220750e-02,-9.458068673107582203e-02,4.488244927945748974e-02,-8.465494658197780797e-02,3.358491728046116009e-02,1.532532759698840286e-01,4.469916031696458125e-01,1.377235375674560058e-01,1.207648658951022969e-01,-1.519751040426608468e-01,-1.196213852534057237e-01,-2.832078375607269827e-01,-2.030484567397443652e-01,-4.973773133953411918e-01,-1.417306436082945223e-02,1.647573646336826791e-01,3.072943801855772539e-01,9.490138196354898359e-02,-1.783286667467216466e-02,-8.819299729043765523e-02,-9.129834430316454211e-03,2.481385058769207397e-03,2.566443375027461019e-02,2.062996287293381303e-01,1.153519655720487286e-01,1.005495412788657283e-01,-2.047981807742991767e-01,-2.160818429560504295e-01,-1.573214384251577225e-01,-4.560556275836483708e-01,-1.554368362393278025e-01,1.349943686007071819e-01,2.997859719003605483e-01,4.086718909177464720e-01,1.205131972554190078e-01,1.027730460730897216e-01,-7.578663437886948295e-02,-5.386877601810698829e-02,-9.066062279085311537e-02,-1.078177302531435622e-01,-1.580949307001266180e-01,-1.911082918231805650e-01,-7.532208655122847318e-01,-6.709557401017161027e-01,-6.383939402597644808e-01,-7.602999967638863765e-01,-8.891644792334950642e-01,-2.608413634215643873e-01,1.207546143007120487e-01,4.316743168183178048e-01,4.410018038511913097e-01,3.718505326948002288e-01,1.336063976350238824e-01,9.417094837098924018e-03,7.383990038319051923e-03,-1.788629660198131077e-01,2.129934443642920311e-02,-1.921060520999175181e-02,-2.389153914794609271e-02,-3.338954591785487508e-02,-5.897938067233537973e-01,-6.773532722146445861e-01,-5.357341096082318677e-01,-5.903728706517696878e-01,-2.354180095431991082e-01,8.564329831258800374e-02,5.089168546928846126e-01,3.690014572973589480e-01,3.523685177671198598e-01,7.877885330393109842e-02,-3.992075611634709337e-02,-9.256569953841294052e-02,1.614771777662117602e-02,1.095906673966212524e-01,7.216916564499146515e-03,-3.404811755162390208e-02,-1.315564240554177866e-01,9.539956586507178371e-03,-9.557462659090693036e-02,-1.227248092137652319e-01,-1.894845092643675510e-01,-9.488371396867489871e-02,3.984648765810729076e-02,1.940256286718542722e-01,1.236717209042706295e-01,1.486397377938116458e-02,-1.229894904696856861e-01,-2.001792000112621525e-02,-7.606813330217651603e-02,1.200371941008920862e-02,1.394511376582620032e-01,6.168293994975417027e-02,-7.011107454907428149e-02,7.865943906705409605e-02,2.916139888247050449e-02,9.821455697137170676e-03,-7.729879761532407190e-02,-8.704060588547826716e-02,-1.056130713519247699e-01,-3.521619537432887914e-02,-1.175673377122324753e-01,-4.575085297266358320e-02,-3.266771725858878123e-02,-9.979882154740440936e-02,7.368501794555261386e-02,1.583115827055559671e-02,4.788455296077464250e-03,7.620523828721137427e-03,4.880685187131848790e-02,4.265421106214064423e-02,-6.842853067784863963e-02,-5.511774425956951495e-02,8.534174685193515741e-02,1.489579298164020113e-02,5.049094872129297751e-02,-9.811231738206119268e-02,-7.849172087892748728e-02,-1.435792084277804637e-01,-1.519693395583805451e-01,-9.668955451472349000e-03,-3.345124479754909425e-02,-6.532433232113211974e-02,3.115522053767736180e-02,-3.374216983223724681e-02,-8.472827681362396501e-02,-9.206932050567565029e-03,1.049377606311230381e-03,-1.483680233657537137e-02,3.025188972845527235e-02,-2.213213200567928918e-01,7.159922312076084927e-02,-2.056933558905806383e-02,8.503887116021287274e-02,-3.315912160455247032e-02,-2.104924500440526550e-02,-2.431061520266120449e-02,-3.903088587868906723e-02,8.975666216041000393e-04,3.041093121629960191e-02,-2.322030451732443653e-03,9.543378752296595435e-02,2.027132658930763318e-02
3.290385075864952352e-02,2.880113828723617209e-01,2.208411748071556144e-02,1.223951502562764249e-01,1.512113211215881103e-01,1.182777776186531710e-01,-6.684128028972081970e-02,3.426023547552322635e-01,-2.225635064035562660e-01,-3.871468081099397329e-01,-1.429601581948913569e-01,-5.986970725803864024e-02,-1.233945416045794524e-01,-1.321122111308228320e-01,-1.196724782023375067e-01,-5.922870584531179233e-02,3.986947025332420423e-03,4.277154046816264432e-02,3.074057692189650082e-01,-9.303141193451278101e-02,-2.727720611679530505e-01,-1.052416008923902913e-01,-5.091558513551911608e-02,2.074277678617290066e-01,4.735174235861269731e-01,-1.071361558404101549e-01,-3.983174093068161947e-01,-2.946624451766181596e-01,-2.712769488569924947e-01,-1.245540484698225703e-01,-7.555626448819788288e-02,-1.077262817912693765e-01,-6.361542304593144348e-02,4.011654358205165097e-03,-1.344851808575416585e-01,1.475971848610485582e-01,-2.781369668807172624e-01,-3.929996341032998552e-01,-3.159032786646511805e-03,7.833328084056470630e-02,2.373738124137656225e-01,1.323488177522509079e-01,-9.783854296339683509e-02,-1.560469821508048971e-01,-1.560509525347086590e-01,-3.668424075073438706e-01,-1.171546607461371320e-01,-6.024741687504650556e-02,-9.363518059898430501e-02,-4.451194505838586973e-02,-3.898188520696450887e-02,-1.684047637954483589e-01,5.433609056009357230e-02,-1.247729017472961749e-01,-8.961355253806227439e-02,-1.520534122594796936e-02,-6.611026070038693303e-02,-1.010794761704444378e-01,1.277703911841591121e-02,-8.585169965941749637e-02,1.070289691289266348e-01,9.927547335018246932e-02,-1.706863730544952162e-01,-1.127618116479410237e-01,-2.296972899513110081e-02,-8.483265376296990345e-03,7.603534080330377753e-02,-3.081677959651418081e-02,-1.250875646199989533e-01,9.800743002525851011e-02,-2.398447451912966433e-01,4.181324084039356875e-02,1.122396226684261866e-01,-2.652236589877750572e-01,3.652165194779332519e-02,2.903971958921823804e-01,7.768795507913095477e-02,2.031717392535686006e-01,2.329280909522004131e-02,-1.075125808445448194e-01,-1.323980648920516923e-01,-9.085848683762928757e-02,-1.612777520084194560e-01,-2.838637880898800883e-02,3.241607423088830459e-02,-4.007592691292288789e-01,3.641150492553197476e-02,-2.248691242468654483e-01,7.761385850228195993e-02,-1.191190625673354958e-01,-6.090961274367783229e-01,-3.310543522607410916e-01,2.259289403165484211e-01,2.229475726145897785e-01,2.277949130269990019e-01,6.739088938141180041e-03,-1.368702126704949944e-02,-7.058955573933262118e-02,-5.761561379291628426e-02,-2.906012637014632888e-02,-5.549834282860300477e-02,6.084894878545339669e-02,-3.804868563372396650e-01,-4.380872411878289352e-02,-2.237783683616314800e-01,3.299618502384343288e-01,2.565131510611354804e-01,-1.198499949069604387e-01,4.227334177221619971e-02,3.336636231658275942e-01,-8.704675301865433951e-03,1.032800796345414995e-01,7.508252309933290125e-02,-8.282082266422916006e-02,-9.571327058802753251e-02,-6.047054441485986975e-02,-2.647481944060272804e-02,-2.651465836125090764e-02,1.249341147824760932e-02,-3.202737811819011959e-01,-7.536953749248197221e-02,-1.441388710356672487e-01,2.274677079489920706e-01,2.840402917740678657e-01,3.071988139879771040e-01,2.736516755863887540e-01,6.803415060331190478e-01,-7.362561485061909494e-02,-2.983306401488091709e-03,3.856093378546003592e-02,-2.383077424437584496e-02,-7.817647525707367706e-02,-1.155614008385795338e-01,-8.152977037199733712e-02,3.587192211427975980e-02,3.642192870081366329e-02,-3.090433820074393045e-01,-6.208136292152376806e-02,-4.185339410540777627e-01,-6.711359778699262091e-02,2.833728406548847740e-03,-3.825810511326343394e-02,7.335647178815399294e-02,6.448510235998647921e-01,3.153317101142138479e-01,8.543373681941923009e-03,2.119733349634293773e-02,1.016625460446924645e-01,-3.556859387777881049e-02,-1.346431901604296100e-01,-1.156593682529816064e-01,4.467675450505779328e-03,-9.700666194425064393e-02,-6.160974185994385309e-03,-1.257467637102364227e-02,-5.054308090202573878e-01,-1.046115352993776670e-01,3.164575386025668402e-02,-1.710205690908632448e-01,1.466798605296405211e-01,5.006414719940428526e-01,1.308868254949616949e-01,-1.680407190589848221e-01,-8.515741168241186543e-02,2.108276454564829774e-02,-5.571044117224493997e-02,-6.681299182618714860e-02,-1.394012465350467911e-01,2.881941467471141501e-03,-4.274783067663646269e-02,8.010322725941597388e-02,5.044770562176128376e-02,-2.740489486667339603e-01,-1.075728792216712471e-01,-9.479801332557649673e-02,-4.310134962952035659e-02,-6.393271245038227579e-02,2.274950298958162420e-01,1.802854737103808669e-01,1.474150061255504168e-03,-1.115948149718058308e-01,-1.144924908599757873e-02,-2.306487840032670211e-01,-1.437840757022574301e-01,3.680224953710057277e-03,-4.362692917666091165e-03,-8.986575591485006231e-02,-4.647501324145055478e-03,2.663520596429498899e-01,1.859329649748016691e-02,-1.553390120138838371e-01,-2.814345795770623604e-01,-1.974415873618017847e-01,-4.412587375776076404e-01,-3.741069153970432160e-01,-1.801658340106394585e-01,2.266991413252675558e-01,-6.070729765521507698e-02,-1.814312222183098525e-02,-1.851181697380001046e-01,-6.707402929432065841e-02,5.962947056715504207e-02,4.285055698548478204e-02,4.558249684599029183e-02,2.187565189446796093e-02,1.298242364964556118e-02,2.120283669649443078e-02,-5.257151542783067288e-02,-1.515284769053757696e-01,3.760655916615150002e-02,-3.174771936260907257e-01,-5.692232534649545039e-01,-2.468466998861745532e-01,-8.290340773203311309e-02,-2.165908416855178223e-02,-6.953442721211178235e-02,-2.353932304738540898e-02,-1.376844239820858018e-01,-1.285547755853623693e-02,-1.144209532612837192e-02,-4.022240393181121185e-03,-3.454380667657002552e-02,4.499211365912464400e-02,-4.635056381658800295e-02,-1.304390685025856866e-01,-9.593916381716001418e-02,-1.194325244066879455e-01,-9.762369116786123735e-02,-2.136414200644575767e-01,5.027144841455654170e-03,-3.083402700716489711e-02,8.857563172339583124e-02,2.154116052563529241e-02,4.667250932436894928e-02,-7.875069964685531276e-02,-7.970659064059404386e-02,-2.738253037386021924e-02,-1.429774125299107870e-02,2.180295583906439322e-03,-6.153736960528911892e-02,-7.994601039822996080e-02,-2.417414544176209670e-02,9.763381707165325052e-02,-1.186071746140438116e-01,2.633863017785681090e-02,8.907965518248772696e-02,2.715815057964216656e-02,1.735138536831905970e-02,-3.227290233901587702e-02,-6.593313203107996345e-02,-1.609741570044132160e-03,-4.246695129835179744e-02,1.296433108888924157e-01,-7.943914685609400339e-02,-1.714735745171064654e-02,-1.832251785700492880e-02,-5.002480269781008765e-02,-8.761238144846865417e-02,2.704219866846202178e-02,-1.550241615963034690e-02,5.997568751123619202e-02,2.552757938673132221e-02,1.951048136894745905e-02,-1.148436785466868705e-02,4.293029846273371808e-02,-4.660184889942819986e-02,-3.090750519494759804e-02,1.117276210363768625e-02,2.527787137812498308e-02,3.951476813715049975e-03,8.556156447123126896e-02,-1.353271694541463045e-02,-3.913748290704543997e-02,-4.791103336480589253e-02,-2.625159660742711412e-02,2.543236140799113448e-02,-2.852268009182024749e-02,9.119895299248076403e-02,-4.700425202093801852e-02,-7.636947379089292776e-02,-1.744963536673276028e-02,-6.818075381605891681e-03,2.775295497220228030e-02,1.610434115144819545e-02,-1.614460303510146383e-02,-1.048289225480114432e-02,6.858288891515758497e-03,-5.771085491548062080e-02,-3.913910668626039563e-02
1.555554272651966108e-01,1.279391203437491298e-01,1.708939950275658454e-02,-3.387673624419344255e-03,2.845960840398124511e-02,1.760450177727281851e-01,1.337989257999459558e-01,1.476734908791275669e-01,-6.593352310377863235e-02,-2.446743025823480133e-01,2.016824200898123184e-02,8.749707924467030329e-02,1.026919091718186267e-01,-2.322064535019514528e-02,1.019942902969768472e-01,-9.367043810496090625e-03,-1.400302077924786281e-01,9.120428060618913924e-02,2.107213369174627537e-01,-2.339171740076170097e-02,-1.632330695755679351e-01,7.641711868326980794e-02,2.679473982225962225e-01,2.786480107345531976e-01,4.834188193657645155e-02,-3.905283901323430146e-02,-7.775850656625275803e-02,-6.067381464866080515e-02,2.306377171896330583e-02,1.650039582048311859e-01,8.155539119127729053e-02,9.000506555724280267e-02,-2.768252346453840482e-02,5.588323114463913249e-03,1.431567560402342842e-01,7.443021079261924466e-02,-2.864863998475052076e-02,-3.394289361393201254e-01,-6.939191218659729321e-02,5.420659281784373507e-02,2.499813987495143608e-01,2.071871413817562013e-01,-2.450629966509127941e-02,-8.107569573022339882e-02,-2.106928960671190787e-01,7.505509112984393161e-03,1.605341760113360716e-01,7.969745560932343931e-02,1.101445136785056678e-01,-6.289764302724742961e-02,4.046415335194422647e-02,1.262684120505118690e-01,4.310409573100645875e-02,-1.197476275461323431e-01,-1.208450461755363192e-01,-1.498174226970226952e-01,-8.268618005090067058e-02,-8.329612293988554461e-02,1.552824649103337618e-01,7.116031578749029696e-02,-1.138045405773483870e-01,-1.009500304534261261e-01,1.274110947948438322e-01,6.744290569130263757e-02,1.773335461879513575e-01,-9.612877316556583604e-03,-1.335760427888776913e-02,-3.754777922737597556e-02,1.587236221021941576e-02,6.747993882235600593e-02,-1.707336658308767838e-02,2.200877663436042950e-02,-2.584850507005323483e-01,-1.842831288400132717e-01,-2.194183251227955697e-02,3.635596352394508679e-02,3.671733751548380761e-03,-2.833702598942668474e-02,-4.610487867332282302e-02,1.262331084220986444e-01,-5.508121638133777961e-03,4.512819773853136290e-02,1.325595565530328090e-01,-1.744001768037182695e-02,-2.817309762711395910e-02,9.424385547698074794e-02,7.825242210327282288e-02,2.836375020906525823e-01,2.184538151798634531e-01,5.651151024105772330e-02,-5.791234841935969865e-03,-8.186294689677188832e-03,3.065608232612651932e-02,-8.728091653297427588e-02,-6.829313531502508028e-02,5.978129036249894834e-02,4.220899278223756018e-02,3.185320505674590214e-02,1.644803788011477141e-02,-8.688178552520077480e-02,2.853865914635096701e-02,-5.320083644161294201e-02,6.136515262878541876e-02,7.479754740964444926e-02,2.390901973957154092e-01,2.312651467658790316e-01,2.751068899168489512e-01,5.261842491608777900e-02,-3.573622417353589792e-02,-1.123865266683440542e-02,1.060225518309864945e-01,-4.538113650987517234e-02,-2.025415235227256416e-01,4.332522443971779241e-02,-5.120473522881572627e-03,7.879569501625856287e-02,-2.858693711968767186e-03,4.046167605728766964e-02,7.385283895845923263e-02,7.488086243249630902e-02,3.132070185578543497e-02,2.944509126059738705e-02,1.417052303189464679e-01,1.873977625404000535e-01,-1.614610481250648988e-01,-1.449384513271590458e-01,-2.089618238884730431e-02,-8.828650501918181015e-02,-1.239414469485867476e-01,-1.285344438290843549e-01,-1.140642500194232328e-01,8.883722535593502334e-02,1.350604169353041561e-01,2.469416959495942393e-02,-3.381823027286155053e-02,1.381331186290254455e-02,3.546111537806339448e-02,5.667407629169740613e-02,-3.771788907775957406e-02,-1.449933428480234751e-02,1.854998522892060964e-02,-3.886329590907026260e-02,-1.691248805721690673e-01,-2.399285525632957605e-01,-1.304611507121857840e-02,-1.478992607000680914e-01,-1.549052513620073346e-01,-1.559268887482148647e-02,-3.030536687829638379e-02,1.088220435997935692e-01,1.832746069609061113e-01,-1.305569874778956529e-01,-4.459328191230963606e-02,-2.133755407687510167e-02,6.459284897391916191e-02,2.753981619793754651e-02,4.286413058821834932e-02,8.400069571346445657e-04,7.458959880018400934e-02,2.236198080093451321e-02,-5.121329252303549046e-02,-3.116890528427200199e-02,-6.446848001305825748e-02,-2.872224604384595037e-01,-1.805073850474621204e-03,7.564465360383317016e-02,2.365072946530665313e-02,6.378600407214846113e-02,4.423859058918235693e-02,-6.075986450042857728e-02,6.654995574507351075e-02,1.753463486412354111e-01,-2.080062123083504383e-02,-3.993605968332664125e-02,4.259664410659094042e-02,1.983108446331338370e-01,1.709920797767296441e-01,-1.906420515774806188e-02,-4.246672703474908134e-02,-8.300899796180200366e-03,-1.515108251951806650e-01,1.033136340563640398e-01,1.339631343947123888e-02,3.829495362320092799e-02,1.120695269579053688e-01,1.336762356073570301e-01,-1.439198309605812381e-02,-1.242993844788817248e-01,-5.881555725187583017e-02,-1.064959854349745161e-02,-5.136048288549747987e-02,1.030018681340205688e-01,8.402508142185050044e-02,2.994460339290783840e-02,-4.955857142768595180e-02,-1.003945986838422066e-01,-3.418413804190439387e-01,-2.669590728417779446e-01,-6.484128864061440567e-02,2.748371053281520142e-03,8.880361773865086406e-02,-8.081858112482902257e-03,-3.815566336338173381e-02,-1.062479964804150662e-02,3.408295310315686416e-02,3.458030176961338076e-02,8.297442578116019651e-02,-4.741653664946784974e-02,-1.458021471430297027e-03,-4.529801053313164266e-02,9.001051935627217560e-03,-2.230813100386114939e-02,-4.115131942328000697e-02,-1.337783885485827606e-01,-8.986769592374969917e-02,-1.003796370419157008e-01,-1.836259584100133693e-02,-3.072900464955825861e-02,1.345710066695180417e-02,1.588729243798558954e-02,2.467472839026542755e-02,-3.720520151856254037e-02,-7.979193342968896041e-02,-4.431512854998916583e-04,-5.235233953403661128e-02,4.356579144010409854e-02,-2.076280439119839449e-01,-2.933633042040643124e-01,-1.591808595142724381e-01,3.587363251241445367e-02,-1.185443091465857302e-01,2.970424819051094290e-02,5.262255685364223244e-03,-5.183925197745984335e-03,-1.019109833230079365e-01,-8.827186728864476473e-02,2.555016878914039696e-02,7.994931854273082394e-02,-1.079574089930220165e-01,9.547635428986918360e-02,5.535004221724759005e-02,5.648465574923645233e-02,1.062592612880031845e-01,-2.443362443197268918e-01,-1.438094652476343827e-01,-2.980283665447714392e-01,-6.928309988900065164e-02,-2.954406226762125720e-01,-1.292938554391030448e-01,-8.311418353122751457e-02,4.504767521064932667e-02,2.934386171664718490e-02,-2.986595656653476608e-02,-1.906642625230036206e-03,7.734493916899502775e-03,2.883927766722800372e-03,-1.095846064146514670e-01,-1.086756277274477239e-01,-8.541418128976252522e-02,9.784107276376828588e-02,-4.873985118218262386e-02,-3.346688606722564852e-01,-2.395130778973593999e-01,-3.318174312276672699e-01,-3.312100497581048075e-01,-5.686605616902076776e-02,-1.258911464248671785e-01,5.117040482133843049e-02,1.923282256218160693e-02,-3.866789152189561984e-02,2.564224402680290171e-02,-1.264683668751030443e-01,6.815408263613932996e-03,6.689517749035174543e-02,3.714656017407920452e-02,-2.054040327768118582e-02,1.096395818973563974e-01,-1.033205223590329645e-02,-5.740392419431514931e-02,4.538399411739955230e-02,-8.908221522168693896e-02,-8.037647544564799351e-02,-5.844689279200503823e-02,8.474871029574491954e-02,6.234261467885457431e-02,5.710336846676366401e-02,4.366927242526136288e-02,-1.549643092114084443e-02,1.112865151253049634e-01
-9.179759754575070319e-02,-1.359645548231954715e-01,1.434676558620140430e-01,1.905904814550700710e-01,4.647627123709713870e-01,4.089183988899718902e-01,2.484520091531838837e-01,-7.731626511063631468e-02,-1.821200273227465138e-01,-1.322653093176000549e-01,-2.449318589955237768e-01,-6.505903318885560005e-02,4.790165466298746538e-02,5.574107760794787952e-02,3.185069259454552468e-03,-1.140232738869263046e-01,-8.262931672916370984e-02,-1.391024605869868036e-01,5.870001373973405406e-02,-1.629997717034797067e-01,7.965928995189569539e-01,6.220010602302167291e-01,4.758215060681695863e-01,2.607303297704947065e-01,-1.308652790461673973e-02,-3.558244672797035157e-01,-9.754586122436592621e-02,-1.386257154163313132e-01,1.770280367843619224e-02,1.495737485646289888e-01,5.111955909568302592e-02,-2.076471186679578959e-02,-5.040561492796011289e-02,-2.844537939478151284e-02,-4.413255007755557957e-02,3.157145643831514858e-01,2.977164856866051368e-01,3.308820442993344879e-01,2.464796079680013074e-01,2.203706680103629523e-01,-1.490705007719363706e-01,-4.123365246598100220e-01,-3.207662826116578492e-01,-5.468955394352741778e-02,-1.328101293782893710e-01,-3.257858515097485780e-02,1.340079844733157444e-01,-1.514827968942636036e-02,-4.795945983042411605e-03,1.664363901802105306e-01,-6.701741059236201656e-03,8.998116553839202725e-02,3.091741460434320188e-01,1.271792030254879635e-01,2.553096912601244828e-01,2.808585604079612552e-01,1.336494225535602431e-01,7.485740340869911913e-02,-5.321025222317872228e-01,-3.538215849703028049e-01,-2.981966506301294006e-01,-1.563726263831892727e-01,-1.324770836869837987e-01,1.106143768525577331e-01,-2.503366014551662577e-02,-8.214420518714884989e-02,5.525103360818860859e-02,-3.185543383892750369e-03,-1.682270632239653285e-01,2.859368941268070619e-01,3.179725696550999015e-01,6.676398354827250969e-02,4.122447505136097035e-01,2.530399587962420260e-01,-1.367143817869629907e-01,-4.954367178689633167e-01,-6.683423310132317052e-01,-1.547430558429237213e-01,-1.810500194721261641e-02,-1.787743163434017679e-01,1.405650685168269298e-01,4.140399318124070305e-02,1.944065502661675160e-02,6.049368373457265219e-02,9.353622868443654467e-03,-1.476837650441797933e-01,3.542938224831374550e-01,-1.583543373986832925e-01,4.903609750746877327e-01,6.973273266797501702e-01,1.061540856378234920e+00,3.231604345845878745e-03,-2.353325267509967789e-01,-6.125891358322872460e-01,-1.275651828292911349e-01,3.247258612021265006e-02,-9.522147099126714032e-02,5.549992556124484083e-02,-1.055865917806128249e-02,-1.141005748740474626e-02,3.487017590488317772e-03,-2.407408935760597946e-02,-3.713617247143941036e-02,3.282090049010068511e-01,1.607958615291751325e-01,1.265306632243942131e-01,6.350102116242476447e-01,1.050139782514393438e+00,3.430630062469696151e-01,-9.888830606066170703e-02,-3.886641360556456481e-01,-3.089827694121940471e-01,-1.799590477684161194e-01,-7.435398707258064621e-02,-2.491969677472394718e-03,-8.395266668344082694e-02,1.574337004806195262e-01,9.961460873960865936e-02,4.405794390973853669e-02,1.698630933340106175e-02,3.019980004118887895e-01,-2.385050966142506779e-01,-4.862633441976665916e-01,9.942926747318388270e-02,5.055407896495185405e-01,4.587055338631098600e-01,2.062294617316685064e-01,-2.805907656887302037e-01,-3.671712491995118843e-01,-3.478721729059863210e-01,6.016524802236453834e-02,-4.078125076094121088e-02,-3.469290221718356049e-02,2.899299350342179199e-02,7.359462378514809722e-02,-5.753617980155542599e-02,1.334842317511835963e-01,1.672594896136751497e-01,-5.598846791594203065e-01,-3.679736208170130141e-01,-1.878949626062665079e-01,2.874693475560867184e-01,6.944608255172498579e-01,4.750641809055824449e-01,-1.089698635198702026e-01,-2.737143055605208986e-01,-2.410059175961787037e-01,5.114988884414196392e-03,2.768068930869883523e-02,1.078620692181064961e-01,1.105543219349378742e-01,7.157096039827681722e-02,-1.166885465172916025e-01,1.154631243817131128e-02,1.056320719781367878e-01,-2.859176315954414793e-01,-2.253056033732263042e-01,-1.889982121211283006e-01,1.350113551403784307e-01,4.449876319627207866e-01,4.326863766938131572e-01,2.395902981110548113e-01,-1.048911070234446324e-01,-3.917325332117970182e-01,7.342646271484032372e-02,-1.437779241769558125e-01,2.601368470702245667e-02,1.172196016331714524e-01,3.978679995128901054e-02,3.638788401068149964e-02,-1.401922827827015439e-01,-8.790358536625653141e-02,-2.282878726343103293e-01,-1.357545603936805706e-02,8.371365585521238495e-02,1.189280647504492999e-01,1.633911642691608657e-01,3.441963310927309561e-01,1.989693388891732861e-01,6.943859079769620912e-02,3.333625297693736111e-02,4.661248494392333103e-02,8.224381786828720287e-02,2.822273863549492473e-02,8.017486371407105475e-03,8.616487923453770847e-02,-3.513137696202531940e-02,-1.981502208991405278e-01,-2.691652969548184032e-04,-5.997135369921607895e-01,-9.859779971272357446e-02,-5.231177821133846662e-01,-4.751138239887815473e-01,-4.231866067743750293e-01,1.978853445006619749e-01,-1.904835573075721322e-01,1.585303556534409242e-01,-8.704234940989027947e-02,1.016795707877607702e-01,-2.753063966404005469e-02,4.032144737138940171e-02,7.024518820099820426e-02,1.379454948059371799e-01,1.057052741704535836e-01,-1.597308945510199918e-01,-4.710376867476774587e-02,-4.487516725555265040e-01,-4.573024422289171387e-01,-3.393746972014535235e-01,-5.881314633849118456e-01,-1.967481764635926333e-01,1.672824126860412153e-01,-1.247122338886498399e-01,-7.424085134852120849e-02,-2.238760325346495772e-01,-1.199574899062618577e-02,8.178298974927557599e-03,2.642428905165312980e-02,2.083668628572681591e-01,1.112473934022407407e-01,1.337941743833203842e-03,1.439538164301514423e-03,4.172778866454038976e-02,1.627522041254171256e-02,3.865712051915751873e-02,-8.491944759310157687e-02,6.688806020014483045e-02,4.159862863768605534e-02,-3.457576012559387957e-02,-2.427323441204564877e-02,-6.787831814917186235e-02,-2.519496078758048374e-01,2.496315481119376969e-02,2.869603390273818208e-02,-2.345059300134182123e-02,-5.983182447263778181e-02,7.408480511635057511e-03,-4.493208122098258511e-02,-2.742570034552323580e-02,-3.961014155207497056e-02,-3.019165556584589918e-02,-6.343830700784340582e-02,-2.915579065238365838e-02,1.484964310995490200e-02,3.748086374023206629e-02,-5.488367691533363631e-03,-7.223132697609786768e-02,6.166635224322474657e-02,-6.885911722726661965e-02,-2.638851970189448962e-03,6.552518702248670557e-02,-5.255949704952102286e-02,3.611951428459379138e-02,-3.213587025100352740e-02,-2.950355687746773758e-02,1.412992443550103658e-02,-5.654280269005237253e-02,1.042622837984709915e-02,-4.159214900168282242e-02,3.475443422558446068e-03,-3.715519108378220921e-03,-3.819267441050810952e-02,3.171896737150618761e-02,-8.803193095230232856e-02,4.052634444135568004e-02,8.441294699974874471e-02,5.160238016720625209e-02,-1.343850938481094479e-02,3.341706652383676784e-02,4.650477375308127714e-02,1.413070292425159732e-02,-2.011813533571897572e-02,1.749863348705787275e-02,2.023170804234358452e-02,7.993947036462488442e-02,-3.303648100393842546e-02,1.404707421927579337e-02,-2.616252144055299100e-02,-1.797686126531273382e-02,4.093039633343633493e-02,-9.439321374838635648e-02,1.525482258068917851e-02,4.095510730666940963e-02,6.886335893721871881e-02,-4.985475450421449073e-02,9.276699127130304257e-02,3.931277044723111014e-02,2.798284886428167514e-02,6.466026321554034506e-02
4.717297974539244598e-02,-1.386336181610567098e-01,2.567059872170494167e-02,3.873805935361658570e-02,-3.831799560022992879e-02,3.128227833595762508e-01,1.438800105729518830e-01,-1.670489625212145945e-01,-9.582993375928183788e-02,-4.861763455890644181e-02,-1.220747285066271087e-02,3.400152372637222503e-02,3.872048496097556941e-02,-5.172482252954333642e-02,-1.060783678981687926e-02,-1.561784701807411059e-02,2.019054134251535570e-02,-3.952838628669470833e-02,-7.882064300941546420e-02,-4.813447909571015593e-02,4.783488266945098433e-01,2.576659757573608253e-02,4.463005929214065165e-02,-3.268784904727687138e-03,-1.450090107969607967e-01,-2.792596858583979991e-01,-3.997949648518301924e-01,-1.114432750134068534e-01,1.556044630836929121e-01,1.261516967680450796e-01,1.541574412768824398e-02,5.342856960466051131e-02,-8.382277703352793803e-04,7.643050998237334304e-02,-1.446651775658988337e-01,3.979711848671600022e-02,1.184639988689692031e-01,3.675454849864546736e-01,8.879207038037896516e-02,2.267981049642237290e-01,-2.093280338808891361e-01,-2.804434063604761551e-01,-4.953289099298471276e-01,1.002044431447188660e-01,-1.155196835024692587e-01,2.179660066860125978e-01,3.056421637606208108e-01,4.773636771871854131e-03,-8.628584020814872302e-02,4.853229488648896223e-02,-4.089085905950586020e-02,-2.791060343566396096e-01,-2.386933818690075981e-01,-1.702194038855719127e-01,-1.691154175554414052e-01,3.530572827343612663e-01,3.264137508162806012e-01,1.594943218348951197e-01,-6.218686222155045407e-01,-6.553286620847749155e-01,-3.186870476268707231e-01,9.588834307310983851e-02,5.633267641877071075e-02,2.018474205603840721e-01,4.769994562054793302e-02,-3.461874326557621423e-02,-1.083967026399749144e-02,4.801581338725244980e-02,7.351943140781276066e-03,8.679249904076902222e-02,4.087329854273274304e-02,-2.621392561816691114e-01,2.007476352546335718e-01,5.781636971468505637e-01,-9.613744359847875565e-02,-4.924444630125225375e-01,-8.093818031191130080e-01,-6.309355069540201200e-01,-7.197785885646924842e-02,6.052926797270346410e-02,3.615527987646938862e-02,4.910516979068043492e-02,-6.819535766927843634e-02,9.671061371737865731e-02,4.367121795092369224e-02,2.203994637032269943e-01,3.973008961464413041e-02,-2.359060474643888405e-01,-3.804820165375257801e-01,7.200724057166957293e-02,4.099765632112586933e-01,-4.915234527398096298e-02,-4.215870158048454774e-01,-5.560710184425565750e-01,-2.383265534354973569e-01,-1.530651367814344910e-01,-3.931151741466779731e-02,1.003022930150865577e-01,-5.505963050318364582e-02,-6.920328130731098759e-02,7.057715964541455556e-02,-4.269452340056255693e-03,3.701004224156456135e-01,3.401320301925751521e-01,8.912837628300948611e-02,-3.502938012385817812e-01,-2.783115721441944412e-01,-7.143404159283246735e-02,-1.264058207005160084e-01,-4.431478094100167464e-01,-4.423155076168008293e-01,-1.449408264676254332e-01,-1.182506359890058700e-01,1.146649209267241037e-01,1.506935558956970164e-03,4.100375732837755610e-02,1.501549566131743160e-02,2.583438375627137868e-03,4.698420169615493552e-02,2.077209746561544390e-01,4.038908688228167732e-01,5.768264358753377730e-01,-5.527004647841942536e-02,3.874064315807763947e-02,-6.499975155910717173e-02,1.071852030605637968e-01,-9.072872360610920173e-02,1.971772446674170676e-02,1.814015436091161726e-01,1.374312677207394084e-01,1.410829407379034228e-01,1.256031129910251676e-01,4.380989476881739673e-04,7.701606197070894055e-02,6.492601611714389487e-02,5.512035578465765938e-03,5.594135442530294711e-01,3.647574958949845181e-01,2.566040916066452682e-01,6.364110887190542465e-02,1.734444276715369215e-01,2.049916453804754291e-01,1.257583066840183283e-01,-9.851100904526387259e-02,7.409875866662642141e-02,1.738274296021770707e-02,1.794713957128904747e-01,3.678080759896118490e-02,1.099889029002944218e-01,8.844412800559997567e-02,-2.243626598916581213e-02,1.387313063790835965e-01,3.007824167482075692e-02,4.511578409712416193e-01,-9.686366164720980332e-02,-3.843786783640008864e-02,-5.408301500816058149e-02,-6.460504661981644747e-02,6.273793627793117222e-02,-9.158427410319254502e-03,-5.209964170029397768e-02,3.868581637721203725e-02,1.183138729321299015e-01,2.482817582076701501e-01,1.389826729135328343e-01,3.312823265689868873e-02,4.146951708721507979e-02,1.129754495261830749e-01,9.828876752128824779e-02,2.634800898789030257e-03,-6.371755549785372563e-02,-1.295094918783235849e-01,-1.175726320024422789e-01,-3.741128037552971519e-01,9.785917906104949632e-03,2.174518118296635272e-01,3.647801613415777022e-02,-8.293704286913197721e-02,-6.822297221040994619e-02,2.623652332174492355e-02,1.527132268014707861e-01,1.032381181248161889e-01,1.383850996965529656e-01,5.659816432774734951e-02,7.730060190282020405e-02,1.397169034192878301e-01,7.197140927333309235e-02,4.548580852714972922e-02,7.939189286828013392e-02,-5.124327485606829102e-02,-1.758009566688109593e-01,2.279346339900465215e-02,-1.908345014304633214e-01,-3.521444494952980508e-01,-8.695733144054504371e-02,-6.447377776285836970e-02,3.142262026466983715e-01,1.753649882403000015e-01,-5.902405660899634823e-03,7.622178267624704628e-02,1.182564428793348998e-01,1.449507004125353826e-01,9.578578887464418712e-02,-1.614019809552010454e-03,2.855972878543909868e-02,3.325603889010738182e-03,7.602632049173597972e-02,-6.501708492020905061e-02,-1.554392848385431902e-01,-1.234185715764148233e-01,-3.092091184530334491e-01,-3.024207668920553260e-01,-3.100905073937339496e-01,3.053471360655991562e-01,2.433113597320908372e-01,8.649283539100412199e-02,3.574283441439889825e-02,-1.054488469088501156e-02,1.469888410926776801e-01,7.116509745556313937e-02,-2.348538964555764788e-02,-5.100017103029236276e-02,4.226334442383079121e-02,3.138082168622844531e-02,-1.829599414301163324e-02,-2.695737539767743829e-02,1.493874990138711056e-01,2.809096491412700347e-01,1.488546830332454843e-02,-7.140299130836063463e-03,8.627677532682406780e-02,3.185635160219584677e-02,9.386732406344634738e-02,1.550256051579718408e-01,3.450150980090541109e-02,-5.970384600340235270e-02,-3.798550255045465840e-02,-1.105165589471940627e-03,4.493040678731034798e-02,1.579770154414894198e-02,-8.379182801833262974e-04,6.241094855128065388e-02,-7.405042676640478938e-02,2.709316258837209945e-01,3.633193259640873363e-01,4.649412002591287174e-01,5.870567909338201239e-03,3.659967177466890154e-01,-4.339525500570853844e-02,6.121848244292865671e-02,-4.310035840188813851e-04,1.477389059362849448e-03,9.290040374544700219e-03,1.512096246667347411e-02,6.142807467080153849e-02,-8.499840213453510596e-02,1.177078932839010911e-01,4.319715202203588261e-02,8.871486794828731259e-02,3.993647675260502544e-02,7.244238527667899719e-02,3.479923400575240522e-01,3.494711680044862434e-01,3.038599527125752098e-01,4.184745632813917093e-01,2.241162230372036601e-01,4.104519316216221486e-02,-1.141392056737064020e-03,1.399699823094441575e-01,-2.976168331717429436e-02,-3.675665614116557789e-02,-3.547692958000679686e-02,-3.617352962150027079e-02,-2.538079217211077279e-02,1.898608104867868795e-02,5.235208069923982799e-02,-3.094985848789271604e-02,-6.038812830524348252e-03,-5.903183510359626823e-02,6.738022944115860946e-02,-1.208381440730423376e-02,4.719952062963293088e-02,-5.848326295960831062e-02,-1.016665828477197539e-02,-1.933779524270148875e-02,5.510611343362317727e-02,5.298051463395692107e-02,-8.139310054286277157e-03,-1.002970533259963659e-01
1.060237237744688643e-01,1.274118508725387011e-01,3.566827712805594186e-01,6.135669207868894581e-01,6.451330128628308680e-01,6.047576541354517943e-01,5.366359038066876863e-01,4.140229000867973186e-01,-2.992333974967454485e-02,-1.842681974372844811e-01,-2.283884040036888996e-01,6.281903812869757409e-02,1.152628572133607421e-01,1.963597447633896528e-02,-1.853749615112092186e-02,4.130995371554890827e-02,-1.790390109081162542e-02,4.152881129819409323e-02,-2.177049723561284011e-01,3.948963198434214394e-01,5.874515178388186598e-01,6.440127374493422874e-01,7.024220949359762933e-01,8.642863520802143151e-01,6.824186832981006257e-01,-1.435059116378888111e-01,-1.657631441253773485e-01,-1.561752705562926280e-01,1.290950520922089229e-01,9.694127348653631959e-02,2.123665737702825629e-01,9.278265437542052019e-02,6.523958318803194621e-03,1.607183846368840513e-02,4.861781935022278789e-02,-1.089238721020779899e-01,-1.782818196379200859e-01,5.891291759114347659e-02,1.693659413698815341e-01,-2.383460937569271271e-02,3.502285399619348150e-01,2.102729340939581970e-01,9.675272966544233577e-02,-2.359128736098519419e-01,6.555858998239268501e-03,8.181148297278276194e-02,2.024836428318113335e-01,1.638166931503874072e-04,4.033991620661297323e-02,1.328046775611088082e-01,-5.507269630259902654e-02,-1.949456355206045932e-02,-1.476517714965460970e-01,-4.077376489065762666e-01,-2.490819958324636263e-01,-4.881108967888948130e-02,-6.480595557248712557e-02,-3.351909789632024489e-02,3.624324922781649305e-01,-1.740609712923709140e-01,-9.497064249423765869e-02,-5.735387283326764257e-02,1.261316961714547824e-01,3.818983953457828762e-02,-1.646215440950752132e-02,1.353221023704357859e-03,3.391030430903601428e-02,3.927463549190855080e-02,8.750539902179629848e-02,-6.700146340000778800e-02,-2.718199235187171436e-01,-4.116095282942311973e-01,-6.655511819445350530e-02,-1.297991520475847704e-01,1.700973804834406827e-02,1.750381184500875986e-01,-5.904973644459874521e-02,1.167664651703853307e-01,-1.328338944584305237e-01,-9.116258125054028244e-03,1.157349671589213286e-01,8.405718525823942244e-02,1.302964107072633881e-01,8.363088701253433566e-02,-8.834402330218160682e-02,1.787243900519833728e-01,-1.079148967078108999e-02,2.962188505974869268e-01,-8.129074549726940380e-02,-2.859194979456543013e-03,5.199734610110313959e-02,-2.958601882545623396e-01,-5.522943506069023512e-01,3.501870339048136077e-02,-1.054623144839974963e-01,-1.099725657908277171e-01,-6.955245508319955750e-02,1.772857030781080090e-01,1.127721150565471897e-01,1.684835770804588018e-01,4.751826149759881546e-02,3.817201232007028794e-02,1.888972150828805707e-01,-1.938717187565655586e-01,-9.458882341148253103e-02,-2.705425548738525365e-01,5.521992906108678240e-02,-1.218735929986881628e-01,-2.703624692274931851e-01,-4.310614500553102690e-01,-3.148165868354892150e-02,7.055775505094072364e-02,-1.362684420420839371e-01,7.874752828460870879e-02,2.687594418861116718e-01,1.498621635757536597e-01,3.014569298866006872e-02,9.227736699709348026e-03,-9.804660811813272620e-03,1.285821018588166054e-01,7.301287713603946128e-02,-3.332062796663661786e-01,-2.542695763810054466e-01,2.725382352535499902e-02,4.076617196758115921e-04,-1.653062133988960902e-01,-4.813405644905801029e-01,-6.071821367954140930e-02,4.320532720817843453e-02,-1.517754917539329840e-01,2.054027184969937081e-01,1.729156374503158233e-01,1.716078708604069358e-01,1.812810663137912337e-01,2.719556964750320313e-02,1.530042074419694399e-02,-9.571560642267101793e-02,-2.273573040603336926e-02,1.166305828995892191e-01,-1.476065762929328617e-01,1.027356594269738105e-01,-1.761603316633161831e-01,-3.132075290545138224e-01,-4.293951232016018360e-01,-5.908644997917195107e-02,7.977390552500913945e-02,-2.335000367878201089e-01,1.098434217117870565e-01,1.905995356783750094e-01,-5.137391549201675983e-02,1.131176866189359531e-01,-4.628706335894346852e-03,2.759840416115908954e-02,-6.649577771652591396e-02,6.831727914654930033e-03,9.149832973322741259e-02,1.805155718626159367e-01,-1.027959716649236022e-01,-5.236313175870831865e-02,-1.855446457621807987e-01,4.093416225062666836e-02,-5.982450664224444464e-02,-2.382235858209500942e-02,-1.100248737386518710e-01,8.621629805584812845e-02,1.980076028372392827e-01,3.362940575805605653e-02,-4.783948267861440166e-03,3.696357838965910747e-02,-6.812054594357089266e-03,3.034155666849586153e-02,1.063528470551780569e-01,3.226195956479135929e-01,4.275151259161963369e-01,-8.287594222536480426e-02,-2.971067812889370274e-01,1.046843371383952975e-01,2.380398411453863439e-01,-2.699906396988436749e-02,-1.398809746374401197e-01,-6.756601365556150207e-02,7.846438797274726817e-02,2.661313458265797127e-01,1.716683437644977162e-01,3.921949867760903159e-03,1.213686499660319822e-02,-7.451022591044181333e-03,-3.726460789302463161e-02,4.089882390299990483e-02,8.875505745639310495e-01,8.501161839661554032e-01,3.523365662463799897e-01,1.202390426846407095e-01,4.663603708792893321e-01,5.627233229630376199e-01,4.495955146036171440e-02,-3.129413712251896684e-01,-1.027263456515213474e-01,2.163925283461207993e-01,2.070639734946819466e-01,4.749714853892900157e-02,3.137697119387090894e-02,2.096186352795032654e-02,6.449772163143140113e-02,-6.335523769310739961e-02,-9.940818778594949501e-02,5.408718373552627856e-01,6.134279368109220032e-01,4.412127716367481023e-01,3.457653930233957618e-01,2.691140730886712462e-01,4.539759362223211858e-01,-3.879739788698002845e-02,-9.517801878491177758e-02,1.604409882193397890e-02,1.388356513078850829e-01,3.751296321193980238e-02,1.057800308295316905e-01,-4.523657584712664770e-02,-3.736626964791876782e-02,-7.155842265352824194e-02,3.585159897240971366e-02,4.075669875428646061e-02,4.899483138570570606e-02,2.372898203346099355e-01,1.713922925823883198e-02,6.496390697151524507e-02,3.020018615516588401e-02,2.032564048296257864e-02,2.950314330673186117e-02,5.372270208339355313e-02,1.325515566846806326e-01,1.431699548850981669e-02,-3.461817987941016861e-02,1.058376084250422199e-02,5.294744306815286211e-02,9.176667160486944030e-02,-4.449950323355413018e-02,-7.965512366956268436e-03,1.493041207707940330e-03,2.827743705093265295e-02,-7.244070624723616958e-02,-5.032581840274183427e-02,3.582882650831059612e-02,8.108447084687110673e-02,7.573782108331265917e-02,3.674576975733892525e-02,1.025649879617657051e-01,-6.608550653110040196e-02,-3.406166837535481301e-02,3.009908168035048751e-02,-1.345333649469899855e-02,-3.948951950535734695e-02,4.557508175547164003e-02,-3.449520253042401979e-02,5.673777083483560330e-02,5.833053251878390216e-02,9.191887777574318796e-02,3.709247981811957667e-02,-1.496304091032358598e-02,-2.309880994784310748e-02,2.617456979087752489e-02,-1.651652887457796814e-01,7.864654832337790447e-02,7.458666917596930290e-02,-1.144178876528610944e-01,2.293716304419870719e-02,-1.080483279212890446e-01,-2.041167226649470701e-02,3.880883929346606170e-02,-9.223800875617631234e-03,-2.547851670329685791e-02,-2.849220495402828360e-02,-3.399340493914362882e-02,3.586310549155180549e-02,1.782280723408529582e-02,8.775706097294380670e-02,-2.141723568718605086e-02,2.869591540772012048e-02,2.488239140372018599e-02,2.481115739278851040e-02,1.337486196714889053e-01,1.089804696957090598e-02,-1.879895878201828241e-01,-2.248580507933329448e-02,5.223884015005803017e-02,2.261624895946919359e-02,2.246891874792264487e-02,2.198999153701266043e-02
2.999461977658386680e-02,-1.184364611667914208e-01,-2.615163493599937869e-02,-1.397877685763825872e-01,-7.754220798197132558e-02,-9.549782574246060141e-02,-1.346773877150933552e-01,-2.103774362637791107e-01,-4.389172949951650540e-03,-3.779351660935351825e-02,-1.250430527183885032e-01,1.749948740438212955e-02,-1.732634810953285337e-02,1.704783404891776696e-02,-2.974420681090831145e-02,2.591975340144473880e-02,-3.398572749103725976e-02,1.216587232185014911e-01,-1.290305741201593082e-02,-4.445114119829285393e-01,-2.881962090655815767e-01,-4.274721712480773483e-01,-3.722228943824854031e-01,-9.338671322159419752e-02,1.432912636869476675e-01,4.219761699834227997e-01,-5.157000357201568796e-02,-5.809828490449515243e-02,-7.120655841208096970e-02,-4.859352366619255729e-04,2.617857051242129807e-02,7.447306682714753545e-02,-2.072197386738422117e-02,-1.930213886752576158e-01,-6.562610919974536626e-03,3.073102235152346817e-01,1.744547319507652738e-01,-1.985477660617458728e-01,-1.580401538032280007e-01,-2.421255475871623708e-01,8.839958110642641420e-02,3.147636938035770493e-01,4.421716062652119583e-01,1.974894929866285453e-01,1.553269347418491930e-01,-5.281752042880715620e-02,1.141979554824087556e-01,1.353050295400542724e-01,-9.571399137220695796e-02,-4.002356739787257811e-02,1.189931422906841119e-01,-1.143387223634732969e-01,1.412543653589057591e-01,-4.604225029247806418e-03,-1.604040310693645721e-01,-7.785334526642834208e-02,3.945084699715170617e-02,2.364432055747653916e-01,1.028356469803786734e-02,6.115512242967214435e-02,2.821310888014297857e-01,1.995784192667931223e-01,-1.636603090068040195e-02,3.869151932748234046e-02,1.117346975945118365e-01,-1.674104021625507158e-02,7.098688622119132818e-02,5.971501276703427901e-04,5.646371595976129587e-02,4.594429008603269360e-02,2.429808285676446702e-02,-1.102702575726925288e-01,5.395709242060586774e-02,8.735539013919818574e-02,2.700185601743413932e-01,3.574524140981973352e-01,-4.084848153954924455e-02,-1.006901876659409972e-01,1.438916380315954369e-01,3.259670651138658198e-02,6.148520822623942950e-02,-2.975815878244577120e-02,-6.537383415038759693e-02,4.290255235839599002e-02,-9.275616587603767449e-02,7.617428467861157848e-02,-2.003716836115321948e-02,-4.105478258158034577e-01,-1.871764234867987625e-02,8.263728075187935784e-02,-3.320063429095520408e-02,9.919293163173203975e-02,9.836419649715019697e-02,4.887283338795327947e-01,4.567500823977141966e-01,2.669896215390292760e-01,1.398252066750843292e-01,2.485695371923574148e-02,1.092081681288817469e-01,3.219799886119410759e-02,1.063909973769534010e-03,5.319873687037066090e-02,1.111903712118216814e-01,3.771496987106966875e-02,2.360732656158097964e-01,1.793963038270046106e-01,-1.782915355348519207e-02,-5.920425288453780299e-02,1.389860909396338218e-01,3.447095067600230989e-01,5.060997119635757269e-01,4.351430627014420960e-01,2.179160186357792239e-01,1.480627562454780444e-01,5.069219224568345672e-02,8.591032249490831996e-02,4.689445023116978889e-02,9.261095563627088148e-03,7.627023491542365974e-02,6.721916772855959787e-02,3.701006518993843475e-02,5.188111586249745111e-01,2.779434602893863238e-01,3.208088923842413176e-01,3.076925567798590166e-01,2.836799671957517810e-01,3.289221595147176491e-01,6.121247069467984359e-01,2.973685644370163139e-01,2.471572664540259701e-01,2.745546244764558441e-01,5.341960890597471229e-02,5.301416014047259651e-02,4.828496937633459246e-02,1.599197621752483991e-02,-1.842031482868056527e-02,-1.942305116634113551e-02,-1.073817133036484954e-02,8.142807374917477442e-03,1.372996410042136295e-01,9.907551227067641630e-02,-1.144016923153944182e-01,1.691504845671191679e-02,1.172926898693378850e-01,7.272201542451042222e-01,4.815011343324501203e-01,3.736926990772694857e-01,1.800544358650354726e-01,5.110664548379179051e-02,-7.902194211125944390e-03,1.900657895741011266e-02,3.062819230091787595e-02,1.450000096400553239e-02,1.119389604412375783e-01,2.240835609195397926e-01,3.892931350333815321e-01,2.329528551311766116e-01,3.013923708087257614e-03,-1.633873733488018509e-01,-9.318698047225359993e-02,1.910967275972888513e-01,4.556189732164944717e-01,1.124924045635973119e-01,1.393390734169688006e-01,1.610485298363521778e-01,9.251870340077653077e-02,3.429757650076030451e-02,9.308549527812297331e-02,-1.522377659022655823e-02,8.475295668927317061e-02,-9.179987747409959487e-02,4.015964541483641459e-01,2.833892719377740232e-01,5.404316202634161515e-02,-1.856945768794571738e-01,-2.615310289538197441e-01,-1.777202561496757649e-01,1.932922320598987054e-01,3.931141770146017733e-01,1.498838955492050873e-01,7.139679191418479842e-02,1.502933303124820708e-01,5.311692853346201143e-02,3.081505948280450005e-02,-2.220857586225739085e-03,5.778156655679229925e-02,5.252703689250889929e-02,1.542537275209886725e-02,9.133298386221821996e-02,-4.624315155662823695e-01,-6.765320384147306410e-01,-6.071685650070438589e-01,-7.572012332311878202e-01,-5.723851599060457707e-01,1.538694149042496573e-01,4.216540966752655439e-01,4.857923387999655840e-01,2.592961414867210324e-01,1.725498722848274047e-01,3.391463780807175976e-02,-5.530894795565394206e-02,1.597889370219763017e-01,2.080133774512791037e-02,-5.748601653100120917e-02,1.351502226844069066e-01,2.298138492316885717e-01,-3.321526130788121089e-01,-5.615067762263571405e-01,-7.217703011836444915e-01,-7.320371303550277098e-01,-3.608073230111603080e-01,5.420410192292712120e-02,2.273662225784231217e-01,4.165346317333832316e-01,3.717350207023659148e-01,1.910958280380399554e-01,4.597624705940581147e-02,2.679534777601581472e-02,5.416571341323732358e-02,8.249309153312422982e-02,-1.071490548663819528e-02,-4.562340978330048716e-03,1.491402455581861963e-01,1.599863375204563232e-01,-1.469068797271823046e-01,-1.864430884767310503e-01,2.555681059820934936e-02,-4.795871933010820848e-02,-4.397595538730885573e-02,3.458159264416760248e-02,2.573735547858924458e-02,6.780588971737479265e-02,1.171800312675588956e-01,1.466683367811110221e-03,5.205997224801411916e-02,-1.194937946785412236e-01,2.128762087920057708e-02,1.773462464920659218e-02,-1.322655339800339613e-01,1.481773685304301480e-01,9.064225166651292132e-02,-2.550094638743394607e-02,6.904681084632074972e-02,-4.745816737863978174e-02,1.011638834322241137e-01,5.271947120884734606e-02,5.396906334448572928e-02,7.029372085233742684e-02,-4.796358641244165104e-03,6.609815521614283151e-02,1.199983715042664961e-01,-4.901164870520191043e-03,-3.943798127013305177e-02,4.569624512245720055e-02,-7.350537540426264893e-02,2.839651019707065821e-02,-7.226086033848873325e-02,9.539216198128952495e-02,3.416634944294133502e-02,1.907782133106078470e-02,1.170898303309469458e-02,2.392912663698199341e-02,1.568285116404800617e-01,7.318921178555776175e-02,1.061320532726306165e-01,1.157116540062586851e-01,1.341073096434190759e-02,3.959923489740890118e-02,-2.187626291585669999e-02,-3.290562323243458043e-02,-6.656362748810731866e-02,-8.656654097161185779e-02,8.698800299007225512e-02,5.835801000517373827e-02,3.858677217473391319e-02,-1.039150751369848601e-02,-8.610418646887164906e-02,6.502739206002075556e-02,2.368133862801869924e-02,6.648300049350762408e-02,-1.893506213377916386e-02,2.780973447116982800e-02,-1.712969503243394823e-02,8.705750453149345425e-02,6.569918906416671867e-02,-5.330972767568216419e-02,-7.770304852033495246e-02,-8.202395076358817705e-02,6.226880860387588867e-02
3.443547257550445551e-01,3.685836727527393997e-01,5.813067710227735052e-01,2.690493998960236111e-01,1.472682635684344765e-01,2.570826570732236971e-01,2.402357898800706326e-01,1.012046164540532506e-01,-1.755020602075469394e-01,-1.195748780258987232e-01,3.153710827608638412e-02,1.384101415872247554e-01,1.899732923546674501e-01,3.595078776065877002e-02,-7.478387818874668302e-02,-5.303390750307303281e-02,-4.296420863013068053e-02,7.967972879948951315e-01,8.627790240169915803e-01,6.861744070121327255e-01,4.357601436600191391e-01,3.189124830875079697e-01,1.311237994931968021e-01,1.487920300625610037e-01,-3.216917736317392862e-02,-3.159012677751719123e-01,-2.166146747735639422e-01,-6.117170111586409109e-02,2.590223260995381804e-01,1.647084562816805153e-01,1.860297886082061258e-01,2.654618762947956803e-02,-1.442822259594236413e-02,-3.331554948629547597e-02,2.464300653549681974e-01,2.206408629301158664e-01,1.844555363541711956e-01,-1.254827132108019688e-02,6.226438834366053443e-02,-9.951210354892145449e-02,1.672173770572585594e-01,-1.020245784153817753e-01,-1.469673737893023580e-01,-4.517509937539257447e-02,-2.533403786774005712e-02,1.443955060036750115e-01,2.442363477011578465e-01,1.635011052894874417e-01,8.182898429443935528e-02,7.707615383663600495e-02,3.297730783082817446e-02,-6.869068310420599344e-02,1.751633109011032155e-02,6.463190512013852751e-02,2.713026646182238877e-01,7.991278156199749239e-02,-3.214691786406432827e-01,-3.795716775760029638e-01,1.564045278956145979e-01,1.219979340420031116e-01,-1.121061074143983177e-01,9.370948608097945387e-02,9.360667528365321233e-02,1.460988755130094019e-01,1.518014515275535326e-01,6.404033049589218096e-02,1.278860897933627996e-03,-4.396437245527540227e-02,-1.330848358996707115e-01,2.187082656932484714e-01,5.644246143365645729e-02,3.025027369727182128e-02,-9.388814706697243273e-02,-3.817534529845178493e-01,-1.126543661649467287e-01,3.984908400433092579e-01,2.135932365342651518e-01,2.315140517829883948e-01,2.443792660010916246e-02,1.394377176231496596e-01,1.475961523480484594e-01,1.153940186182161459e-01,-7.996976589431618876e-02,2.510512921056531899e-02,-3.391614338154046171e-02,-1.068594783606208465e-01,1.508158731937111474e-01,-2.420037387243494931e-01,-3.409708828814024262e-01,-2.804898585390435128e-01,-3.984363276386149177e-01,-3.831966665578000475e-01,2.257255259793133628e-01,1.261625769689213028e-01,1.475850538996768824e-01,4.802485475164579298e-02,-3.749396897850252458e-02,4.532602427699346931e-02,7.227421421515375921e-02,-2.447633194430027387e-02,6.792803521673945744e-02,-8.550360609936195899e-02,-1.250355332346806680e-01,1.890241926304927211e-01,2.312506600089702657e-01,-1.469684163488836903e-01,2.038967049702844203e-01,-2.601140322643316072e-01,-1.478494917601550496e-01,-4.831035440940455172e-02,1.027854562221322682e-01,4.374005029144076989e-02,-2.173480306664731659e-02,-7.630530290264452009e-02,6.926685991132142117e-02,5.276691813461629327e-02,-8.885137226308169323e-02,1.501998770928798244e-01,7.412996143509657798e-02,-9.883538736801437963e-02,2.676913704927302295e-01,3.042972924240143762e-01,-4.516454681750934480e-02,2.213204105663680588e-01,-5.933515887864334454e-02,-5.761586825476266993e-02,4.709985305236585179e-02,8.904791981672556533e-02,7.475054871386510591e-02,-1.703021515898644686e-02,-8.044560119674563914e-02,1.167786379628856647e-01,4.185412952732610326e-02,5.169047709341231117e-02,4.682431010204528288e-02,1.471566277110038408e-02,-7.271489300327371730e-02,2.421676750128294239e-02,-1.181835281050660491e-01,-1.837172714582570587e-01,1.812436668588103816e-01,-2.712854908707748591e-03,-1.877145583230377390e-01,-1.482192958790576331e-01,-1.848028682669230760e-01,-3.139205892334456099e-02,-2.867570327190143153e-01,-6.011401762986767761e-02,1.372218749183405084e-01,1.520033095895171639e-02,4.312958816021356806e-02,9.097454385734082827e-02,1.746174831007220665e-02,-1.643338404611243142e-01,1.849107945741958886e-02,-1.126490639569376201e-01,-1.389029257287793251e-01,1.120571730540294575e-01,5.875891882974704217e-02,1.172192061501316634e-01,-1.447426608551125593e-01,-1.535867998374463028e-01,-1.316216263664939934e-01,-1.975415401335566534e-01,4.156591567785779262e-02,1.660685020667215794e-02,1.091780435205450817e-01,4.773771573919072947e-02,7.012987061498979213e-02,6.812660523072179217e-03,3.294819121364594289e-02,-1.100669012048030998e-01,-6.070343705717219374e-01,-7.368078837450951768e-02,-3.231533428282460513e-02,5.068500891012468479e-01,6.327340980641439350e-01,8.822616587343153419e-03,-3.213912360408160973e-01,-1.862097799580715862e-01,-1.507158120144438118e-01,-6.516922277472060598e-02,1.614422521970138892e-03,1.213094409348126623e-01,3.784428062226243006e-02,9.869725906931374471e-02,-8.823471869750179608e-02,-5.287914539722320395e-01,-5.922645111162917475e-01,-1.092177142651250543e+00,-6.504424994694810724e-01,-3.013162649530316123e-02,4.676469655644603374e-01,5.580758728281188796e-01,1.531536459311809983e-01,-4.537406601491427716e-01,-3.885805278670870777e-01,-3.165501732443072869e-01,-8.286818316402010109e-02,5.067535010472587476e-02,1.005588039954145585e-01,1.053218986957755177e-01,6.968904563968951471e-02,6.622542013607006506e-02,-1.627806002647653183e-01,-1.445998225570959139e-01,-6.597036921904331219e-01,-4.637604961656596747e-01,-3.063108694406971866e-01,-1.288897665871389098e-01,1.759089801642187700e-01,6.899184554047373130e-02,-4.201207752668075224e-01,-2.102410669751255956e-01,-9.413048140982077649e-02,-7.073088929057440299e-02,5.567603568224737537e-02,8.221152752971612465e-02,-7.311686618801847837e-03,1.800845916561582410e-02,-1.621323602421095682e-03,4.207445448805885446e-02,-7.906390423136283596e-02,4.806103116215383608e-02,-1.667171533035540290e-02,-9.175839338611527229e-02,1.474503708655756085e-01,1.193161147928717067e-02,6.191008852333463458e-02,-2.319235615409771453e-02,-5.455705323901857001e-02,-7.562171585612371960e-02,-4.543010093609384237e-02,-9.154504445110640820e-02,-7.002207426601601836e-02,3.185721762334691592e-02,-7.718774232215165620e-02,3.535211164310694126e-02,1.971799080810601734e-02,-3.054930615008515787e-02,7.050168921718118209e-02,1.220891986293360515e-02,-6.832974312483906278e-03,-2.825351170559301742e-03,-2.558655678081817736e-02,-1.085759431181871348e-01,2.572387679435905739e-02,-9.800071705160381952e-02,4.160282775380290399e-02,-7.434418188470950928e-02,3.059992598757612509e-02,2.819007458351073525e-02,7.913690236895358499e-02,1.018617994685029962e-02,8.834861148860516378e-02,8.638268290791813186e-02,3.201176478852556934e-02,-6.886550544782102379e-02,1.165425369662360933e-01,8.119853299418701431e-02,4.176450972389219446e-02,7.918998985722774941e-02,-3.618436165851177805e-02,-4.413663927801088349e-02,-1.152996435860628027e-01,1.510092889825097491e-02,1.071554725424322119e-01,1.290729792384627539e-01,-7.997496779693002988e-02,-5.204397445104942677e-02,-8.308100487273820112e-02,3.469694742501161500e-02,9.498780840945825199e-02,-5.694745517257095158e-02,8.413137927157114324e-03,5.699889018514774780e-02,3.322708526447348126e-02,-5.207508929877949916e-02,-8.034037231110616184e-02,-8.046360480178875452e-02,-7.784260371829382352e-02,-2.720586512942096274e-02,-4.073424165014977172e-02,1.984051410551076686e-02,-1.094146755284846652e-02,6.158057265514244732e-02,-9.349182846163894833e-02,-1.655313547647449882e-02,1.729965723012394721e-02
3.075197910447997063e-01,4.283414086534053644e-01,1.442950379227839752e-01,-3.427659029157731352e-01,-3.933184926599769815e-01,-3.130112134656957701e-01,-2.996261864264448960e-01,-3.891224461748570701e-02,-2.910728805773551975e-01,-1.642282137968269495e-01,-1.597937226774314434e-01,2.226242910090682828e-02,7.334128573242179594e-02,2.812719659640813830e-02,3.609369246131876457e-02,3.735836127585448474e-02,-4.699042189187844359e-02,5.935756700666041663e-01,6.603710877055349870e-01,7.120220775074666275e-02,-3.044075195086727859e-01,-4.288848998662684320e-01,-5.684738616901593433e-01,-2.781218552012272305e-01,-1.257831104377776232e-01,-2.952769675700496199e-01,-1.775808556356888446e-01,-1.410511068235529852e-01,-1.261224138089257762e-01,-4.265516977500983381e-02,4.284240097401860459e-02,9.601335631794175041e-02,-7.535919291465106862e-02,-2.748006328896973952e-02,2.850861726842383037e-01,5.666794074335861076e-02,-8.935502855336541206e-02,-1.655284670356695353e-01,1.781448626640581012e-01,-3.196056822595140234e-01,-5.625036553063211819e-02,1.444219024246502225e-01,8.137460188235390302e-02,-2.914506362312043949e-03,1.550743869675573205e-01,-7.357700401993437674e-03,1.351659069386476619e-01,4.765248729502686437e-02,1.122451978963986824e-01,-4.008455346965819621e-02,3.015794120818062612e-02,1.805033305190435478e-01,6.823428680338941565e-02,1.473816508673175167e-03,1.367369170473413942e-01,3.702293179564433157e-01,-1.322475661477799103e-01,-3.122162307417117311e-03,3.056577725597854345e-01,6.320928884879634113e-02,3.959293420212985776e-02,4.643133275602165377e-02,-5.170648453353100804e-02,7.942011074425414305e-03,9.343185627621081180e-02,5.530492902470719729e-02,1.062095844231455005e-01,-5.535542298339914125e-02,-3.947989023269819070e-02,-4.311295327912640502e-02,-2.090944725449270514e-01,1.600971671371942129e-01,4.029715582374535643e-01,-2.179239442988021025e-01,1.189496504886972533e-01,6.896019307204925841e-01,5.343963786075081046e-01,4.526174801788001023e-01,4.527261312713303232e-01,2.546337921764202372e-01,1.161351517726530724e-01,1.654487143658517345e-02,6.980429750677429046e-02,8.272696394496799333e-02,-4.682260118949413408e-02,-7.443914382340025004e-02,-1.626383729875654008e-02,-2.705061369636616031e-01,-5.963789202203689799e-01,-4.999230763375686060e-01,-1.108398883938444879e+00,-3.850117296539422584e-01,2.987974519957684594e-01,8.888467282370190459e-01,6.216098549998588796e-01,7.196901709748415588e-01,1.858425290498078586e-01,1.122646971215057188e-01,4.624549982661282227e-02,-1.056730405606942647e-02,-3.908651084892034167e-02,9.951839133347685842e-03,4.296113883025415650e-03,1.504250751330384051e-01,-9.203144864317926166e-02,-1.013029073166912819e-01,-3.025957902019801304e-01,-8.584036245173541912e-01,-2.870194485182979705e-01,2.374964764687745589e-01,7.210254423819166814e-01,7.374441368084601045e-01,7.065131814286712553e-01,3.252715188090759546e-01,1.327719376679177832e-01,6.728418301032673687e-02,8.545276521675426729e-02,2.104595181795372583e-02,-2.905961072669746223e-02,-3.461487445841502503e-02,2.935713039068343910e-02,3.601104633471816086e-01,3.803519735518203215e-01,4.347222813688156329e-02,-3.243942704177805170e-01,-5.557971104255671202e-01,-2.887753357572732660e-01,3.369413075477459829e-01,5.672605149045232276e-01,3.957272900070086807e-01,2.001304629530937518e-01,1.065552116191545717e-01,5.150304202832562545e-02,2.432959950307760078e-02,1.442544048895544884e-01,-2.191552911725107647e-02,-2.034263625514439941e-02,-1.751338184279181351e-02,4.266790732900134220e-01,4.099886349987247880e-01,2.047037384967583806e-01,-2.319268650679395805e-01,-3.225645895720399281e-01,-2.835655191315591406e-01,4.707834834610045704e-01,5.262980492013329403e-01,3.534289534368637020e-01,2.207168235499779307e-01,1.024821641529433253e-01,6.179191119899067608e-02,3.765731430720220801e-03,1.527335474359977838e-02,-7.588420605026413579e-02,-1.163962947001044718e-01,5.262227260201568502e-02,3.887716217682630759e-01,2.549220003954187908e-01,2.353623820632029240e-01,-2.396926196589400093e-01,-2.311934517918404763e-01,-7.667266670857832145e-02,-6.829401186216993783e-03,1.146201752258065587e-01,9.532368437576772824e-02,5.771839611680464055e-02,-6.519634610697354338e-02,1.163103426727447598e-01,6.055234200811090289e-02,8.577255582325947481e-02,3.948253284600061058e-02,-1.231461228608406525e-02,5.869106483786617340e-02,-8.566051973929343644e-02,1.263768488851285121e-01,-7.934136345355521924e-02,-1.157789628888555994e-01,6.164191061637652735e-04,1.792483576184632499e-01,1.692508829383873592e-02,1.304202028311402806e-01,-3.373443539180363132e-02,4.994803983296019351e-02,-4.942199348979094825e-02,5.393295500431381784e-02,1.478232152665998056e-01,-5.745242384510752115e-02,-3.450620462730038390e-02,-1.127496906913784402e-01,-3.380817790442385284e-01,-7.709342042823854602e-01,-2.937451775401568321e-01,-2.613722558482742264e-01,-2.024756933334773412e-01,2.688164316721163849e-01,-3.431872029999823853e-02,-4.449562813979286713e-02,-3.317725028863207637e-01,-4.152340047156986569e-01,-1.743856659048260427e-01,1.074475873857576140e-02,7.295268793529614826e-02,1.134264899524822269e-02,-7.393460265749306204e-02,8.278789546197437565e-02,-4.894079842145120096e-02,1.053257922760877097e-01,-3.767019291868524133e-01,-1.158461801012128367e-01,-1.189929705059638437e-01,3.168041417826768236e-02,-2.881946021204475628e-01,-4.639329101332878569e-01,-2.051454000390369736e-01,-3.529764410099910377e-01,-1.642461336084646006e-01,-1.801900587190753134e-01,-1.801328748584921369e-01,9.479619858147905753e-02,6.696180784849690981e-02,-4.551419680637634052e-02,9.682309146035485148e-02,9.838300554026664646e-02,2.166687205618523723e-02,6.372258181291419812e-03,-2.024115780381137708e-01,-1.081185998120481884e-01,-2.094783047691202160e-01,-2.174580218849986313e-01,-1.543393537362092172e-01,1.092682634620589649e-01,3.947290566801922584e-02,8.983043631635778681e-02,1.215277677704355158e-02,8.693838225033266587e-02,3.311617753558639132e-02,-2.699805577067443049e-02,6.518363295693935591e-03,-5.181142541866170376e-02,4.785105000274166021e-02,-5.142940445876867384e-02,2.072229409594339086e-02,-4.706721163909782790e-02,-7.309304643284824689e-03,-1.630677165221794955e-01,2.668054311556099928e-03,-1.272086313524235790e-01,5.008649121072749483e-02,-3.618952455803594453e-02,1.232238280244936646e-01,-6.664512485938417150e-03,-1.053117203424085331e-02,-3.404807505442539184e-02,-3.118382049758626094e-04,1.288419272012034924e-03,2.112294076942413529e-02,-1.671094646692704994e-02,5.183032607347211329e-02,8.466695569500995444e-02,2.620308216959722422e-02,2.898393000839921338e-02,-2.174113057673887942e-04,4.030670524961461193e-02,3.429113923121949320e-02,5.153162468190766732e-02,1.836736444490525144e-01,-5.104692549395747903e-02,-8.543540550534402256e-02,-6.329903405445561071e-02,1.510893780411283749e-01,6.645260296996965965e-02,4.002437335958859699e-02,1.461431315171628220e-02,-7.719846923922636661e-02,4.002245919796024176e-02,1.946886417107724504e-02,6.411506623732247945e-02,-4.426364660919683558e-02,6.251885442999574605e-02,-8.753772498465897667e-02,4.446377053383145789e-02,-2.110626207628498591e-02,3.883228983868235867e-02,-1.236159809497478640e-01,5.140323657572651306e-02,-6.579329558304013170e-02,4.552528029551453082e-02,-7.371950335126964404e-02,5.289553568832286445e-02,-5.374047840955550881e-02
