1.656112468457570652e-01,1.299469858998441862e-01,9.069652129226171700e-02,-1.780206408519861283e-01,-1.557884272045539364e-01,1.214511601524230350e-01,3.019217031100143167e-01,2.078144238903304186e-01,3.113867034597336825e-01,1.246379134678255070e-02,3.254892896135047620e-02,-1.605264311041521355e-02,-2.521897592884678879e-02,5.410366732213739427e-02,5.351005444248576465e-02,-1.384362583761626110e-02,2.660985289208105814e-02,-1.594152860392394205e-02,1.629288065246315698e-01,7.275943111492561011e-02,-1.977846066339637443e-01,-9.842379415815870336e-02,-2.534771693210392113e-02,3.562404595464536972e-02,1.395843865945337325e-01,1.093329040005786013e-01,1.630970727964325961e-01,-1.339458537256686399e-01,-1.022976020197188946e-01,2.560042335910122507e-02,3.121334164535863320e-02,3.955454375013701951e-02,1.344826837605146187e-02,-9.407968443825938387e-02,-1.204579344090847270e-01,2.958225972070726573e-01,7.323914929812781402e-03,-2.882014941733276325e-01,-2.822775712080585198e-01,5.432734725628421413e-02,-1.136289896362195490e-01,-1.191556959306061397e-01,-5.318047692427869261e-02,1.271507348612964938e-01,-1.780051643758806812e-01,-3.649655049492731007e-02,3.455026804505294258e-02,-1.104349892374578840e-01,5.089275002997614185e-03,-6.844321194528120433e-02,9.361171547178652810e-03,-2.113397875958794303e-01,2.095037403653803587e-01,-1.051252262244635749e-01,-1.762871020279439260e-01,-2.141803052565946774e-01,-5.315592258779501533e-02,7.251851392275085462e-02,-4.555102246094540341e-02,-2.268782272166994518e-01,-7.302906889953023062e-02,-9.496131513330705043e-02,2.353455734360803894e-02,-6.283119136082007672e-02,-1.303864025623608924e-01,-1.159385070046423105e-01,2.980898496478021770e-02,-2.879184439864523881e-02,2.075576972279005727e-02,2.640298886516005972e-01,-8.225549551489125255e-02,-7.950202602278434727e-02,-1.676378168043651806e-01,-1.277088974774622798e-01,-1.308126866170966907e-01,-3.736812263952863367e-01,-3.354453733176910313e-01,-2.228822824029559890e-01,-2.458691384461178797e-01,-9.864310809999697616e-02,-3.159758491632064931e-02,-1.015449763574668429e-01,-2.813627578121243034e-02,-5.297703935208064596e-02,3.853321923322851339e-02,4.864248505523650207e-02,2.471052985963454462e-01,2.513089175939946934e-02,2.930879167708213759e-02,-3.385885137495515257e-02,2.253404091934086417e-01,3.000845840607717085e-01,-1.350096124456047486e-01,-5.969527312448480449e-01,-3.253868311413916081e-01,-4.083583580943033753e-01,-1.309811399328381087e-01,-9.809269054611710614e-02,-9.798330878557409696e-02,1.395669528177487587e-02,1.278166235205013823e-01,6.864860855406258733e-02,6.788045507981836646e-02,2.944621608658958833e-01,1.339003717566712437e-01,2.966399229568735807e-01,2.980898129662844509e-01,1.582533060011059312e-01,-8.398675533603702781e-02,-1.851593302927934115e-01,-3.638805870709148627e-01,-3.890811972496414639e-01,-2.832270935601501893e-01,-1.479197088584648101e-01,-9.540556259355915947e-02,-2.395311818060575845e-02,-5.069568937115079277e-02,2.004418297898646201e-02,-9.349794412529621387e-03,1.877029624252494200e-01,3.416577032652935442e-01,3.864244675141829677e-01,5.403817802159129047e-02,1.012674270521358721e-01,-4.072978045976070050e-01,-3.429170524931590691e-01,-2.578200657247171068e-01,-2.037186473179175561e-01,-3.553491987736684399e-01,-2.402951818843550857e-01,-2.407658775108838523e-01,-4.797842163217073963e-02,1.287676180103279264e-02,-2.603795275836981102e-02,-8.653808543330586064e-03,-7.504255116661709413e-02,2.842246702401444725e-01,3.619747890441319949e-01,2.378551060424344554e-01,2.253919990533841122e-02,1.130145484902214809e-01,-2.706024261890514482e-01,-2.862748813617508326e-01,-2.548057788453417793e-01,-4.068417143544023062e-01,-3.821429215547814673e-01,-2.451425782178305313e-01,-2.102182718549646945e-01,-1.169044016295413130e-01,2.970959484239730705e-02,6.969780494232202112e-03,-4.346482209216773196e-02,-2.686305383268663277e-02,6.500584126484593162e-02,1.873106292712497789e-01,2.292658925224012878e-01,5.460652225673332319e-03,1.285251802521800678e-02,-2.621034581400951136e-01,-9.362917771971449032e-02,-1.096283058087553636e-01,-2.589096765548137141e-02,-4.495207050843100932e-02,-1.591844106748419863e-01,-9.570516828921006580e-02,-1.883482627776488783e-01,1.578876488050214022e-02,3.011189963356393148e-02,-3.762382604601199887e-02,-4.391503035116535447e-02,5.315607186943437784e-02,1.950035723932930787e-01,-1.685338665668055236e-01,-1.387294657360275130e-01,-9.662561727857744975e-02,-1.272761250342755168e-01,-1.228585139805631610e-01,-1.366702899848060981e-01,4.448251811246847071e-02,-1.258507058617617906e-02,1.349439834726868723e-02,-2.022925059321690755e-01,-7.189404746232558319e-02,-1.900047500273417331e-02,-7.284087779974215970e-02,5.586283092634129060e-02,7.003313466522494146e-02,-2.348648674185192520e-01,1.070026930514219286e-02,-3.472712699334242203e-01,-1.882521472421585240e-01,-1.562965587934241410e-02,-1.612842699166790184e-01,-3.165147651371378879e-01,2.220258083606634070e-02,7.742183063380880803e-02,1.727892409281918673e-01,9.029874643772676027e-03,-6.246158977668765655e-02,-1.321530406071271535e-01,-1.771259912093508734e-02,-1.767944953143447268e-02,-1.444685107822589291e-02,-7.802637696504803773e-03,-1.038629188822524640e-01,-1.665673360046530244e-02,-6.098755044608734216e-02,-1.746529855574973367e-01,-9.763318636287722507e-02,-1.756405351874969767e-01,-9.035770368568989130e-02,-3.480746448183015540e-02,1.241711555043521625e-01,3.027200420835354233e-01,5.265784058245616406e-02,-8.904453314860165392e-02,-7.734537860204006299e-02,6.140378491693000707e-02,5.329753629901007317e-02,5.420109980696689866e-03,-5.443074146600133251e-02,-1.902095145228514111e-02,5.765346214498470734e-02,5.123073840390707234e-02,-9.069267243976857074e-02,-6.141599610158245820e-02,1.168255804252579279e-02,-3.764987868453005537e-02,-4.711138281064353867e-02,1.098907194325692283e-01,2.477466688213626755e-01,-3.224844422690887474e-02,9.004641741886811046e-02,-1.181163966247635380e-02,-2.600805409519888270e-02,5.799567920153211181e-02,1.634163037565259866e-02,-1.565807424192307631e-02,-1.565359645978715852e-02,-6.010727321934280359e-02,-1.198110960465059716e-02,1.113532057642047934e-01,5.354240269739105051e-02,-1.484185513637887970e-02,3.563294510846934382e-02,-6.884821627176425374e-02,-3.190944436030943715e-02,3.674672213640749197e-02,-1.006979756656217473e-01,8.987863966424103346e-02,-6.984160321653128285e-04,-1.313996227776542333e-02,-1.104823350818732314e-01,-9.806215602400197850e-02,-4.691422134216433060e-02,-4.994432834770817786e-02,-2.837284956306490233e-02,-7.144806026243818997e-02,2.489247245076723486e-02,-4.382301061426720212e-02,-4.556368812263732887e-02,-8.553694066440008237e-02,1.792374965709168586e-02,-3.304352789357500875e-02,-5.262423309433483104e-02,9.646787553751794836e-03,-9.721535628729720963e-03,4.627527184505041830e-02,4.131973072845004230e-02,3.479123061015553658e-02,3.984712122575723159e-02,-4.973339424299459688e-02,-1.080703508280420749e-01,3.984181931023793310e-02,5.297161384414188733e-03,2.243094635940117224e-02,-3.593909565661594120e-03,6.431698656103378153e-02,-1.177205513790109681e-02,1.139402019411470401e-01,2.941035435085966043e-02,1.097831638988790992e-01,5.782832703708264827e-02,-2.685867395797048029e-02,-1.406749643183923502e-02,-8.648652702766608524e-02,1.524561979644398768e-01,1.322204563634890410e-02,-2.732098923923036854e-02
-8.259680650739398278e-02,-1.821318084618714361e-01,-1.861285586355159588e-02,-4.414288955940189746e-02,1.384170942879325017e-01,4.423969998090124256e-01,4.260514831170391647e-01,6.143256825506130531e-02,-2.154553286287880787e-01,-1.469051533577481750e-01,-2.455018927390539285e-01,-1.363747172376280903e-01,6.297828284614689909e-02,4.398402799406991165e-02,-3.377728398278349864e-02,-3.178025193155118323e-03,5.164439738583689182e-02,-3.075903488310715028e-01,-3.300371265279863353e-01,-2.642143622746894183e-01,2.027591264777172941e-01,1.940079841887796253e-01,2.915939763173545640e-01,4.598778841274132612e-01,3.814660154689991645e-01,2.571455569335662217e-01,6.247845587244840043e-02,-3.376907508266300401e-02,6.907646727266571196e-02,7.625287646793449392e-02,-1.545438499865114685e-03,-4.196091370167942189e-03,2.622213026323015270e-02,5.338478184374442770e-02,-2.707931886310712688e-01,7.051984060681765892e-03,1.153982384247286413e-01,1.108890828827310687e-01,-4.421571640213507737e-02,1.032150657275912736e-01,1.583864623380411840e-01,1.059136996701815769e-01,3.264197792052213609e-01,2.302798678258530587e-02,-1.868731138049362916e-01,4.567767596363010718e-02,7.975511503598903262e-02,-5.648650632287288004e-02,-9.878480620630794573e-02,1.480360000554488929e-02,-4.879969495704263721e-02,-9.981094320385056062e-02,-3.033630239202548817e-01,-1.469956387668137354e-01,-1.240851538480078897e-01,2.029137298987309657e-01,1.692398218076329452e-01,1.524755336224420110e-01,-4.075390197903181605e-02,1.757085851706161397e-02,8.908638954245733099e-02,-2.104247071562484819e-02,4.948010779177043628e-02,1.219009525457378368e-01,-6.162823557151890161e-03,-2.187224165319380520e-02,-1.360169300623618148e-02,1.988935933097211312e-02,1.555291761370423964e-02,-1.070998307801715593e-01,1.348757865754512605e-02,-6.943070278415641727e-02,2.825592561323241880e-01,2.665359016780853851e-01,2.588676407781727307e-02,-1.439199089343153604e-01,-2.340993695253681950e-01,-7.237057105403845239e-03,6.783147267712244521e-02,-1.169551099120967746e-01,6.518532334408178031e-02,3.160452809701752054e-03,7.780708211925209394e-02,-1.088720080694287329e-01,5.281759534302471470e-02,1.002771271536116865e-01,-7.482652628933238181e-02,-4.486706067737291082e-01,-1.034276138077656615e-01,1.470759371322295228e-01,2.878714884837676458e-01,1.872203928149132890e-01,-4.856776859228159604e-02,-1.818484176834590238e-01,8.680275967924158675e-03,-3.929978287672093382e-03,6.006489752137901539e-02,4.315695967533208360e-02,1.542349496040591392e-02,-4.239867153917002696e-02,-2.718682395279635802e-02,-9.334291184016565990e-02,6.700371799054434530e-02,-1.674616137137333038e-01,-2.633429231929177439e-01,-4.137047040979224821e-01,7.203401621982739866e-02,2.696699611182979406e-01,5.120692262396830952e-01,-5.353048556159933913e-02,-2.220832569630609432e-01,-1.403756397158129055e-01,-1.403328107819719062e-01,-6.143381416715637533e-02,-4.462243344074315332e-02,2.416601470151510250e-02,-1.160449247199912409e-01,-1.063195924496413043e-02,-6.797593151090453034e-02,1.742520242100819086e-02,-9.590465823539319479e-02,6.058190543584303367e-02,-2.052802428953285838e-02,2.221239199202156844e-01,4.190904336090324755e-01,7.537355704646646615e-01,2.434299405990156817e-01,-3.051285141852269067e-01,-2.106411541690022815e-01,1.181044996073747286e-02,-4.142057917665038086e-02,3.712023673356647929e-02,-9.258684310720166621e-02,1.169259735453276675e-02,-5.568550222243264652e-02,-2.782553731358636609e-02,9.636927703591778582e-02,1.756497198345447278e-02,-8.441418934576219724e-02,-2.010046241133409961e-01,1.716282927120922619e-02,1.632950162463712995e-01,3.053233270723517134e-01,3.126993247389544539e-01,-2.054877306899826617e-01,-7.359352343631887783e-02,5.697495796644959365e-02,4.385542852748142151e-02,6.594655437917491814e-02,5.808848094071485113e-02,-9.628402623415548145e-02,-3.981279604451166271e-02,4.587807005604904731e-02,3.075157142522181308e-01,1.451143932391972535e-01,1.887379948706694732e-01,-1.171978126360368327e-01,-2.966870187916283499e-02,7.559950346729041315e-02,7.715452462296944203e-02,-6.232976115401946994e-03,-2.083568229865659371e-01,5.911090324745978120e-02,1.357155318285167556e-01,7.583561136299939165e-02,-3.576839885823047960e-02,-1.027384641750235666e-01,3.084644753494796693e-02,6.482880198811967476e-02,4.014179988429469187e-02,-6.278520241549384595e-02,8.710632409262139553e-02,3.333083901647653779e-01,-1.874655050506708054e-01,-5.568831424388979989e-02,-4.635061212184855145e-02,-4.031338609899057790e-01,-2.174906881626108290e-01,4.404331614852931981e-02,-2.217703050541099466e-02,-1.146506060005477411e-03,9.210543405058299604e-02,-1.931342460436266326e-02,-5.250137070307102360e-02,-3.663243191631425366e-02,5.170269156808066785e-02,5.219451716937247715e-02,-1.304585709669788540e-01,2.874994106693138374e-01,-2.162034786355468974e-01,-2.653150408218368783e-01,-4.070064514851574611e-01,-6.167787456015735303e-01,-7.644191150221267828e-01,-3.924727389780967024e-01,-2.511913129427727487e-01,2.700595329016879931e-01,7.957092313868405209e-02,9.777656234056074369e-02,-3.448185858899100592e-02,7.158369877149807492e-02,-8.574183316085903783e-02,-2.675860363158891544e-02,1.594923478712776885e-02,-5.614571127582825699e-02,-1.243669829125419179e-01,-2.151766631049637779e-01,-6.138082362772234735e-01,-3.942981662100608631e-01,-5.381175769828773214e-01,-2.586245317208705208e-01,-1.156087597702582515e-01,-2.606296221476765984e-01,1.841713502828740412e-01,3.042441862375979689e-01,1.908577462304277550e-01,3.602224183866493956e-02,3.835547083497107407e-02,-2.890730293440541346e-02,3.907721360968671731e-02,-6.875604350770891070e-03,3.457967934454689567e-03,1.489551961449249728e-01,-4.551153589416973705e-02,-9.234867616041715632e-02,-1.422970793220223844e-02,1.438988231482050684e-01,1.898989752105006978e-01,-7.519954058064923230e-02,-1.095785863711701280e-01,3.537769498272416019e-02,1.991850193660965607e-02,-3.885144847819472363e-02,1.582069383601977519e-01,9.719257765322043829e-03,4.247091374462937108e-02,-1.370615690597380004e-02,1.032455189144974167e-01,8.680806081848040090e-02,4.836488579428768753e-02,8.234850526910630908e-02,-1.166546599432253806e-01,-3.296081634639199537e-02,2.641130124555131631e-01,2.685848013230074938e-01,2.623705065491472310e-01,1.358482353044627444e-01,1.537215115551867628e-01,3.774987512718562532e-02,5.069450487786168746e-02,-3.373056260442258009e-02,-2.725909666524353389e-02,2.718405110848529094e-02,-1.532323297808147605e-02,-1.144616396922738949e-01,8.144872293514565653e-02,-3.216651097739853943e-02,2.022011803610475680e-02,6.054145410473785877e-02,-3.983714186527943790e-02,9.128862833641766469e-03,1.820573516666285918e-01,2.241843126479578230e-01,1.912847452370387280e-01,1.242921609272156086e-01,7.168500906860372779e-02,5.793564484270862652e-02,-5.408795299852603433e-02,1.090537551549903839e-01,1.003651232657402177e-03,-3.654797134713973911e-02,1.459479964647776573e-01,-8.156026694132212373e-02,-1.766746895160556732e-02,9.152781280067646616e-03,-2.022605726156966738e-02,-1.332300916423846508e-02,-3.646089772620319386e-02,-1.893048736520280828e-02,1.649343729846401013e-02,5.729108650702829236e-02,1.590429345558595498e-01,-4.044599221627107749e-02,1.710806507646869257e-01,1.839909759600373840e-01,-2.840785572312344576e-02,-7.475851437480213017e-03,3.201640466245156413e-02,-1.206343041135981078e-02
6.058256482464852155e-02,1.881070433137377040e-01,9.739801025660144163e-02,1.537222522283792636e-01,-1.309014572795609913e-02,1.823084522890069947e-01,-2.557743506176417270e-02,1.619570724791755401e-01,1.743932469553828024e-01,-3.278438750705401500e-02,5.382194537988434224e-02,5.191012917221057149e-02,-8.335809155191255260e-02,3.377697822420619705e-03,1.044621840084809100e-01,6.084443513716119439e-02,-6.660534815980669043e-02,2.844913438602195144e-01,9.665460115259533191e-02,7.697545436917497055e-04,1.192245886658532261e-01,1.264439647132966082e-01,1.049069788088903693e-01,2.832212441572323214e-01,2.762759438464436057e-01,3.433696557156669105e-01,2.236717543350499604e-01,1.668772389444581894e-01,7.459283455766445303e-02,2.026117409220066015e-02,4.063343033300966661e-02,-1.539715877759360516e-02,6.236230656783911530e-02,6.567577854354689215e-02,1.233058186415738819e-02,-1.348515939146879838e-01,9.929333659345478125e-02,-7.198386135977143108e-02,8.230278371385941691e-03,-9.700803100046884175e-02,-2.812196219820448442e-02,-7.441920584601857680e-02,3.468556612851448340e-01,-4.689863228562151688e-03,-1.511329427823900409e-02,1.476417837706425762e-01,9.408497938439328023e-02,3.738450471338523179e-02,6.683007673256741166e-02,7.817444572246753931e-02,5.025026590306788839e-03,1.090271172040988279e-01,-1.054964119797641847e-01,-7.869379419838454931e-03,-9.910410559645065065e-02,-1.717043340636778270e-01,-5.899948486818466786e-02,-7.357346078992046262e-03,1.212110530856638432e-02,9.016509110580182840e-02,1.443626603043997592e-01,2.904007278009911736e-02,2.518827059369484478e-01,1.613394270706414446e-01,9.877498491149978854e-02,5.597835969264761125e-02,2.574204983330713806e-02,6.599085420378755784e-02,-6.359099729084353655e-03,-6.370050311797688727e-03,-1.087875760304436723e-01,-7.837590929738255663e-02,-2.749373724518549555e-01,-2.269027101733570723e-02,-1.907693504255547068e-01,-4.825492416556401848e-02,1.193666729867234877e-01,1.695976414257703291e-01,8.814064198731207112e-02,1.344910663505448911e-01,1.145941600243828851e-01,-2.920094658274000401e-02,3.514269376170676973e-02,-1.378791364648129236e-01,-1.468305636073434159e-02,1.857758747208471395e-01,2.507218382471379514e-02,-2.052562668338047402e-01,-2.258328923763769647e-01,-3.472957530051747344e-01,-1.257910357166280857e-01,-3.180719799008262516e-01,-1.475964564514470889e-01,1.703659753388193643e-01,9.281192011509863116e-02,1.699365037585455762e-01,4.898087768040860351e-02,8.448573898328462506e-02,1.470650980498313110e-01,-3.839498692617565514e-03,-9.062361596771267847e-02,2.168227831550679011e-03,1.381210546622180235e-01,-6.690948127527635014e-02,-2.863806771037407106e-01,-3.710377052155774402e-01,-1.806456000894551273e-01,-1.425350238469948738e-01,3.909988007935161908e-02,-1.171735308744344395e-01,1.367516093627478002e-01,1.362520633644873358e-01,5.676548278435601669e-02,1.002032296158808927e-01,4.624498124665134269e-02,8.751479119708370502e-02,-1.162949166534012028e-02,2.559916774259898484e-02,5.999380330486072527e-02,1.632810998764525623e-01,-9.374382982924375773e-02,4.574670412954074533e-02,-4.429643728614598985e-02,-6.852835128637552176e-02,-1.397939678935601060e-01,-2.047434283325537396e-01,-2.979776850586527415e-01,-1.983790588464877380e-01,1.386615482451514503e-01,1.864645692841435387e-01,-3.452840097871444445e-03,1.311755826209355658e-01,-1.611685541891951998e-02,1.071233226154617336e-02,8.258750231429641542e-03,1.874818147885733491e-02,1.069598653748548289e-01,-2.764042526641530273e-02,1.743589601592373806e-01,-1.700831886499883372e-01,2.568369532201348823e-02,-1.547353177962341730e-01,-1.638389311593355380e-01,-7.515838925706942730e-02,-6.169313908145300507e-02,2.583995552021585776e-02,4.813592825552623355e-02,8.601567505945054148e-02,1.207506217753533985e-02,9.274465024241580063e-03,2.207161914059190683e-02,-1.081232250361170016e-01,-2.219259296295888681e-02,1.427625172790625563e-01,-9.079719081453284379e-02,1.153563977845171867e-01,-5.214987934348958021e-02,-4.715141652627220792e-02,-1.383832908448912324e-01,-2.812030294412979914e-01,-1.987108304180976448e-01,2.977909239052640468e-03,3.801239783138044004e-02,1.908689219100387358e-01,1.885661695382006009e-01,1.084203504554750730e-01,-9.572061813648979553e-03,-5.541923224350683158e-02,-3.078696089637529727e-03,7.636047594136971539e-02,8.990410298603661310e-02,1.741048214137424777e-01,9.816432341651885884e-02,1.792557477049161463e-01,-1.988933006144578408e-01,-1.397665556965335953e-01,-2.359413670470306146e-01,7.857551720435500264e-02,2.858843652994677575e-02,6.332944547225494158e-02,1.491192035856342690e-01,6.481412245288420415e-02,1.096814929891330032e-01,1.040350238281246842e-01,3.604957714866320606e-02,1.031965401358785478e-01,2.933618981996164582e-02,-9.264237591216030465e-02,-1.163751485883749576e-01,-9.628147548625125285e-02,-1.010119771925906823e-01,-1.078548927983939421e-01,1.109411366524989256e-02,-7.244545598270135667e-02,5.100173588546089848e-03,1.110444446125040535e-01,1.045683662640514711e-01,-8.886419054706629420e-03,1.147489363363983772e-01,8.987409810368819640e-02,-1.034970341830110906e-02,-9.454295817644255140e-02,5.693700378424281644e-02,-5.179828643645128378e-02,-9.343736607121083670e-02,-2.109831978326261459e-01,-5.225679922041614328e-02,-6.925488145024046027e-02,-1.143256695386072608e-01,-1.652317307846568398e-02,8.472488559484303572e-02,1.916424409444401553e-02,-3.378186579255451367e-03,9.344225699170054592e-03,8.281289547645784288e-02,-3.286045532585218920e-02,4.085065390378240374e-02,3.631581641845811614e-02,-1.335780504168864458e-01,1.365440587681494670e-02,-2.761978165889047987e-02,-4.526994362611464623e-02,5.387526262781667380e-02,-8.215227614373012133e-02,4.206385822946923092e-02,2.566129893746376886e-02,1.007641693596703636e-01,5.300356098963605184e-02,-2.141567555958555705e-02,8.573093943330738556e-03,3.131018520784249054e-02,-1.743573366840417416e-02,2.078775386991403226e-02,3.719801073340364694e-02,-4.481565871326202710e-02,4.198523253393941779e-02,3.054036196791433400e-02,-5.577141733295774839e-02,1.591895639927719264e-02,1.751628205850348438e-02,5.448933125535352501e-03,6.534060189311934573e-03,-5.953223498674609787e-02,-8.885297048528018049e-02,8.321047368433807934e-02,-2.202660375654605651e-01,8.425992742951964043e-02,9.468063910573408515e-02,-6.179140242277814631e-03,1.595338173392791756e-02,-1.099837289309078207e-03,-5.539984035618228386e-02,-3.992289463497485091e-02,1.011905649968604659e-01,2.123680694038006245e-02,7.661969376004156007e-02,5.642956445828698625e-02,9.028378123604433036e-02,-7.658437771985597553e-02,5.018951733320444614e-02,-7.860888789929587617e-02,4.837374922800640777e-03,-2.008586234515060895e-02,-2.004673359734129856e-02,5.696721976172174767e-02,4.433428413709665158e-03,9.341396517801733856e-02,-5.081701805898029833e-02,3.944483975851997837e-02,-2.006433634407127006e-02,-2.024607868105326655e-02,-3.178239043054215118e-02,9.154034263162256005e-03,-6.288774136399642029e-03,-6.100854226365450689e-02,-2.628831805021260293e-02,-6.193133128148065535e-05,8.873619314509053474e-03,7.135853103993350377e-02,-1.472164699394615597e-02,1.341637621550555437e-01,-6.291115471024001649e-02,3.345695891868587929e-02,2.648522131601895729e-02,-1.176194020941058738e-01,1.356761817054782937e-01,3.239008509569893390e-02,-1.365742850921587356e-02,1.694964417130620515e-01
4.572688465974127092e-02,1.054941888884370071e-01,1.941228092321098941e-01,-6.294127590134288019e-02,-2.394363608099693563e-02,-2.118793219912284455e-03,-1.515127658167674529e-01,-1.288087476213300719e-01,1.014173186285527162e-01,7.520671249113365653e-02,-1.743592733683772544e-01,-9.619308750106610184e-02,-3.493720653407712123e-02,-1.234268309394907781e-01,-7.425218043782805255e-02,-7.627358024697362959e-02,6.953694950562490547e-03,3.322294366464845772e-01,2.376658826584330808e-01,2.533065915735767670e-01,5.778101518732479264e-02,4.785808719504088676e-02,-2.198611229842900305e-01,7.809959678037702024e-02,2.166633062313730873e-01,2.742392006610824828e-01,8.846193688899139929e-02,-4.083869086634791395e-02,-2.726513348735270514e-01,-3.249881553492688924e-01,-1.921135616944908697e-01,-7.254256093509277303e-03,-1.242199854801136621e-01,-4.470464258136028213e-02,1.590141636253667445e-01,1.561934865500004821e-01,5.205121135453492087e-01,-5.464532373687777667e-02,-2.047859782022433128e-01,-1.845912980216239951e-01,-5.265004289488206535e-02,6.653567382434721900e-02,9.844744899308413566e-02,-7.602772304947951268e-03,-1.133476750194526012e-01,-1.162109304366388124e-01,-1.358694397907301565e-01,-1.607653959138574395e-01,-1.428695894875920691e-01,-8.917664774674466388e-02,-2.339503789593057759e-03,1.015163569856000758e-01,-8.462023825517940578e-02,2.667500369360051304e-01,4.212017339897018015e-02,1.270812340911225413e-01,6.107164536775278041e-02,-4.758704591431381359e-02,-2.153473542041051958e-01,-1.218802487086219632e-01,-1.271024797198738732e-01,-5.091077045023367081e-02,-5.093661099843031781e-02,-9.541719924639886774e-02,-5.897308603694937507e-02,-8.046205810557378879e-02,-1.023829133709973013e-02,-2.556057494993880033e-02,-1.780218554372073672e-02,-7.154667445611072318e-02,2.364540319224009701e-01,1.780184042543718204e-01,2.735875106643859689e-01,-3.980868623787443134e-02,4.043808272125258563e-02,-6.971086101165653581e-02,-2.255497136069110342e-01,-3.464980725017953733e-01,-3.243048815479077085e-01,-5.874519700399236100e-02,-1.209920074520584310e-01,-1.001004552508349271e-01,-4.179082248982995962e-02,-4.450732681748165859e-02,-1.906141948555873517e-02,1.584156404412399854e-01,-5.688699323169692235e-02,-1.477678268174417442e-01,2.917716196523498229e-01,2.393734703047612766e-01,4.539208560329195674e-02,-7.012105951339351294e-03,1.336441374930846249e-01,-8.723453431380036316e-02,-3.043747191133260310e-01,-1.824230284057603846e-01,7.037090165627793437e-02,-9.747254742497239721e-02,-9.464968272310721187e-02,-5.111550339217663802e-02,2.500304731947464165e-02,9.225514353923650046e-02,2.257240835113341337e-01,-1.428078870221057006e-01,2.679044336103251212e-01,2.232609620822390006e-01,1.483040933303758635e-01,5.888367421398536805e-02,4.171790358960956180e-01,4.191392927295992665e-01,6.656941644831358695e-02,-1.494703274148160566e-01,-1.694055696688908097e-01,-8.641711995336343044e-02,-1.152288941705861963e-01,-1.193373386644729084e-01,-1.324591067066172023e-01,7.339692958065139466e-03,-7.323515560773861434e-03,1.625419918163964195e-01,-1.928255768712976992e-01,2.992100148264461024e-01,1.570165360192610562e-02,-7.538188643811297163e-02,2.443176132804601025e-02,2.414701625187289091e-01,3.406672332610354292e-01,2.826281846340541470e-01,2.601909006389093171e-01,3.374004415518157274e-02,3.049387981756473964e-02,-1.184566181342396191e-01,-7.511111416326346490e-02,-1.778957294911570064e-01,-5.652867940568336719e-02,2.544871014572099369e-02,-1.002347828822687248e-01,-1.503326940019016067e-01,-1.477049870465250159e-01,-1.392755785426182391e-01,-2.148451028652702544e-01,-1.444099058843006655e-01,-3.202107122241121262e-02,4.981073328588606769e-02,2.077514860957484777e-01,3.649621967753400309e-01,8.785450138753977956e-02,-7.757271447994421032e-02,-1.218584681197405345e-01,-1.316521203326333767e-01,-1.127286538381932629e-01,-5.113072971587653837e-02,3.909835575917498807e-02,-3.038424592361234355e-04,-2.172873378597152058e-02,-9.198880693581537246e-03,-7.836445237101230532e-02,-1.483118685559043359e-01,-4.952448228461747703e-01,-2.507633603303007219e-01,-1.549188409365200858e-01,9.040507353746693453e-02,1.584371416767647311e-01,3.483783347478223158e-01,2.482657755695203208e-02,-1.492838428054972695e-02,-1.353038919705407128e-02,-9.205994345379092669e-02,-3.796912395256585304e-02,7.919407416227723998e-03,-3.367712730229889539e-02,-1.192519232623266284e-01,6.487193073911180774e-02,1.094086958414523664e-01,-8.865869400256977395e-02,-4.802758880960984467e-01,-3.862817495400364676e-01,-8.844104318484563576e-02,9.738064642944539717e-02,1.759106052317087332e-01,4.034613006273579106e-01,4.762141047426304320e-03,-1.237967902250265845e-01,-2.116793268509353787e-02,-5.506249664978328517e-02,-8.010937171301814319e-02,2.835118112914853869e-02,-1.934068000026341050e-01,-3.508244349114577054e-01,-5.323416074737387094e-01,-3.250100358852950899e-01,-5.089005931846699582e-01,-7.944067254128233113e-01,-8.344633191837776964e-01,-2.506898085328269632e-01,1.573690878000516546e-01,2.794516057619538807e-01,4.080207267265602011e-01,2.293637042273550530e-01,-1.306869656103231414e-01,-1.252113694370839414e-01,-5.357983160780709769e-02,-8.677415392034203145e-02,-2.231350149763742033e-02,2.112652396735516594e-02,8.880873377241063626e-02,-2.850362318630227931e-01,-5.323523293793767097e-01,-6.145090126093160077e-01,-7.349533980649367582e-01,-5.987851031048515571e-01,-2.389393489714244367e-01,1.620433969720034284e-01,3.061734739635262326e-01,3.643298299899722092e-01,3.149205163705735139e-02,-2.941875344068773518e-03,1.240001554644932363e-02,-9.687275952029791859e-02,-6.762032855034463830e-02,-8.628291423642216185e-02,1.210661725928272869e-01,-2.184305676854299272e-03,-9.164791432691750395e-02,-7.692344824707195161e-02,-7.145779139852961870e-02,-8.857781058119357231e-02,-1.594796035214070540e-01,-5.365272479606239195e-03,4.965849706152246357e-02,2.748755541949745584e-01,6.046019445695154093e-02,1.163474157029627774e-02,-2.289177148401664100e-02,-1.305366429841416966e-02,-6.940415977315542856e-03,1.329500425120021777e-02,-8.513337727685013623e-02,-1.189923509081274727e-01,-1.848067252084386117e-02,6.122412459029513698e-02,2.333935240058433291e-03,-3.308973468642902038e-03,1.816780699458886428e-01,2.006598680264819884e-02,7.709126279949727635e-03,6.254344206421454111e-02,1.770126610860801308e-01,2.661337157571927112e-02,-4.219815800918700309e-03,-6.346892115393888700e-02,1.666639779179477851e-02,1.231414706239542878e-03,3.548466051945292632e-02,-3.809951658488854032e-02,5.558233893918563401e-02,-3.192734068113489004e-02,7.911308902978712865e-02,3.326123675098852095e-02,3.441560307540905000e-02,-6.124515411649778668e-02,3.526587433888277168e-02,1.905994661553768454e-01,2.984852922649905080e-02,1.799620612748170298e-02,1.570925177458563915e-02,9.418367188164535053e-02,-3.988511611092130510e-02,-9.495684235052863353e-02,-1.850110505513272163e-02,3.523971981270368481e-02,-3.300280564850892329e-02,-6.216306065364048117e-02,4.397912513529136230e-02,-8.514054173312253504e-03,5.364674845531275382e-02,-5.494811928454972072e-02,3.151561759911934366e-03,4.704967733957533815e-02,-1.466794107786632264e-03,4.147554681251401122e-03,4.389879089911002952e-02,-2.222840578107563355e-03,-3.131028701068841458e-02,-5.199974064896974515e-03,-3.538649634514150905e-02,5.360339355223638774e-02,-1.758238090971924513e-03,-1.272476644085624754e-02
4.165956039598119748e-02,3.726592062490229895e-01,-1.057591887791217711e-01,-2.821538974095597063e-01,-3.895016856385039028e-02,8.592942495269683453e-04,-1.844233205524187791e-01,-1.441778128858191288e-01,-1.376070206541003260e-01,-8.842419581907244586e-02,4.537714490988982441e-02,-2.814930306563132034e-02,-1.288958169860169867e-01,-8.714214606040575350e-02,2.137488362411705742e-02,9.173749989772040508e-03,9.277220653001995443e-02,2.092434859736124614e-02,5.971922862674050592e-01,-2.476573893778849511e-02,-3.341443757732466546e-02,-1.759044449034849467e-01,-1.249349221562308931e-01,-1.754329847348115035e-01,-4.128007329857523722e-01,-5.131654509391884167e-01,-1.451469563962180520e-01,-9.193009781744039544e-02,6.443149438256794148e-02,1.657285167025496497e-01,-8.751864053894541431e-03,-2.669154452395326380e-02,-3.689472925011814258e-02,-3.952780078283324450e-02,-2.589554155774028144e-01,4.229275291549418059e-01,-3.644819213919747725e-01,-5.936048280080011980e-02,5.765307093643110004e-02,1.495172710488150425e-01,1.628787257895543406e-02,-6.164861940090416575e-02,-1.584408765909380290e-01,8.945072248733604986e-03,-1.973823898245414821e-01,-1.425509643558482697e-01,7.212092185640041342e-02,9.063819692906030512e-02,-5.457843258742980236e-02,-1.347333444292194982e-01,-1.268925188929252192e-02,-2.526295897670821633e-01,5.171679003997615709e-01,-3.271049981633883941e-01,-1.575866108503097274e-01,3.478479134633309378e-01,6.775620927882358702e-02,6.523274405680000443e-02,-2.495077916667413354e-01,-1.336891409626407567e-01,-1.423647908460767275e-01,-9.045421003970788298e-02,-1.911838970943551264e-01,8.246082374396210279e-02,-7.739377239858438208e-03,5.583076273250751204e-02,5.730470285328621155e-02,5.083965977358193000e-02,-8.979863052616340879e-02,4.743361619870362644e-01,-3.642155482202180106e-01,5.550126207665345007e-02,2.737444331724834257e-01,3.116506723630531051e-01,2.101065912942209901e-02,-1.284964766692651139e-01,-3.868719968819632204e-01,-2.046709100684348526e-01,-2.057241853987840097e-01,-3.606191500549180834e-02,2.343076941242498018e-02,1.386526754870349813e-02,-1.485348960851832871e-02,4.591292847190172471e-02,1.539610738952781333e-01,-2.743537472130375687e-01,4.166348010885722042e-01,-1.570801922224044911e-01,-2.099659414100224775e-01,5.214741195047557787e-02,2.806983275547244618e-03,-1.046291568806447803e-01,-1.137696203505723230e-01,-2.074825662411008964e-01,-5.094587061348622437e-02,2.187010350062595920e-02,-1.072462458537105506e-01,-4.590296123381716956e-03,-1.133319203256475186e-02,-5.320796821986591846e-02,-1.058910284093291243e-01,-7.111002934027021993e-02,-2.600574202406307212e-01,4.016340862519677812e-01,-1.383623952799133694e-01,-5.598885434555447849e-02,1.752977414765806430e-01,2.932189179820567787e-02,1.383203744570590810e-01,-1.554595417893079867e-01,-3.090859500775553492e-01,-1.326490563890360130e-01,-6.828479816010490921e-02,-1.533238099405433985e-01,2.688601341202087255e-02,1.273533687446400109e-02,-5.496333833971853156e-02,5.185004683407927473e-03,-2.420783687020158087e-02,-6.285897023096891079e-02,3.007700660889390254e-01,-1.681851239077916949e-01,-7.005557601698098394e-03,1.803911313439780506e-01,1.651189046685208051e-01,2.151432144752056796e-01,1.429085065057887349e-01,-1.914392714332388001e-01,9.615884994062225133e-02,-2.722220134423265075e-02,-4.757805024761636858e-02,4.364038089271696924e-02,-4.903541241957413283e-02,8.162614570288635740e-02,2.759506505551625327e-02,-4.198080035054412018e-02,-4.245780467077293896e-02,1.276293954118277174e-01,-4.869012861896608313e-01,-1.819346523840420782e-01,1.853460760758626757e-01,-2.300237756905607403e-02,1.023878241785291660e-01,3.429776490089594398e-01,-1.207245337865267970e-01,-7.276345858415712853e-02,-1.846854625931038454e-02,-1.223430432056937384e-01,-4.272695757932255811e-02,-2.008588487168551720e-02,-6.449243232894077971e-02,-1.361266917793862441e-01,2.492321604529232001e-02,-3.178486792789421422e-02,1.652793373111147712e-01,-8.057523762428946412e-01,-2.428998291830228862e-01,-2.087922569590957081e-02,-2.132871969358597630e-02,2.375879769217510429e-01,1.230757212973842274e-01,7.782446850540514216e-02,-1.605130309196172167e-01,-1.345971885637151089e-01,6.900453673043646652e-02,1.203148024192978449e-01,2.202793076893880958e-02,5.990773640851323328e-02,-1.047128220008742785e-04,-1.440779370677862901e-02,1.092007341280968810e-02,1.132546168675193227e-01,-7.941092195060009962e-01,-3.687406085224815278e-01,3.732525295953648126e-02,2.126977567801475177e-01,2.146784109878225044e-01,-9.622171913215590497e-03,-6.668395094720848404e-02,-1.903923105091176460e-01,1.902191349349126315e-02,-3.808111280269133037e-02,6.770768663600094939e-02,3.259350158152886888e-03,-2.576322973883247297e-02,1.926103035241798558e-02,-1.494955674425648556e-02,-2.554357851920635580e-01,2.135465497220929709e-01,-3.904915126438797679e-01,1.897154358112646336e-02,4.099231256483437669e-01,5.162579470612478350e-01,3.566890426929738567e-01,-4.986951345518115739e-03,-1.742132290230431202e-01,-6.337727231051408505e-02,-9.994850795609733218e-02,-2.494420718365979520e-02,1.589103229773513037e-01,9.762513058676418332e-02,2.270467089157191670e-02,5.055850291596652307e-02,-5.976259129296367795e-02,-2.890878002643411659e-01,-8.847430069576077416e-02,-9.126351027070707389e-02,6.675998820327591621e-02,3.279699191780069412e-01,2.919092885911835911e-01,3.418367546124688738e-01,-1.352321103182604067e-01,-9.550018764021542261e-02,-2.434904801587471912e-01,-1.755824127170497462e-01,-1.055447632238648015e-01,2.302087444892149046e-02,7.238193110755909709e-02,-8.133317268004683354e-02,4.838621890180749840e-02,1.907196264552776452e-02,-2.896437051165954776e-02,-2.443255380316975475e-03,-3.472628460031031844e-02,-4.074771088673051142e-03,4.655816419808419919e-03,1.766198530909167744e-02,2.886467122316870373e-02,6.628788664507435924e-02,-2.679477539918442841e-02,9.008379483059107684e-02,-2.449972308585962252e-02,-2.977886122193263221e-02,5.206715192153936640e-04,-2.291999561936325369e-02,3.250216121920033313e-02,1.687930771948723818e-01,2.592949864819950670e-02,3.543960279743464670e-02,-5.531921430217042607e-02,1.028096481044755289e-01,1.250500147881758173e-01,-9.209077919152530711e-02,-8.353061950350072762e-02,5.599370512552557383e-02,-1.025927092674853019e-01,-1.632665252038566564e-02,1.231732130595385860e-02,1.117523911917245316e-01,-7.918269954048341719e-02,8.650115649466080803e-02,6.212830295018891176e-03,-3.701054490995848295e-02,3.539608996044138478e-02,-1.387218361423809675e-03,-3.100070338160435326e-02,-1.070299878782250275e-01,-3.258858970642686346e-03,3.527176644726252776e-03,-4.027182353179229596e-02,-3.844197207804253558e-02,1.141537228347986599e-01,-6.495173170223082770e-02,9.728374375887149234e-03,-8.827242011595717863e-02,5.589409177294725473e-02,3.649031205251120069e-02,8.395373212086421066e-02,8.424068269311652674e-03,1.256118570842830115e-02,-1.188555342803591236e-01,-6.057860673736963769e-03,-6.655289583779866458e-02,8.440361165220811382e-03,-5.785835095364740867e-03,-4.757138172245308633e-02,-3.404950610215671386e-02,-4.860480822865011208e-02,1.006167432599722536e-02,7.695576359228933905e-02,3.254362978483738011e-02,-4.920850128440491106e-02,1.401674790841174745e-01,7.946456613779089018e-02,-2.343019014828787855e-02,5.264104371051853137e-02,-2.210210834459427551e-02,-2.363800218528463309e-02,-4.926097877259727476e-02
-1.588329717363604343e-01,-1.270050414461504906e-01,5.128098963827317641e-02,1.173005453469674331e-01,2.605795741895031714e-01,1.364376128772174512e-01,1.923873117320528681e-01,6.230131372976357301e-02,-8.601230095505649209e-02,-1.916493732373087122e-01,-1.323021921060181794e-01,-7.792104491516464032e-03,2.404803460203710705e-02,9.574667850407708736e-02,4.034686339599848071e-02,1.010675203200141065e-01,-2.459068099501376253e-02,1.275218364752203348e-01,5.727169663193647231e-02,-4.575781436415074510e-01,-1.624316949797410814e-01,1.218404406006411006e-01,4.594408915447303898e-02,2.139801604058633178e-01,1.861813999327163460e-01,-1.751128310776086106e-01,-1.783544622284555237e-01,-2.181298583775517219e-01,8.779200653875482430e-02,1.284637433184070421e-01,1.980713107472809043e-01,1.710478035105153227e-01,9.390015167242636573e-02,-1.510285101310124105e-02,1.737917168621971598e-01,1.361952008050139329e-01,-4.753660317163606597e-01,-5.281356299949758748e-01,-2.822990998870105739e-01,2.739205464873493631e-03,3.659948485927980166e-01,4.203143801800243717e-02,-1.325947066081584746e-01,-5.253621406977613401e-02,-2.528897343941224340e-01,2.611861022300845936e-02,5.632072266460502047e-02,1.544981846912600598e-01,1.942953905927899128e-01,1.012107309232813668e-01,3.941103428087704835e-02,-1.137366046899942057e-01,5.300681661340551215e-02,-5.679300888963652039e-01,-1.991330436060091413e-01,-1.825474813230302251e-01,2.207104440641319554e-01,4.167757972239446995e-01,-1.177657979746773581e-01,-3.528250732707018389e-01,-7.164692736024839970e-02,-1.089461178546056314e-01,-1.536073574503724892e-01,5.489678081758047473e-02,-9.881222848293319538e-03,1.005878937968856940e-01,8.728462795283825973e-03,-7.938222991144633367e-02,-7.776248087702379574e-02,1.258755584574483000e-01,-2.847570529075104662e-01,-1.363806093527593910e-01,-9.010787700621529506e-02,5.292000004179095440e-02,3.502285226308684551e-01,-2.893472552383940383e-02,-1.773561922851211448e-01,2.387614798312484299e-01,5.075782586420292397e-02,-1.826904260068204777e-01,9.489015105617154555e-02,1.896541766372678017e-01,1.166819560274189316e-01,-6.957117521847232255e-02,-6.079619909281770013e-02,-7.549545160772719310e-02,2.862254826929558696e-02,-5.473126802283241332e-01,2.281729047278651390e-01,1.833924125437673414e-01,4.435404800118063484e-01,1.381940399449181067e-01,-3.965884051379081621e-02,1.834228053780199985e-02,1.560564882987789947e-01,-4.771066078307614061e-02,3.431188722678218256e-02,1.565416770094660848e-01,2.548963811860630035e-01,7.228293634240560983e-02,4.228507149627262762e-02,-4.264587444464662362e-03,-1.345931356120868561e-01,1.070752043136928844e-01,3.630046003639711416e-02,4.429134047906477800e-01,3.398158175674772519e-01,4.789074835664998142e-01,-5.763894354443187262e-02,-1.568888554086626252e-01,1.189826672012679748e-01,1.974207043136869122e-01,-1.997774330450846070e-01,-6.081577254779094860e-03,1.112470550881835135e-01,1.350571224862041897e-01,1.587278087120330972e-01,9.159257137063832321e-02,-2.747190514532620031e-02,-8.452389970945488329e-02,4.723733390187608017e-02,1.232375267981030038e-02,1.316228592733177660e-01,3.763858215305654342e-01,1.242461442796746144e-03,-7.094939059539061288e-02,-6.674004823242532525e-02,3.871993680906066909e-02,-1.691248591020565184e-01,-9.613462431365575600e-02,-2.346227542167286795e-02,2.361002195140655402e-01,2.642975657467102613e-01,2.471943633965841339e-02,3.393113173555271922e-02,2.142892016297985938e-02,-1.162472708018076617e-01,1.926375592768402034e-01,-1.986137540766705900e-01,2.724395121829044641e-01,2.290834990950719185e-01,1.126224936400257309e-01,1.365010109957421613e-01,3.817325382641211240e-01,2.005957721333845034e-01,-2.475738112465338536e-01,-3.225346902311992947e-01,1.127176999184130585e-01,9.601778382765321918e-02,1.349524980411367647e-01,1.337747491133674770e-02,5.776437273510319492e-02,8.840649666042525723e-02,-3.235594817160805658e-02,2.166718402967390822e-02,-1.843091071401810610e-01,4.439182644320782689e-01,1.880362182217537315e-01,2.084778706043299845e-01,3.163461594492625872e-01,6.849195011018361923e-01,3.311355728308064683e-01,-2.191624026381219781e-01,-2.811451373856982405e-01,7.864206592890018999e-02,1.384269936689143943e-01,1.084732961475344537e-01,-1.089279853899783185e-01,4.834838810187998964e-02,7.554913320020689715e-02,-1.720368062313368945e-02,3.409049818915214913e-02,-5.339657956442148828e-02,2.681702189670543413e-01,1.677272632014351894e-01,1.528533034120336531e-01,2.213344081343798231e-01,3.238587102016879937e-01,1.154491917633991421e-01,-1.730074817652652308e-01,-2.367621223617014659e-01,1.114293032993305538e-01,2.520021065695010609e-01,8.895434568615812054e-02,-1.636782889655840484e-02,-4.357334658755113860e-02,-2.839074962730376780e-02,3.434734502637283859e-01,4.419377836630018486e-01,-2.238131346104686170e-01,6.367949185152904645e-02,-1.189563207408406986e-01,-1.207108465406801778e-01,-8.201505040383633149e-02,1.689365910330188625e-01,5.671575794718185931e-02,-3.050107720591439114e-02,-1.996837480121151920e-01,1.995567271576899060e-01,1.757464453244821367e-01,1.107483854172542498e-01,1.103192352681303806e-01,2.159071383234940347e-04,-5.096207270806510370e-02,2.916794754227686193e-01,4.735350852096984475e-01,-1.751080096332414682e-01,-2.746088511715385483e-01,-3.026051183462994953e-01,-5.330618204197489218e-01,-1.602015458804473824e-01,5.198242097494658320e-02,-1.376416413006311124e-01,1.374110921538991559e-01,-2.692801216807627629e-02,1.929473826319513530e-01,5.078742525912333799e-02,1.506811644710871201e-01,4.335859553906752650e-02,-1.226923674603744296e-01,1.517236835381182564e-02,-5.015938407291326701e-02,7.377790269318404426e-02,-4.606528731427014800e-02,-1.051360156813109376e-01,-7.713638686019180790e-02,8.100256455743056264e-03,-6.909390434299185479e-02,-3.806793545310082488e-02,1.249063745042258977e-01,-1.903539996175830293e-02,-7.285223736763478397e-02,3.788141655083195752e-02,-2.785711217083349997e-02,-1.597487773689417259e-02,4.714267838939072836e-02,4.097368281522625194e-03,8.437607244146926380e-03,1.298481772470839839e-02,1.519629509660102608e-02,-2.758786961793146045e-03,-3.247220416102429563e-02,-2.145237869426396340e-02,4.171752730438017809e-02,-7.805320336194766784e-02,-7.034507323641064902e-02,8.626831481445694505e-02,-5.630405018580606630e-02,3.113345754691261222e-02,1.946669753844512685e-03,5.884812145451752408e-02,-5.971153382194424597e-02,-7.675023753354800853e-03,1.243766790264631411e-01,-5.954389921120314955e-02,2.618685979080884879e-02,2.386833226066790992e-02,1.123715682045913905e-01,2.486061957996571481e-02,-5.258366224816871928e-04,7.036886119979368463e-03,4.789126557055029682e-02,8.158352737180825376e-02,3.142349470290928953e-02,7.742457161834903623e-02,7.385077284208403647e-02,-3.477235851812008477e-02,6.602277903368609924e-02,5.950281874606610372e-02,1.273303475473566704e-02,-8.114332815965107082e-02,5.730470131885413015e-02,8.155609734349206219e-02,-3.808791090519669797e-02,2.832953364597775789e-02,4.764011282584296875e-02,-7.734105380491182458e-02,-4.444214048314829718e-02,6.896311962786332017e-02,3.552362138709014294e-02,1.160150582701341068e-02,-9.344119741447056218e-03,3.594548565911259708e-02,-1.141409489145772151e-02,-5.011280220322968104e-02,-4.658125520928405733e-02,-5.480987160522928642e-02,-1.148443402749307202e-02,-5.997074957697242498e-02
1.246800468128946987e-01,4.957458186381574067e-02,2.725058836062651535e-01,2.869154433740749854e-01,4.126015772724889730e-01,1.518305387657383210e-01,-4.883415295891350288e-02,-2.611385582705836872e-01,-2.523723372473326010e-01,-5.188443806719013340e-02,1.947011347335529385e-01,6.601306832143350248e-03,1.424282123701058611e-01,1.407853285042270086e-01,7.400334747937707680e-02,-8.112665664762636064e-02,1.242918956754259473e-02,2.926681428670741547e-01,2.258151035334501067e-01,2.593679484984626749e-01,4.401074935276651501e-01,4.257615467551995603e-01,3.031273951945437917e-01,-4.041413228953030096e-02,-7.138182924323418499e-01,-4.295719295293186635e-01,-1.875120258821199593e-01,7.815245535760666218e-02,5.883252517033430579e-02,1.751682992835668917e-01,1.780350232260387300e-01,8.180360793687403709e-02,5.102110123226905047e-02,-6.633676185174467582e-03,1.863955429643656403e-01,-6.051898507393177820e-03,2.460832816111755972e-01,1.668634152060875786e-01,3.749402104468103070e-01,2.569787732234482536e-01,1.607434972844275223e-01,-3.951279107110950428e-01,-2.094640054716287170e-01,-2.561521224391147822e-01,1.183430879717546277e-02,7.838498800245975728e-02,1.344084278629308904e-01,7.288882639515466277e-02,7.641914085577179716e-02,9.043775977444364067e-02,1.636154077616156985e-02,3.347442295299790649e-01,1.067627117846973034e-01,3.740823159006554932e-01,4.030137064807294556e-02,3.196119474150072026e-01,-6.054918806248826835e-02,1.814054401870595148e-02,-2.276416479113037294e-01,-1.084826414019735286e-01,-8.686062498103851170e-02,-2.037537285738179327e-01,1.081500382640101648e-01,1.411326519060043805e-01,1.333504654662285571e-01,1.008255076426609748e-01,1.323781793631429171e-01,3.829532990518223767e-02,2.703690220853337545e-01,9.028514151200546511e-02,2.425936471888811008e-01,-1.415882311362618440e-01,6.087225024766144965e-02,2.967461088905810618e-01,7.126043251175416537e-02,-2.568281866980209882e-01,1.716851901408338599e-01,1.292026417587452680e-01,1.551659706357445823e-01,2.432512504195334102e-01,1.040698439867805275e-01,1.275797831289229023e-01,1.944528798736075703e-01,2.415945786536013301e-02,7.123566413017203003e-02,1.116052723993749968e-01,6.530891069962928286e-02,6.049033197638968851e-01,-2.060685264155099061e-01,2.615042189882681167e-02,7.662792610302372742e-02,-2.138373228641992918e-01,-3.786830668826283719e-01,3.284205648337865657e-01,3.134629284653492332e-01,3.748936381521794092e-01,1.228501881991483774e-01,1.898593155027936685e-01,1.319463507558510662e-01,-8.389604977697960597e-02,9.070859718399976179e-02,-3.379808729950759677e-02,3.890886841372481753e-02,7.276974682044076020e-03,3.221236262560630004e-01,-4.116833823269828996e-02,1.835310097977191912e-01,2.340726159425925157e-01,1.473223586281575404e-01,-4.344344638722427709e-01,1.661569023951749158e-01,2.725347883486408107e-01,2.651353714624822833e-01,9.569858812555172289e-02,3.136844113247674315e-01,1.046144755356090833e-01,2.109818230836964237e-02,-3.193210957007243389e-02,6.673397441400200428e-03,1.449369599440358258e-01,1.148858564542268451e-01,-1.848528260583638116e-01,-2.932114161117913564e-01,-1.664535691127334849e-01,5.086900866369614693e-02,-4.971426080490488897e-02,-2.648929843597560008e-01,-3.855123407711592010e-01,-5.842645085154595658e-03,9.369516747542361301e-02,-3.677247588196737218e-03,1.416072787570554492e-01,2.363118167038397999e-01,-2.727819480706226637e-02,1.122658181484839784e-01,1.525166069914719348e-02,-3.993333469309082867e-02,-1.427338286034227910e-01,-1.861597084017230785e-01,-2.647779385208904324e-01,-6.320948220723214550e-02,1.122687885973980976e-01,2.045608941321084284e-01,-9.086794035210359055e-02,-2.087312633851043098e-01,-1.713270656666555369e-01,4.341530847450766201e-02,2.972852697617885814e-02,7.428670865934783318e-02,-6.966165828468205701e-02,1.679639165496550346e-01,3.684803026180071689e-02,4.333118895552102307e-02,-2.695245073496544408e-01,-3.157409772367552603e-01,4.438435121084844531e-02,-2.105870268455244942e-01,1.377111666558153945e-02,1.189290064117144857e-01,6.896184879478589602e-02,-4.952904816221568446e-02,-4.145201658348991042e-03,1.621759040459354873e-01,-1.944250514272406194e-01,1.311779694661186282e-02,8.108279780493229949e-02,7.708032311722216867e-02,-2.837191749138933891e-02,4.154924003534318788e-02,2.453375158233055825e-02,-1.901857630611268335e-01,-3.669644711591099062e-01,-3.851411446932536675e-01,-1.061038044655225332e-01,1.374788316001566146e-01,2.436382331721762273e-01,1.176749819194127661e-01,1.602011714300126122e-01,-1.415719207131389545e-01,-2.792434274594466151e-02,-4.395365235481868416e-02,1.747242428303222295e-02,1.066550015425579839e-01,1.033295627510553427e-01,1.278497258572892092e-01,4.421245728827985499e-02,4.456703118466851660e-02,-4.502298529673514627e-01,-5.718664698647839550e-01,-2.974838628963756837e-01,-9.861052409637494076e-02,-3.101003204990326889e-02,1.762119687431246140e-01,3.245759287835719431e-01,1.824514837374376641e-01,-3.879066573227736847e-01,-6.547420616119363768e-01,-1.403312720224293431e-01,-1.654677457358621206e-01,8.315056861524887377e-02,-3.205513298446621001e-02,4.490308936202518086e-02,1.600404823003354904e-01,7.999649933754561515e-02,-3.169314715213456535e-01,-5.674400938551288354e-01,-8.105238729083938387e-02,2.662151043714383603e-02,1.389088597745232467e-01,5.323839143827669568e-02,2.485095009716373204e-01,2.084411073188064401e-01,-2.780762282131686303e-01,-4.182509678125546082e-01,-3.139735895277311339e-01,-2.482170135784565745e-01,-9.822486278654534407e-04,5.833368055980106548e-02,-1.831153403921081946e-02,1.028398887050374494e-01,4.273301060957102743e-02,-1.325666299513352520e-01,-7.451773045120399508e-02,1.479190721748285808e-01,-1.750592023537140066e-02,2.230851258653956670e-01,5.648934494834258191e-03,3.282378673538000752e-02,1.354594440846972059e-01,-7.956540008143614395e-02,-1.951861054510036497e-01,-1.354190375154909476e-01,5.667731936085020766e-02,1.593509218595971430e-02,-2.453112801937738785e-02,4.218603097839406305e-03,8.948184414818256827e-02,5.298808692411328264e-02,7.070554084030589159e-02,-5.988506069955609745e-02,-4.140570648799642042e-04,-2.813402889962965392e-02,-1.053820313411308468e-01,-2.230644829559772502e-01,-3.768981599342151600e-01,-2.083730831953328755e-01,-5.048599324002116945e-02,-2.445629795925446937e-01,-7.610159405734806537e-02,7.883631533482057807e-02,4.832859602047337444e-02,-3.102095653408818224e-02,1.549554103840083442e-02,3.000151635288921328e-02,-6.957467876446314127e-03,5.678289231948698002e-02,-8.936927800307262193e-03,1.398421700098548097e-02,-8.088638504853566669e-02,4.890299825157791436e-02,7.438801608129103071e-02,-9.263379966673551680e-02,-3.271657252052389553e-01,-2.371399927004629316e-01,-2.050478458706921081e-01,7.353281921766598173e-02,-1.595967609152606007e-02,-6.141807434605774801e-02,8.439063652511119562e-02,-9.313022630025868942e-02,7.995810240376975686e-02,-1.047772772356982962e-01,-9.377072193818246360e-02,7.959226861724975899e-03,4.939467433004998687e-02,-9.269411193790036418e-02,3.021567788974556870e-02,-1.709192335709902935e-02,-8.859975704850724110e-02,-4.460041293753876784e-02,-8.566085723635565030e-02,4.412467757560181725e-02,-1.152807937863985915e-01,6.205898674591370234e-02,-4.741889169535041387e-02,-1.347965103909599949e-02,-9.533557818604014578e-02,8.976736558775037659e-04,2.958379702263525673e-03
2.549952677997024963e-02,1.434954925614188859e-01,5.240195989671187632e-02,-2.589208523646939833e-02,-1.570360344107175066e-01,-2.304749149470375902e-01,-5.302033367545982978e-01,-6.514177629993402052e-02,1.686031944524538917e-01,6.151989219379355028e-02,-3.144195416837330948e-02,6.905001569450991417e-02,-9.709556572637931260e-03,8.576048741482004967e-02,-6.378045357377544466e-02,9.354595198893231366e-04,-2.576887663737835021e-03,3.613829835966735349e-01,5.040901397712844734e-01,-3.759042130034230544e-02,-2.149250229205446616e-01,-4.112700241501177079e-01,-3.526338531724100278e-01,-2.336260727420476080e-01,1.800089959264397355e-01,3.120085766749388645e-01,3.008552509841077582e-01,3.594510221044960874e-01,1.658880288528573332e-01,-6.144953707087072448e-02,9.681298332381683969e-02,-8.071463032435979845e-02,1.896695970434631590e-02,-3.499699834643785895e-02,8.944341266742009133e-02,5.866289348224251049e-02,-5.507200219661938928e-02,-3.647692313168259259e-01,-3.643685861293317202e-02,-1.569948163214746895e-01,-8.114664336474985973e-02,1.524269291396127268e-01,4.132325885755390726e-01,-2.023730390508029775e-01,3.216353937552623998e-02,5.948464947163856903e-02,7.724964991886151822e-02,-7.113191744407556041e-03,8.681771296868702817e-03,-7.542870754603797634e-02,1.758750143969883481e-02,-1.029497624451976567e-01,-2.794185808805354498e-01,-2.592384705083836671e-01,-1.676047112713248688e-01,1.714438640733884356e-01,-1.286908883953029499e-02,5.862859500039714622e-02,3.459476901909673829e-01,3.379742558120815699e-01,-1.618657903375869955e-01,6.890055671552471062e-02,6.860294678321575412e-02,-1.030995355851072916e-02,-5.729650381088963185e-02,-1.546544889297327141e-01,2.349125828931771659e-02,-7.304153312806423853e-03,-1.570546218450277198e-01,-2.408982892605370796e-01,-3.968402960846540983e-01,2.472293396404012453e-02,2.685945278836398553e-01,2.581489433554791657e-01,-1.221021653313404259e-01,1.477049753192046788e-01,-1.318868559131926577e-01,-3.659237800881937064e-01,-4.032796071345511046e-03,-8.845523298609940521e-02,1.572067958419558903e-02,2.073454346491480915e-02,4.365817035658154516e-02,5.640081663262148243e-02,-1.471945448120214051e-02,-3.948218935103118415e-02,-1.046654397857590679e-01,-5.569933821644845739e-01,-2.682512025044654358e-01,-2.341341611937694522e-02,-1.291653073268737850e-02,7.596664845719183767e-02,6.657539742300036534e-02,-3.958865676694879598e-02,7.356267337699573701e-03,8.836976605325501388e-02,7.158382822987963134e-02,-1.221581233962471501e-02,6.322550367507565050e-02,7.012329584813087324e-02,-4.501174242135289050e-02,2.540759251299498991e-02,-9.107697229243359727e-02,-3.880524676839536974e-02,-1.139496438859733118e-01,-3.604621764944002660e-01,-1.042748762099288962e-01,1.354081534754090765e-01,2.726831532229620492e-01,1.391478745518932858e-01,1.506245139011802847e-01,2.360099749373532618e-01,-1.593923760600730877e-02,-1.118133965808769045e-02,3.354537752712825893e-02,-3.726573875678835385e-02,6.539892267728805719e-02,5.300527528354968820e-02,-2.881034980171535281e-02,5.277993923641322721e-02,-1.712297954153830723e-02,3.477767591592615393e-01,-9.577680952827219429e-02,2.768128758279170265e-02,2.706941241605772541e-01,2.090352740455304614e-01,-5.489225113364726294e-02,2.137438830102695586e-01,3.413509498323675784e-01,1.433005363354078465e-01,8.093714029812859589e-02,5.060877172106140187e-02,-2.682611165946527723e-02,7.174190293312396327e-02,-2.742783866101376755e-02,-2.961168440357007936e-02,-1.640928760311682888e-01,3.939544270886266575e-02,-1.495166592451025456e-01,-9.597791830099854093e-02,-4.421796424950358295e-02,-9.641350771015141929e-02,-1.674235879911597710e-02,-9.509963913175209504e-02,1.876188727497728470e-01,2.847755830958027534e-01,7.805015927348314675e-02,1.711055472692210849e-03,4.502219012076866429e-03,4.661134384232695771e-02,-9.867037290703897789e-02,6.551214615044279044e-02,5.289477234658344906e-02,-1.009742506265577378e-01,2.779976917759200972e-01,-3.501925422232839841e-02,-4.927043906833641906e-03,-9.350290682134573816e-02,-1.139660287748190393e-01,-1.384700911996133155e-01,-3.264927483031221378e-01,5.366437554977183250e-02,1.784195902220753194e-01,-6.266134327498983254e-03,3.179909421328586810e-02,8.237166636927547789e-03,-8.863197953637182852e-03,-4.223733470013002478e-02,7.010167401425299039e-02,3.170513636192405363e-05,1.945904634877238804e-01,4.034832881159735596e-01,2.684455900643599735e-01,-5.111212306229235072e-03,-3.095947797600415718e-01,-2.268294296928424769e-01,3.816189655715838264e-02,-1.498544356058613136e-01,1.223537243771770228e-01,-6.275599640985504712e-02,4.772690392043118374e-02,7.223770316587833917e-02,-4.258376106748208018e-02,-3.370099929696723090e-02,-1.048043921306365256e-01,1.161217149384207170e-01,6.744513865660596574e-02,1.673310450506129698e-01,8.136424158866313594e-02,-2.708393605674652010e-02,-2.900540493622364990e-01,-1.475906907957065251e-01,8.682887911336384379e-02,5.379388832563231776e-02,2.889269663041882930e-01,1.909195839357954172e-01,2.507142726643489250e-01,1.314753517431118124e-01,3.675616758868471834e-02,-3.602846201926954584e-03,-6.507896085661511731e-03,2.014959653600342446e-02,-2.443383743286197188e-02,-1.437290928552355761e-02,-3.710034619838974840e-02,1.287121281651891491e-01,1.498847431286367826e-01,-2.032768551579988148e-01,-1.209259470825465449e-01,-8.915773716158365003e-02,-1.308922237165381919e-01,-7.191714403563104208e-02,2.519728317937642847e-01,2.998994098015834719e-01,2.451211949499636222e-01,5.283072009542614383e-02,1.239684087844297594e-01,5.546821717029254417e-02,-2.332835725353640810e-02,4.176027408636308336e-02,1.865034897023026134e-02,-2.508737123090238469e-02,5.764300659779701685e-02,-1.146669028495207882e-01,-8.817042765741568700e-02,-7.539864303605380014e-02,-1.240695543415577806e-01,-7.781083583279523042e-02,-6.448095075941050192e-02,1.405818357699649412e-01,2.326614696360570014e-02,-6.541547471911765554e-02,8.872670128848628157e-02,5.995709667854293851e-02,-2.192141246712274449e-02,3.238929675497526778e-02,2.088827647891524850e-02,1.124787612423138461e-01,-1.975080042646398110e-02,4.668282321734663204e-02,1.457572892947895174e-02,-7.585828391785523483e-02,-1.816181528648597512e-02,6.731253731992913741e-03,-2.291659185117530736e-02,-1.494043189448597021e-02,-8.386432685169288581e-02,-6.615910445796624462e-03,1.006075481099084068e-01,-5.637379999109309869e-02,-1.967154191580534461e-03,1.419107791479845004e-01,1.567170415780873988e-02,-3.798511010687817546e-02,-4.793347981415390507e-02,-5.630283846680887022e-02,5.369470549279633381e-02,-5.051257067124075018e-02,7.849509345255129000e-02,1.245340140599324663e-03,-1.394897649727740684e-02,-8.398651176720136821e-03,1.616765220934848063e-02,-3.612669206286681783e-02,-7.596601672265393401e-02,-1.074955042382616383e-01,-4.806445613371570363e-02,3.762729984904528147e-02,6.795140209651789887e-02,8.698846993726720711e-02,-7.236530790669910840e-02,7.994936307843859835e-02,3.666572200997956360e-02,3.881743362488795229e-02,-4.503051357416136546e-02,-5.950241555611018168e-02,4.168865102883655138e-02,-2.767365431500621101e-02,2.900136235001733558e-03,-3.010427560331742011e-02,-8.436312533104138589e-02,2.208679773437540600e-02,-6.362137545648345605e-02,-7.229792650815707392e-03,-1.068824058854999683e-02,2.761396841451551482e-02,-2.553512327454381461e-02,4.198376081054331840e-03,7.879028210399393814e-03
1.627730900063081576e-01,2.443695437483704158e-01,1.057700145305410649e-01,1.203694729536596980e-01,1.471995039035259856e-01,2.239403538311466046e-01,2.495036767945915945e-01,-9.803502706495932639e-02,8.664252427435506498e-02,1.531803245756190590e-01,6.185781077407535161e-02,1.475519182319955935e-01,-5.481055101572224891e-02,-1.325205639636870512e-02,-1.981489000768228356e-02,4.770017122693933492e-02,7.023240051467823097e-02,-1.529469676945427736e-01,-3.549507951959908481e-02,1.414254635292808981e-01,-3.684055540045481636e-01,2.173308507085501898e-02,1.721170870367869088e-01,4.833693015697223400e-02,3.141744621085865163e-02,1.650080386786950681e-01,1.084501023573322398e-01,1.596183933175110425e-01,-5.946501428929251709e-02,-8.316412989404324552e-02,1.431293905080241805e-03,-3.250280835523892183e-03,-5.013015898030794004e-02,-9.028010652586557216e-02,-6.183250591154352410e-02,-3.250494423917055786e-01,-5.472954678791492888e-01,-6.033832881896509237e-01,-1.421096345241610326e-01,-2.906478458006701848e-02,9.483527298255592375e-02,1.292308491326898956e-01,8.374918213719954874e-02,4.905225649892192702e-02,1.094965968632337222e-01,-6.285365700630404784e-02,-7.481214458576433690e-02,-6.627219800082317924e-02,-9.482293204440923884e-02,-9.082514619930195932e-02,7.461381369213973200e-03,-2.548885001893951008e-03,-7.715570305709956722e-02,-3.479686951966152741e-01,-5.213133368923078548e-01,-4.195403546761488633e-01,-2.722023508544240133e-01,-6.432739235402672173e-02,2.676069707810335707e-01,2.691279849007524039e-01,3.142301530014166011e-01,2.288368340017394031e-01,1.010082296742429164e-01,-8.664216038698939470e-02,-4.068773557738630808e-02,9.688254914608536439e-02,-1.213748753495331456e-01,-1.284559896359539211e-01,1.523268244031742158e-01,-1.266114356277813213e-01,-3.816261199116405822e-01,-1.793612297291692914e-01,-6.006175375967478525e-01,-4.973995282327801637e-01,5.209042397065383884e-02,2.565433267171121634e-01,4.754614569016066827e-01,1.383785303209133233e-01,4.754383375214119023e-02,-6.226251308263038714e-03,-2.658563762325543561e-02,1.402428424945071916e-01,1.006811616560768091e-01,-1.754104679448138526e-01,1.122916623493911831e-01,-1.073655504704158353e-01,-1.684810781965404847e-01,3.374048813989953266e-01,1.367115253529979924e-01,6.424876874028336016e-02,-4.489426425662933484e-01,-9.064517548426172244e-02,1.504464543983539959e-01,5.573016437157164438e-01,2.325773459270125409e-01,7.624535049178297885e-02,-3.329018121848510703e-02,-1.265028869620218877e-02,3.214636567683443191e-02,3.844218126635596394e-02,-6.306748146575287539e-03,-4.292721677433735186e-03,-1.802843576305550588e-01,-2.697433668929029027e-01,2.631768626893374874e-01,4.399216665567289297e-01,1.233455496420101799e-01,-3.504536578092578569e-01,-3.226869642486662748e-01,2.006658618835520658e-01,8.379635323183540763e-01,3.392863569834364545e-01,1.532908166034532282e-01,-5.021504691613295351e-02,7.384096664449886493e-02,1.813179826257904081e-01,-1.502952062303986314e-01,-9.434096604692647839e-03,-2.818328315993682762e-02,3.227464619486056924e-02,-1.431708096532962604e-01,-1.997946280248616424e-01,3.223673265235295626e-01,-8.703874650597789864e-02,-2.484675473623239594e-01,-5.226440735728377085e-01,-2.806513050906322415e-01,2.945590716389865360e-01,2.007518798407124661e-01,1.479064594292123780e-01,-7.593402851185277608e-03,-1.837105277996027020e-01,6.587327377754026436e-02,-4.627829525730650650e-02,-4.308465437491434263e-02,-2.500942249952204863e-02,-1.078614596921273483e-01,-2.277886706044764398e-01,2.055795557756042724e-01,1.123037830760221650e-01,-5.776110256618448985e-02,-2.674092972392315137e-01,-6.770628577381635482e-01,-4.279059616692639234e-01,8.459628229437649721e-03,-3.784579307339945575e-02,1.735895704179695465e-01,4.481471601817170469e-02,-9.819993340485140901e-03,-3.626157299132085066e-02,-1.265972010063234343e-01,-1.226938359287097768e-01,-1.097735248773852174e-01,2.951555692122236757e-02,-3.484275560141948669e-02,6.537169428327296861e-02,-9.242483905291209306e-03,-4.310573373906876476e-02,-7.397462204982409306e-02,-3.210096552125422109e-01,-5.132406410208794068e-01,-1.898163766718110046e-01,1.918564334752329292e-01,1.135713580470135847e-01,-2.759566753939342136e-03,-1.698548539258867840e-02,2.839676434708159058e-02,-9.507548988751300667e-02,1.075853734145718055e-02,-2.265128855226491641e-02,-1.301686915439821332e-02,1.102406564247895987e-01,-1.157891623057830666e-01,-3.783210500539062049e-01,-4.156602152775247250e-01,-1.380195152504002654e-01,-4.323699063268631737e-01,-4.837103362904442427e-01,-4.068085184163429679e-01,1.218379249263941561e-01,-1.291698012877452451e-01,-8.061629479789234054e-02,2.566420219102042433e-01,-1.698715292535862668e-03,-1.562567153249237728e-01,-9.328446608623498781e-02,-7.299766479157306781e-03,-1.608001417297676705e-01,-1.650128839669989522e-01,1.178512846251072443e-01,1.320602125873604482e-01,3.087874339138542146e-01,7.794237281077720514e-01,6.489051754957291251e-01,3.156042241428645700e-02,2.072965332188547727e-01,-1.519864686871634785e-01,-4.197240343973793891e-02,-1.213142671679202055e-02,1.138504857061733294e-01,7.690310553261073268e-02,-1.400028573084964589e-01,-4.286046122189135499e-02,1.922975672707582379e-02,-8.595554487989159886e-02,-8.384066126421130249e-02,5.961685447401722238e-01,5.299625177414014621e-01,4.354147295702534559e-01,7.547852004125881198e-01,4.468296507444887711e-01,4.838967076094315978e-01,3.370247117149246519e-01,2.453255702469889568e-02,-1.278702133916441164e-01,1.947808943531689069e-02,-1.129012269473373548e-01,-6.395908171912523255e-02,-9.716217943845585625e-02,1.930756789178511568e-02,-1.037982491789971214e-02,1.349301090430449768e-01,8.976134167327587399e-02,1.173784353104906225e-01,4.933209699819745414e-02,1.190122411662214580e-01,1.936058023890193658e-01,-6.725614235668118945e-02,-6.061876129044764354e-03,1.190418048134744416e-01,4.957929090577034570e-02,1.108419946210257023e-01,-1.445882909215944617e-02,-1.416580240456357005e-02,3.941457098161801897e-02,-8.732061448808237092e-02,1.812773125800325831e-03,-5.339811463602629066e-02,8.693831322734019151e-03,3.693292216064465294e-03,-8.167687700087153391e-02,-1.813677925858963452e-02,-1.017218083332135101e-03,4.445699756899406524e-02,-2.716414973244320186e-02,2.857801430729961165e-02,-2.956279687645057067e-02,-1.015137317405597345e-01,9.521758316581478698e-02,-1.113118146028966096e-02,2.766905508461528149e-02,1.423608879559406792e-01,3.619952731501421828e-02,-9.198098485214403763e-02,1.877569421971923922e-03,-3.974071741818356769e-03,1.326884670993905002e-01,3.008509982709762012e-02,-4.570251143465522969e-02,2.950125028881459346e-02,-2.339044436625089748e-02,-1.008947178685923873e-01,3.836138897743215231e-02,-1.860821931049069788e-02,6.889361106191314865e-02,-1.376933512398670519e-02,3.648756146889256535e-02,4.065004140767415619e-02,5.226833662271466313e-02,6.312979757405710879e-02,-1.606811576666073924e-02,1.381263678439833553e-01,6.982938223797843791e-02,-4.225031829174370063e-02,8.895479695993913083e-02,-6.270973599971545187e-02,9.537468307783110444e-02,-1.146451162536839784e-02,9.739597804050714736e-02,6.991005111076806222e-02,3.624030189233438254e-02,-4.905885963837090802e-02,-1.257427720725498854e-01,-5.124083625128929721e-04,-4.824232855088526895e-02,3.525106427916004093e-02,2.669355318623389470e-02,1.592219188118848203e-02,5.551337095565141155e-02
-3.119025326147717436e-01,-3.337448705981150843e-01,-3.492164159629757569e-01,-7.225297445933816232e-02,-3.578492247501873225e-01,-1.342026129905472265e-01,-2.312158760388107193e-01,-3.663227332111809731e-01,-1.860537401279653558e-01,-9.999355264263244669e-02,1.074750000701495470e-02,3.955706649690098053e-02,-8.917542461706777501e-02,-3.308917788891541090e-02,7.432038863327883327e-02,-5.665972609588280223e-02,-4.224300817825063503e-02,-3.635658324192520552e-01,-4.402338884327335888e-01,-4.134586375832124960e-01,-2.152071104448300548e-02,-1.595108106806352247e-02,-9.798619080067734466e-02,-3.438680092722201098e-01,-1.835091452114425425e-01,1.986352982167671755e-01,-2.429765793152965578e-02,1.701609171214699123e-01,4.280438990246641234e-02,1.748957476409929851e-02,-6.181063268585468284e-02,-2.233198963047277608e-01,-9.442150166080844065e-02,-1.136980574315686436e-02,-1.693182823159730677e-01,-1.519578564611392957e-01,1.191757473603757972e-01,3.709698793921896720e-01,2.799990833621450181e-01,1.141313157941441225e-01,-2.113983355188892299e-01,1.166953124477122707e-03,-2.280491336062469288e-02,6.205949761301978590e-02,3.444550607275110449e-02,6.871394357665860930e-02,1.496142977760583359e-01,-5.686230275967920494e-02,-1.629741650064851222e-01,-9.669609298997475233e-02,3.633205324023761756e-02,-8.983498451368834847e-02,-9.308940067871286639e-02,1.496695060035538594e-01,3.027669923841088684e-01,2.279111541147449127e-01,1.091745613654250720e-02,-1.599100501729641410e-01,-4.089842787462122375e-02,1.989586619199268658e-01,9.507567880833200924e-02,1.989531334380414129e-01,-1.209312416861071764e-02,1.648054896125954738e-01,-3.644272393738919036e-02,-1.590714703183270795e-01,-1.205125770827569082e-02,-8.965747783096145174e-02,1.751045411173882405e-01,-8.967497296282553321e-02,1.235250321866756262e-01,1.926645862128138209e-01,2.663868574583186932e-01,1.646591217083556019e-02,-1.603955009167995771e-01,6.278875526218306857e-02,2.302258230992910715e-01,6.843569371895245890e-02,1.105943041890333073e-01,-4.461188796017317298e-02,-1.040405286795006018e-01,-1.211577557634931496e-01,-1.218446682571022038e-01,-7.616107775462127583e-02,-6.532015821810463821e-03,5.042130118713829268e-02,-1.303651309322773066e-01,-8.842696581775473519e-02,2.084673580109686064e-01,1.686107137226656727e-01,1.158846251226020724e-02,-1.441353491779771845e-01,2.168677942259755465e-01,1.441499277048339800e-01,-1.397085915743692501e-02,-2.069915065154425207e-02,-4.038843589217419074e-03,-7.188064322888998436e-02,-1.346226803496735069e-01,-6.590059012442645026e-02,-1.174327514634527919e-01,-2.792163816952653380e-02,1.471018432428055356e-01,-1.859200359986759588e-01,-2.090334823942732456e-01,1.511415048904341807e-01,-2.000725487690949433e-01,-2.802617518956200190e-02,-2.422982620388902941e-01,-3.071163819878128080e-03,-1.963226820889885788e-02,1.562264813969350963e-02,2.562973253995954118e-02,7.541420543559744505e-02,-2.295483402788040320e-02,-1.536387928566289862e-01,5.501858496318264360e-03,7.508827615909233200e-02,4.990948940047483517e-02,2.005678154043441797e-01,-1.343176139205007891e-01,-1.143045581361880197e-01,-2.039956222364292804e-01,-3.384021168595818807e-01,1.290246222788279246e-02,5.205725801057069918e-02,2.331816706459753918e-01,4.800941747706427010e-01,2.177520976829120103e-01,4.787775508431969113e-02,8.921707668295446314e-02,-6.808983960547891623e-02,-1.548094881058315331e-01,-6.409433155717796093e-02,-4.180472012832860129e-02,-1.096807000188717435e-01,3.794097034528301493e-02,-1.192690647688563615e-01,-2.224532049220709629e-01,-2.241578548262521120e-01,-2.307192639813977486e-01,1.088454985750134663e-01,3.210380100731849429e-01,5.088468671870809423e-01,6.540136679600275782e-01,4.241325877135721512e-01,6.930983166783823146e-02,2.169430429259212312e-01,-1.163142178311762642e-01,-5.914458471750844853e-02,2.232560682320972739e-02,-9.770490630270762394e-03,4.778495595372708044e-02,2.001107879876153905e-01,-1.381334060042367917e-01,-2.162576276848909018e-01,-2.286589320246666945e-01,-2.017791003553634499e-01,2.839135304202919929e-01,3.613755542937136522e-01,5.122490754185143880e-01,6.891591259295037908e-01,2.961520687960042530e-01,1.427509103652548628e-01,4.712666843241505865e-02,-9.288642991024219364e-02,-6.029180780628839997e-02,-4.247971549878677699e-02,8.357820518077491156e-02,3.702384685089240429e-02,-1.352200039333264214e-01,-1.861836849373071645e-01,-1.785734594128492517e-02,-4.173778432735791855e-02,6.495624122381730980e-02,1.598828623675561111e-01,4.782796025063635881e-01,6.022761286615518905e-01,6.710627641497018958e-01,4.299764899561617226e-01,3.964788877224768165e-02,7.421409431587805416e-02,-2.676790133503319929e-02,2.354677497155057905e-02,1.098056842073005523e-01,8.577052855127944089e-03,-7.803208814583859065e-02,1.031505832762373703e-01,1.615242848292862410e-01,4.640806310295970127e-01,2.782601896574058986e-01,1.088256804836779668e-01,1.449969187063562537e-01,3.148465184130432859e-01,3.119468746030666373e-01,3.767055254141003506e-01,2.687039710244739088e-01,1.681889850419644727e-01,4.174759021245306317e-02,2.460735584138561485e-02,-6.585486493880268744e-02,-5.298012416748107412e-02,3.396371304378931200e-02,-3.798547506278968089e-02,3.046117286617914741e-02,-1.177440698669520863e-01,1.279867760804384302e-01,9.629829463669560552e-02,1.361601606055969360e-01,2.147403701214373184e-01,1.838606350129531330e-01,1.087175069982092568e-01,-4.740995039721796617e-02,8.822120216220886990e-02,3.679980569594414747e-02,-3.105233600560981799e-02,-8.344116646247801139e-02,-6.282794921499158802e-02,-7.641391622904876099e-03,1.893357548539083279e-02,-1.405019647350368855e-02,4.944223429689643956e-02,-8.527307598925355780e-02,-6.813555198439538718e-02,-1.581264091771094060e-01,-3.328713439091823822e-02,-3.017931454951472067e-03,1.367552994672396605e-01,-6.359267876445121037e-02,5.920535592835377697e-02,-3.398328654328353071e-02,-1.151946154644418463e-01,-2.911793420523052164e-02,4.170889072538235681e-02,2.169455417774258097e-05,1.072985399183735145e-01,2.622638778226112771e-02,-6.392485053923172011e-02,-2.020793603587345277e-02,2.371918282540888545e-02,-4.632883169467642143e-02,-8.850888882210267150e-02,4.055640733925949815e-02,5.380914069480565061e-03,-1.176430683767051150e-01,-8.682667371728058914e-02,-6.045550863298871508e-02,6.917663934401074854e-02,3.330923455754595391e-02,3.652461153217021611e-02,6.766281212849087345e-02,6.268182581138675991e-02,1.708430045991048835e-02,-1.030172003105946955e-02,8.503655532772755321e-03,-3.581524657410180279e-02,5.163745188022282606e-02,2.951773778260038256e-02,3.406008753665734721e-03,2.659174421789214059e-03,1.077945343134112943e-01,-2.238475555666928976e-02,7.734423409626267620e-03,-4.064051019391558967e-02,-5.211914337113155576e-02,-3.552305132377027441e-02,-5.259708101193875246e-02,-2.355623725063521468e-02,2.962355680662080368e-02,-1.164912467727574202e-01,-1.685307467244298238e-02,2.612839463794212891e-02,6.490703520497681511e-02,-2.637946382261420822e-02,2.204619640295651939e-02,8.666184535694615790e-03,2.018145513991291204e-02,3.446782269969956430e-02,-9.381169216260897004e-02,6.244548779461512635e-03,-2.337392873855960104e-02,-7.307526656828423200e-03,3.373559205346679806e-04,-1.127865898307947451e-01,2.976200173220420672e-02,-1.581181330870634616e-01,-8.184638534306144797e-02,3.922678391390176100e-02,-2.650863662378167350e-05
1.160723966828083598e-01,-8.807767070825903155e-02,-1.172514672383419554e-01,5.247119351999438713e-02,-2.629112786379394356e-02,3.235664033962739605e-01,4.835044930394405971e-01,2.665852830866734524e-01,-6.767876349487432497e-02,-8.183799108304304348e-02,-1.849889411908263170e-01,-6.513394769664389294e-02,-5.798915157210249131e-03,-9.901107799735051063e-02,-3.541886443112998717e-02,-2.411740209874919244e-02,-2.773543329285002579e-02,1.078866181868553542e-01,-3.940074510270495933e-01,-2.375530345872902405e-01,2.138729311311551307e-01,2.057875155135941436e-01,3.466593604427460895e-01,3.087738803279010957e-01,6.929369427224498779e-01,1.748775015539058564e-01,4.141061559804178061e-02,-5.434858133842728617e-02,7.335811212773202944e-03,7.937631573209627533e-02,1.353809160213117167e-02,-1.226131522407422764e-01,-1.030674036739021027e-01,4.340871106977072652e-02,-9.572575591149935781e-02,-1.672970187638958273e-01,3.562768645496499631e-01,3.176503475001028476e-01,1.912278470188990068e-02,2.268939895746457588e-02,2.545097610743722941e-02,3.942397448921610703e-01,2.253660906628757871e-02,3.320267185584222513e-01,-3.827964206923032200e-03,8.636452201863430156e-02,2.650948634199650975e-02,-5.928932268818201679e-02,-4.550754610231439595e-02,5.474468674367832105e-02,3.578917837706779848e-02,2.804422419626936835e-01,-2.049489077623838085e-01,2.162384873995096268e-01,4.070448567583825894e-01,4.540587390341010998e-02,-3.382621014956551514e-02,4.916112608661574873e-02,3.462519026049167281e-01,-1.362370829891620116e-01,2.310769935562660415e-01,1.609640308235172138e-02,-2.025220691916710947e-01,-1.184617719531233238e-01,-2.036757633536459555e-02,-1.504478569446674463e-01,-6.358661815103519577e-02,9.370949918128329559e-02,-3.139659819082447206e-02,-2.633923965882154494e-01,1.583914773189453451e-01,2.436041392473801970e-01,5.824023294769899856e-02,-8.375921003386438413e-02,2.109391805853813306e-01,4.871367433333869679e-01,2.191365757054021812e-01,4.723085838246030566e-01,2.273616014522553408e-01,-1.453725963419229827e-01,-1.217362358397995614e-01,4.593597414100084736e-02,-1.112574574491429907e-01,-5.263523324367367501e-02,1.081649833085995827e-02,2.359205449994172255e-01,-3.965008531310678652e-01,-4.720917041437821537e-01,1.281449639350484837e-01,-1.677995758765858103e-01,7.928522780491491229e-02,2.126178475899245246e-01,6.005622987497616361e-01,-1.151683406930209819e-01,-1.048930636451662068e-01,6.372196073723162234e-03,-2.327331382717198402e-02,5.858726643696023084e-02,-9.881482388896094260e-02,1.236885095153795744e-01,4.232196942061881156e-02,-1.700973653739482894e-01,1.797477248597338650e-01,2.256813182752364505e-02,-2.860819466127925148e-01,2.806897514161642640e-02,7.180505772271085496e-02,-1.655076575129465002e-04,-3.284340258221646325e-02,3.351932604523918946e-01,-3.161008249744309273e-01,-3.262653755816007362e-01,-1.911301901321616203e-01,1.431804982489907341e-01,-6.737237546436286584e-02,-1.359925510040017327e-01,-1.878967362402607019e-02,6.740599037621271272e-02,-4.227770356327806289e-03,-3.437788332204488873e-02,4.091469533891856775e-02,3.003657135361991193e-01,3.095551535659717413e-01,4.494527112745203001e-01,2.087230619308665103e-01,-8.580356849474241043e-02,-6.067096242145096630e-02,-4.963499632948705220e-01,-6.480529865211569485e-01,-2.931448886224800043e-01,-1.367979113438749228e-01,6.787452241601007671e-03,-9.788793822465143013e-02,-3.271989719936710395e-02,5.109382418850247354e-02,-8.375767114952019365e-03,3.595456259874626470e-01,8.492069535048993312e-02,2.509020400742459356e-01,2.925963580463561420e-01,3.510327235332929563e-01,2.041178022705379402e-01,2.433364097343086729e-01,-2.180750404848012247e-01,-4.205071956745146666e-01,-6.723496482343921388e-01,-4.536813725463106906e-01,-7.112795646553603246e-02,2.559282315459828969e-02,-1.090733564837137980e-02,1.369235294814823492e-02,5.340067180113930445e-02,4.301074016105731201e-02,1.171991859670971775e-01,-1.349984711013640093e-01,4.630479167896006110e-01,3.994392521170306298e-01,3.172219389235991227e-01,3.312514845150889564e-01,2.144009409693074519e-01,1.049210535572122661e-02,-2.026352686637497846e-01,-8.293012906458099853e-02,-2.816824284943175161e-01,-1.250088740219138239e-01,1.566789963786244938e-02,1.104684137965411539e-01,1.116581113845041967e-01,7.245316474750337910e-03,1.361953638577438445e-02,-2.123745130523084779e-01,-3.654186998862133939e-01,2.157689042108169308e-01,1.826900755131449228e-01,1.222079028719059157e-01,2.333030718240684809e-01,2.379686834269847118e-01,3.838338007847256761e-01,-1.048557591742536738e-01,7.813567616391962900e-02,-2.861809378436353524e-01,-1.149547857367663045e-01,-8.142352116640719228e-02,-5.532597502951609042e-02,-3.923528820174337212e-03,5.558113802358080613e-02,-4.196635885478539052e-02,-1.954970024881087093e-02,-2.157170781951900929e-01,-3.767465688893560927e-01,-5.754702249161223193e-01,-6.433915933616327631e-01,-6.243007974747397659e-01,-1.892327397607392048e-02,1.211293331403898027e-01,-2.534773923458636391e-01,-2.488877392566980762e-01,-2.322873081495090142e-01,1.664459484750917609e-02,7.817913200109563587e-02,8.210778220614950440e-02,2.658299174834990314e-02,-3.235804960788087048e-02,-2.989818796778197924e-02,1.235804275350310538e-01,2.245065056079912635e-01,-3.718862408196654812e-01,-4.517085351867707321e-01,-5.347740492260000256e-01,-5.886797144956492644e-01,-3.039302530034795891e-01,-1.226088857066083559e-01,-4.591856326695278323e-01,-3.787162648369372109e-01,-1.620686406077389563e-01,9.069729635565290660e-02,2.954307161431397530e-02,2.103597078632876358e-02,-7.146311567102361928e-02,-2.386762492558165694e-02,-1.413763916757092842e-01,1.030376634135420355e-01,-4.468210777240298748e-02,-2.286009770898512691e-02,-4.545428678158239255e-02,-1.277881433935577210e-02,3.185878677068721548e-02,1.471502343371335342e-01,1.082686327433954494e-02,-1.835680194951406496e-01,-2.792440198254334330e-02,4.885328983425011456e-02,2.154562845677748372e-03,-2.493262247878638704e-02,-5.705420165276216954e-02,1.105248845047752254e-01,-8.797849251732560438e-02,8.176985892357571672e-02,-8.035767872714302817e-02,8.764923235357983955e-02,7.999370302469792360e-02,2.970491778409659056e-02,-2.534697267332901641e-02,1.933748150904750496e-01,3.312409023623531512e-01,3.989376919439487357e-01,5.075547364155955782e-02,1.189438112391542207e-01,5.934225763513497481e-02,4.541746602879703776e-02,1.308502053674657399e-03,-4.679098341795945304e-02,-2.926441672031754662e-02,2.549118745610278944e-02,-5.860329062378843989e-02,7.554759517845316408e-02,-1.933580718083941982e-02,6.439680820527445004e-02,2.282108669029594278e-02,1.628592119130238330e-03,2.839148319855044553e-02,2.447661589010033389e-01,3.198877559781131974e-01,2.919376973424100963e-01,2.376773550401217738e-01,1.395646923696200817e-02,-1.455642102146976168e-02,8.862094266107432838e-02,1.392144121359938959e-02,-1.551493857997812975e-01,4.287493396811781210e-02,3.666928187891244084e-02,4.124445409003954857e-03,7.908749641086809667e-02,1.672294406340186709e-02,3.601569546290415980e-02,7.684708156588802852e-02,1.534057172689161364e-02,-5.647079153062570592e-03,8.960035291004158145e-03,-1.533699986791679619e-02,8.807247282422119017e-02,8.806764451766611879e-02,-1.099278278359004102e-01,-9.444952800643346275e-03,6.650832167778060466e-02,1.888849668004819599e-02,-2.825112548281028327e-02,-1.346644662718998915e-02
1.477703148234868480e-01,3.522036225656562936e-01,-1.933823414671006213e-01,-3.147323535152213303e-01,-6.640136256208165610e-01,-5.171155278804174804e-01,-3.948420658581005549e-01,3.053033453138276343e-01,7.406235230135384262e-02,1.536482131091740366e-01,-4.712888797179470152e-02,9.827374947405281835e-02,5.939810956965470984e-02,9.112066409859789773e-02,-3.649315901431684703e-03,-4.803210162609219958e-03,1.087632340175252871e-01,1.359319799733271078e-02,4.618607324266807423e-01,-1.254842765426011086e-01,-7.240788750662261464e-01,-8.887394884364195891e-01,-4.694035741385390037e-01,-2.814239482973560635e-01,3.978163001031657098e-01,1.820766148913760818e-01,3.870177726324366962e-01,-1.238913403104845851e-02,-1.316329990039321815e-02,-3.635576646096774084e-02,5.676255839044705431e-02,1.973520759674654568e-01,-7.033535951886213389e-02,-2.895873802025403232e-02,1.935968918616650866e-02,3.153393253552405073e-01,-1.164895236713145016e-01,-1.183951282486452594e-01,-2.265462506432237011e-01,3.015896755806788884e-02,3.428283989334331427e-01,5.257018884221044130e-01,5.089002481334189421e-01,1.763194562797238407e-01,-4.749848078091774978e-02,6.836125104030940300e-03,-6.454342367663395974e-02,9.449997987823698098e-02,6.024690994788112208e-03,4.933066907614458430e-02,3.392960417313928972e-02,-1.378934554631179032e-01,3.091572650856559967e-01,7.462314060689388684e-02,1.993600110347896193e-01,-1.369517884916573724e-01,5.369704744571118793e-02,9.962413609381101653e-02,8.271656376930209831e-01,5.455306349232119656e-01,2.335193124785562291e-01,6.334518011766580858e-02,-6.326875272583876164e-02,-3.123201232606856448e-02,6.878177631385511137e-02,-1.431012938315020036e-02,-1.181241825174789845e-01,1.414244372320846294e-02,-2.610330096620134821e-01,1.946294391991065242e-01,-2.049033775276493663e-01,3.985917476677430238e-01,-2.344119908695844676e-02,1.495115706121185883e-01,2.755914058496618940e-02,6.559916122205476929e-01,6.459530111745171999e-01,2.894157073321521612e-01,7.622020958517114475e-02,6.096862426118099991e-05,-3.358111285139020030e-03,6.253185395275822137e-03,2.605514239841991500e-02,-4.846783456068978063e-02,-8.720849687952628160e-02,-2.929803378137854630e-01,2.007170088393592788e-01,-3.623281849505404772e-01,-6.457143092192479950e-01,-8.145333028266231734e-01,-5.844268092863127428e-01,9.110155272203054877e-02,6.562286502899300489e-01,1.984718397210280538e-01,1.901685949773510714e-02,-3.872988059680781969e-02,-1.245650541080006030e-02,1.181009716650075481e-01,4.891318862235595477e-02,-2.810821978264603505e-02,-9.714693247916313112e-02,-7.702864337762411811e-04,-3.462266889548214488e-01,3.550477402424196960e-01,-3.612680099367285291e-01,-4.466863629905039046e-01,-5.563897734164798825e-01,-5.896345167616208194e-01,1.677944876515857220e-01,4.544566891276452525e-01,2.621362277530046164e-02,1.002730639398650009e-01,1.880043424737726232e-01,-1.092737081382811615e-01,4.306710179337744360e-02,6.837987638018581948e-02,2.877664808646387268e-02,-3.646871787181661662e-02,4.914189609236822159e-02,-2.549579408017380588e-01,3.580085843930570499e-01,1.200106424204148850e-03,1.933234560553703518e-01,-1.447262956709087500e-01,-2.400193610570916514e-02,-1.210844680084608854e-01,-1.087663380385002349e-01,-1.776694851456879498e-01,-1.611854540348274523e-01,5.634361738454503332e-02,-2.059603852844018035e-01,-8.235312897109996200e-02,-2.401297035897663468e-02,-9.172567162213982050e-02,-5.351324603119426288e-02,2.785570469285589355e-03,-8.807457864975275219e-02,2.466847399168493049e-01,3.068828080766969335e-01,1.482429539340239244e-01,-5.681070926556638229e-02,1.732260563359067432e-02,-2.106702259842158087e-01,-1.839943844972309617e-01,-5.231862501322602776e-01,-2.312247612138169650e-01,-8.435179728232006235e-02,-1.423220702479474631e-01,-8.487575817558785929e-02,-1.881004001390248342e-02,-7.635979354885875925e-02,-7.003632912800587806e-02,7.931525489724775002e-02,-1.141588734991642179e-01,1.682843793729777160e-01,-2.484772687544445913e-01,4.512848383348945502e-02,4.279290450192742290e-02,1.405914385406339395e-01,9.635752250696742738e-02,-9.741384889665623270e-02,-4.013233132253893332e-01,-1.188473680619021311e-01,1.944283525279807412e-01,-8.108374449540863005e-02,-2.738100984486939449e-02,4.347912909783720366e-03,-5.412521316219150863e-02,3.494431262525190488e-03,4.309278366881856559e-02,-8.336974364570373663e-02,1.118019287644874682e-01,-2.813740169148541970e-01,-8.890683273039388934e-02,6.278571342845215564e-02,2.827962985569962839e-01,3.155273939426575525e-01,-2.926374968620702038e-02,-1.004269189808495444e-01,-1.004248881916210145e-01,-1.655334744156030102e-01,-1.538434278155963453e-01,-1.311916276012783759e-02,6.529036205666148562e-02,1.114960915744013514e-02,-4.602537637735711756e-02,4.449395053348497581e-02,1.068016381080637706e-01,7.411155288598403335e-02,1.153423445508830053e-01,3.602091346421539692e-02,2.094416592877525185e-01,5.115501073890965644e-01,4.988778971239499205e-01,-1.484513477676238646e-01,-3.643311777720253386e-01,-8.119523586097580903e-02,-4.720654699366131496e-02,-1.386679251781731681e-01,2.507688242395037306e-02,4.127453179368382324e-02,-1.387164645643025260e-02,-6.768636106759232107e-02,-7.688055938346569779e-03,6.936638852083118652e-03,-6.655354625719714368e-03,7.680823508522154064e-02,2.379000898235796857e-01,4.242158584030533697e-01,5.627802393251819524e-01,2.459320450664340130e-01,-3.018414714913579822e-01,-2.060735480123443986e-01,-2.992768248735965253e-01,-1.807321725070872021e-01,-6.802990216395654599e-02,-7.143466119731657626e-02,-2.831655971199908278e-02,-2.966044411460740451e-02,2.678962603753494084e-02,3.636325071450816765e-02,-5.428069540800347509e-02,-4.204242851997681829e-02,-1.464774926049098591e-01,-1.611704513276234207e-01,-1.188506588031592176e-01,4.351541806111118571e-02,1.130943082903586722e-01,-1.129328839710612709e-01,4.068924111680543437e-02,-4.564124812704394712e-02,-1.068874864150521353e-01,-5.502499437287047129e-02,3.111935293130641336e-02,-1.414826726080683095e-03,-6.849817985699253875e-02,-1.421154988989189460e-01,-6.060755512943286072e-02,-2.379870143264362775e-02,8.879813124431371052e-02,-2.140631856333440053e-02,7.392829543128434655e-02,1.354608694997563034e-01,2.120197680340749347e-01,2.579822407807753071e-01,3.049526643553737149e-01,2.140876029905145264e-02,1.196715683512822592e-01,2.050967877972050823e-01,5.236832281035188469e-02,-3.062827245560946141e-02,-9.414566240617438381e-03,-1.315036414763777473e-02,-6.299973160720735710e-02,-2.665288638415174577e-02,7.634893291647371072e-02,-9.531095148174929810e-02,4.624711500649546225e-02,-2.636475968544521944e-02,-7.522018151444621881e-02,1.556866368058042356e-02,9.437498889095247145e-02,1.962818737607170683e-01,2.366374973040896446e-01,1.871070401429199836e-01,6.146447938613400913e-02,-3.629802466097793029e-02,9.466534739575866234e-03,-8.079910434755573079e-02,-4.536524528268976592e-02,-1.865849165610098531e-02,-8.208761595344450657e-02,-1.228918479791584611e-01,-2.601978841327719921e-02,-6.335307976017587328e-02,4.975881573343218095e-02,-2.041777101486851390e-02,1.708004827166608938e-02,5.773806603177222829e-02,1.338959975543841385e-01,8.376547637928212497e-02,-1.102677057987627371e-02,9.206546022505573967e-02,-3.977621227457098924e-02,5.618349737326956694e-02,-7.023777390644793568e-03,-4.023642703886425032e-02,9.852889088118246819e-02,-6.758717041457681929e-02
8.058923800151530925e-02,-6.245825666205145899e-02,-1.542258730470425221e-01,-1.770116274095879516e-01,-3.914074917226354478e-01,-4.369779090491000551e-01,-4.733742714630538861e-01,-3.575095332504960588e-01,5.320420996321806317e-02,4.167553842247756490e-01,3.308182918013035101e-01,2.102420453104801579e-01,-1.535882401841546507e-01,6.707520581535229842e-02,6.545093700894348554e-02,-7.367183891514722527e-02,4.298226114051328234e-02,2.042119803381167997e-01,1.266112796024821407e-01,1.891100728472566994e-01,1.737042428001717431e-01,-1.575410043973545227e-01,-3.601328653558517612e-01,-5.591023138682347238e-01,-7.523436779895560367e-01,6.864517373214590323e-02,1.460715716420193100e-01,2.971626911355879086e-01,2.280067597899729515e-01,1.533185962358073195e-01,5.706869046848592197e-02,1.484028513860232990e-01,1.124427721258118157e-01,-9.315825646317395237e-02,2.801746296786188917e-01,7.822870986802324400e-02,1.424460881522708888e-01,3.275578615969708118e-01,-1.978149032284501688e-02,-1.008749066171556880e-02,-1.064005041938808904e-01,-3.339940518671458691e-01,-1.883819469339299002e-01,-2.805836284141170756e-02,5.021462943249719452e-02,1.185849205475529577e-01,-3.798863626171950208e-03,1.590989936454712539e-01,8.278253378903396853e-02,1.025402551169475596e-01,-2.367194824086567631e-02,1.408431132317188861e-01,-8.192394293204498246e-02,6.262736795665234391e-02,5.476503125063679478e-02,5.500690431486341542e-02,3.490562524719655890e-01,1.361345889741396031e-01,-2.495744929341784102e-01,-1.557291979359684553e-01,8.960019299148988536e-02,1.121078187769404023e-02,1.291498012225424374e-01,2.210280140277199046e-01,9.164646068186610428e-02,1.036899788880430717e-01,-7.696144047733925742e-02,8.174303298013312763e-03,5.942447325621722648e-02,-1.166057477779946505e-01,3.802633508480051522e-02,-4.937444041699069752e-02,1.970095982030800608e-01,5.860288540476650265e-01,3.402169373644639561e-01,-2.169379182257697158e-01,3.321743032553488989e-02,-8.780755320474321890e-02,-1.446551936511292213e-01,1.192297313938968373e-01,8.232237819566498582e-02,1.159341642705544184e-01,1.262447129298622898e-02,8.166704404458134670e-02,6.384002714085149077e-02,1.215726019988570134e-01,-6.684093008172355133e-02,-5.153976081932019893e-02,-7.484197549539950423e-01,-3.037430015523336357e-01,2.899541468341793604e-01,-3.943461265083104961e-02,-5.833492079523945328e-01,-1.188182390206637823e-01,-5.107270221087512052e-02,-3.776147491952063645e-02,-4.931866749386103199e-02,8.650007015636625163e-02,8.237286598302950846e-02,2.676693876979655690e-02,1.263763345713757964e-03,-5.923594105265593546e-02,1.404981537494495725e-01,-2.208653354302392846e-01,-1.469447168497689249e-01,-5.817915151037932331e-01,-1.657265035602406289e-01,-7.414523023074159891e-02,-1.021857618590091416e-01,-5.477501093595025239e-01,-2.561478363314154683e-01,-2.265978364061486394e-01,-9.039444759530609885e-02,-1.234133552337224327e-01,1.852879463381036096e-01,1.191355221827695154e-01,6.950623205726243203e-02,6.508146986880088136e-02,-2.104538240376484237e-01,2.027498648133946868e-01,-2.279733493188267901e-01,8.028340616545974126e-03,-9.154197536867871021e-02,1.530026685753435034e-01,2.827838034338299722e-01,2.570146272408546095e-01,1.828802204858912261e-01,-2.276296826198602186e-01,3.561810539335365233e-02,-1.742394684916880043e-01,-1.138208165719874210e-01,7.659597134517454053e-02,8.425089208213912273e-02,-1.885481195036814439e-02,6.070127575402262804e-02,5.189632546991550938e-02,-7.950355128139510383e-03,-1.538394551741257277e-01,1.836769044376839466e-01,1.596169834239687113e-01,3.251449295026674902e-01,1.334388475105643956e-01,2.638256660168782908e-01,-9.199124964422956963e-02,-3.142868965868714781e-01,-2.671419577189097505e-01,-2.008776678144121863e-01,-7.409744557559086453e-02,8.210089125856215309e-02,1.257950516039684635e-02,-5.597322226582721050e-02,2.519471267625616323e-02,-4.342570025001511042e-02,-2.566814881593940667e-01,-2.268313319067713774e-01,-3.111528009852099208e-02,-3.692248050333959974e-02,9.441059122610398480e-02,2.523074429828955356e-01,1.179305380955139454e-01,4.460931799299389100e-01,-4.178391037595328289e-02,9.593387973130211577e-02,-1.655926544562621658e-02,-7.596171249565616956e-02,1.561089712250608164e-01,2.082882160318656750e-02,-2.559172717664572397e-02,4.525965792835472817e-02,1.787244749164524499e-02,-1.789751739101348160e-01,-1.360083514526955195e-01,2.281018406688588018e-01,2.188090576568228196e-01,1.060848863351814969e-01,9.951581287529469300e-02,1.766563258636256739e-01,2.745463297343522791e-01,3.590477166734820300e-03,7.054186790609875794e-03,2.190302763671046482e-01,-1.016798203978271781e-01,1.993184835662267507e-01,2.523423261461354289e-02,-1.703914235537982297e-02,-3.709900817891675917e-02,-4.566516440624917260e-03,7.728389727873012649e-02,-7.809334396989307814e-02,3.333207948741601090e-01,5.503369865045797393e-01,3.617392578545636783e-01,1.777144179915312594e-01,2.008586717574147862e-01,3.334288241447122547e-01,5.187791424582777200e-02,-1.128934998884593421e-01,2.465271910583745618e-01,-4.861254300458339728e-02,1.740475565998296781e-01,4.793302396123606812e-02,1.146635742171127487e-01,1.388697401374586471e-01,-4.157228079445023788e-02,-2.129297832727362200e-02,-3.766313349064914773e-01,-4.550026228283399893e-02,3.414409725979609678e-01,4.717263340470881916e-01,3.298734356497269316e-01,3.516966224357771509e-01,2.170874499427725979e-01,-1.615041729995937980e-01,-6.013657740582760425e-02,1.778717037323399031e-01,-8.624273103861451739e-02,9.144993544705608268e-02,-7.809138595052803056e-02,-4.040464035092365680e-02,5.902723162382283312e-02,-7.543475284909458879e-03,-5.995086911942720115e-02,-2.099375413119928813e-01,-1.847436752678240646e-01,-2.519194620069329163e-02,1.466311388618178092e-02,2.216405913239497816e-01,2.276310207003171271e-01,7.862643771409823235e-02,-1.660854028435205521e-01,-6.402794005897921581e-02,-1.942126926699963563e-01,7.389856686141736686e-02,-6.301873461928077236e-02,-7.734283739207407742e-03,1.420199100124835689e-01,-8.775913249784754455e-02,1.086885322370075152e-01,-6.216851409391734029e-02,-3.969091781576881278e-02,-3.459880044877086669e-02,-1.000868979543018469e-02,-1.546160981867523120e-02,1.639905147338157065e-01,2.787614966209531198e-01,2.703989405167722682e-01,1.291167195192415851e-01,2.042876193166061061e-01,9.598481362337567269e-02,4.386085469618775795e-02,5.093532737360093043e-02,4.059799737344309961e-02,-7.002016548339651258e-02,-8.540830550424381717e-02,6.671004420314863119e-03,-4.056299216422160764e-02,-8.096043842810353441e-02,-7.567251758377600834e-02,1.574366874499602553e-02,-5.735220027900683054e-02,5.992520341198224500e-03,2.540683378121840197e-01,2.532126437462323687e-01,3.358043085961280871e-01,2.524576286678919534e-01,7.492834236911309620e-02,5.186142184486022821e-02,5.184137425394763632e-02,-1.408009191232534839e-02,1.311169110487386130e-02,5.988723445592508687e-02,6.202315301873238124e-02,-5.445974759763089375e-03,-2.425712871454410030e-02,-4.219975929097560113e-02,-1.570734575093012814e-02,2.254408543542851112e-02,-2.233860422236673415e-02,1.120678244077095986e-01,2.819836005306426349e-02,-2.428065706619432322e-03,1.004440881426136301e-01,-1.705008824776927875e-02,-5.982990716254499297e-02,2.685982776871407782e-02,-8.010198123342469889e-02,4.097084340870699171e-02,9.141462678088937976e-02,-1.184104686058935485e-01
